8.516361936926841736e-03,6.430120766162872314e-02,2.232869900763034821e-02,5.797610804438591003e-02,-2.944841235876083374e-02,4.526443406939506531e-02,-5.080092325806617737e-02,0.000000000000000000e+00,3.291774168610572815e-02,3.986468538641929626e-02,2.133806608617305756e-02,3.029179014265537262e-02,3.577678278088569641e-02,2.525324188172817230e-02,8.124611526727676392e-02,7.422148715704679489e-03,4.907831922173500061e-02,5.547334998846054077e-02,-1.901453919708728790e-02,7.904002070426940918e-02,6.117009744048118591e-02,1.957389526069164276e-02,3.577963635325431824e-02,8.352247625589370728e-02,1.094409078359603882e-01,-3.206234797835350037e-02,-2.517084591090679169e-03,-2.685413695871829987e-02,0.000000000000000000e+00,-4.476441815495491028e-02,3.941273689270019531e-02,6.170981004834175110e-02,7.488533388823270798e-03,-8.668407797813415527e-03,-2.704464364796876907e-03,5.700402706861495972e-02,2.758627815637737513e-04,-3.852397575974464417e-02,-5.045197904109954834e-02,0.000000000000000000e+00,1.180259212851524353e-01,3.189782425761222839e-02,4.612584039568901062e-02,3.972536884248256683e-03,-5.003916885470971465e-05,-5.652458593249320984e-02,3.858677670359611511e-02,7.093767076730728149e-02,-1.146705076098442078e-02,5.092703577247448266e-05
9.039738774299621582e-02,-1.401127576828002930e-01,1.143684834241867065e-01,-7.537779211997985840e-02,1.221398040652275085e-01,-1.208773627877235413e-01,1.433818787336349487e-01,-1.825811564922332764e-01,-2.547413706779479980e-01,1.970229893922805786e-01,2.065795809030532837e-01,1.159106716513633728e-01,2.105523459613323212e-02,-2.420297414064407349e-01,-4.172386974096298218e-02,-6.294068694114685059e-02,-1.030573546886444092e-01,7.291705161333084106e-02,-1.372375339269638062e-01,-3.611599281430244446e-02,-1.396093666553497314e-01,-1.495804041624069214e-01,-6.974256783723831177e-02,-1.551760882139205933e-01,-5.377122666686773300e-03,-1.067937016487121582e-01,5.520948022603988647e-02,1.009584143757820129e-01,-1.830689162015914917e-01,2.317888438701629639e-01,-2.551240026950836182e-01,1.747405976057052612e-01,-1.856430247426033020e-02,-2.762253209948539734e-02,3.502670302987098694e-02,-1.818585842847824097e-01,2.405235469341278076e-01,5.098978430032730103e-02,7.058864086866378784e-02,-1.995857656002044678e-01,1.490252315998077393e-01,2.448749691247940063e-01,-1.202692762017250061e-01,7.080362737178802490e-02,2.309548556804656982e-01,-2.491869032382965088e-01,-2.094903141260147095e-01,1.102322414517402649e-01,1.882937699556350708e-01,-1.736653596162796021e-01
-1.311345249414443970e-01,1.765791922807693481e-01,2.698709666728973389e-01,1.333223730325698853e-01,9.720344096422195435e-02,4.512218013405799866e-02,-2.471327930688858032e-01,-2.363408058881759644e-01,1.900697052478790283e-01,-6.696674972772598267e-02,7.792814075946807861e-02,2.338788807392120361e-01,-2.011829763650894165e-01,-8.555479347705841064e-02,-2.169391214847564697e-01,-2.117773294448852539e-01,3.150289952754974365e-01,-2.545855343341827393e-01,-9.412750601768493652e-02,-1.332674771547317505e-01,-1.837362945079803467e-01,1.944120228290557861e-01,-1.812118291854858398e-01,3.884704709053039551e-01,-1.257684081792831421e-01,-2.087807469069957733e-02,-6.488630920648574829e-02,-8.671036362648010254e-02,7.384149730205535889e-02,1.588213592767715454e-01,3.480273783206939697e-01,-4.500414431095123291e-02,1.026179492473602295e-01,-1.103554293513298035e-02,1.946140676736831665e-01,-1.227434799075126648e-01,-2.096586078405380249e-01,2.779074199497699738e-02,-1.223756596446037292e-01,-4.846741259098052979e-02,-2.388728857040405273e-01,1.951136887073516846e-01,-8.099271915853023529e-03,-9.498237818479537964e-02,-2.145775854587554932e-01,9.925350546836853027e-03,-1.324422508478164673e-01,-2.601432614028453827e-02,2.260475233197212219e-02,-2.085584551095962524e-01
-1.026268750429153442e-01,-1.757481098175048828e-01,1.848699450492858887e-01,2.422741502523422241e-01,1.647781766951084137e-02,-1.376661062240600586e-01,8.682032674551010132e-02,3.079406917095184326e-02,1.529407501220703125e-01,-3.448636457324028015e-02,2.240434437990188599e-01,-1.793466359376907349e-01,-2.044516503810882568e-01,1.548124104738235474e-01,-2.837330847978591919e-02,1.484582424163818359e-01,-1.025136038661003113e-01,1.939422339200973511e-01,-2.250400036573410034e-01,2.741889469325542450e-02,-2.144528329372406006e-01,-9.149026870727539062e-02,1.836485713720321655e-01,1.910564601421356201e-01,1.372166126966476440e-01,1.122167631983757019e-01,1.938589215278625488e-01,6.761875003576278687e-02,-3.816652297973632812e-02,2.133214175701141357e-01,2.716791927814483643e-01,-1.787153184413909912e-01,1.329586561769247055e-02,-8.210724592208862305e-02,9.041120857000350952e-02,6.987849622964859009e-02,-4.269842058420181274e-02,2.269896678626537323e-02,6.283156573772430420e-02,-2.213596552610397339e-01,2.133907824754714966e-01,1.832878142595291138e-01,1.504097282886505127e-01,-8.740593492984771729e-02,1.079070940613746643e-01,1.527476608753204346e-01,-6.236349698156118393e-03,-1.169327273964881897e-01,-2.243739217519760132e-01,-2.407777607440948486e-01
9.077389538288116455e-02,7.316190004348754883e-02,-1.321942806243896484e-01,2.052319049835205078e-01,5.656687542796134949e-02,-7.908494025468826294e-02,-5.429183319211006165e-02,8.489693701267242432e-02,1.296943277120590210e-01,1.328408867120742798e-01,-4.123561829328536987e-02,2.291419506072998047e-01,-4.478111118078231812e-02,9.363252669572830200e-02,1.722270548343658447e-01,1.771520972251892090e-01,1.127250269055366516e-01,-9.295298717916011810e-03,1.589550524950027466e-01,1.699167340993881226e-01,2.121308296918869019e-01,1.402175426483154297e-01,1.377834379673004150e-02,1.120168939232826233e-01,-1.141661927103996277e-01,-1.182352975010871887e-01,-6.085725501179695129e-02,-4.992637038230895996e-02,-1.611246168613433838e-01,4.941222816705703735e-02,2.145895659923553467e-01,8.708395808935165405e-02,3.035300411283969879e-02,-2.292221337556838989e-01,-1.369485110044479370e-01,1.732414066791534424e-01,1.064236611127853394e-01,1.546265780925750732e-01,5.481259897351264954e-02,1.133876293897628784e-01,5.974142998456954956e-02,-2.132871299982070923e-01,1.103803068399429321e-01,-5.880711227655410767e-02,-1.251912862062454224e-01,1.704477369785308838e-01,6.082270294427871704e-02,-3.724140673875808716e-02,-1.672818958759307861e-01,-1.425060480833053589e-01
-2.271776199340820312e-01,5.566257610917091370e-02,-7.299979031085968018e-02,1.592676937580108643e-01,1.294180899858474731e-01,-1.358492486178874969e-02,-1.575432717800140381e-01,1.331628859043121338e-02,7.950464636087417603e-02,2.300960272550582886e-01,-2.154694795608520508e-01,1.848627477884292603e-01,-2.157830297946929932e-01,-1.207662820816040039e-01,-4.939057398587465286e-04,3.342444449663162231e-02,-7.344355434179306030e-02,2.015716433525085449e-01,-1.881495416164398193e-01,-1.867919266223907471e-01,6.075578555464744568e-02,2.322211628779768944e-03,2.145994305610656738e-01,2.248010784387588501e-01,2.509440993890166283e-03,8.472535759210586548e-02,8.151619136333465576e-02,2.339062988758087158e-01,1.595306247472763062e-01,2.198352664709091187e-01,2.395009994506835938e-02,1.742321550846099854e-01,-1.656065285205841064e-01,-1.033250391483306885e-01,1.282876133918762207e-01,3.369359672069549561e-02,-8.691429346799850464e-02,-1.432254314422607422e-01,2.287914603948593140e-01,-3.019066154956817627e-02,7.829647511243820190e-02,1.288461536169052124e-01,1.713269948959350586e-01,-3.146271780133247375e-02,-1.897460967302322388e-01,-2.108893841505050659e-01,4.409770295023918152e-02,2.448507994413375854e-01,2.331292778253555298e-01,9.339293092489242554e-02
-1.522591412067413330e-01,-8.443917334079742432e-02,8.358655124902725220e-02,1.268334239721298218e-01,-2.021837681531906128e-01,-2.288750112056732178e-01,2.101865410804748535e-01,1.925242394208908081e-01,-1.318850517272949219e-01,1.941477507352828979e-01,-1.250163912773132324e-01,-5.064422264695167542e-02,-1.843301504850387573e-01,2.223808616399765015e-01,1.365195959806442261e-01,-1.574584692716598511e-01,8.678954094648361206e-03,-3.418949618935585022e-02,1.885256171226501465e-01,-2.263849824666976929e-01,-2.042523622512817383e-01,2.067426294088363647e-01,6.534852087497711182e-02,1.721545681357383728e-02,-1.428912878036499023e-01,-9.322600811719894409e-02,1.369852721691131592e-01,-2.062798850238323212e-02,-2.286915779113769531e-01,-2.155840210616588593e-02,2.602571062743663788e-02,1.433216333389282227e-01,-1.427613645792007446e-01,1.408953815698623657e-01,-1.162112206220626831e-01,-3.060974180698394775e-02,-1.396968662738800049e-01,4.558663070201873779e-02,-2.124472260475158691e-01,-1.782920509576797485e-01,1.498801112174987793e-01,7.739043235778808594e-02,-1.454597860574722290e-01,1.062347963452339172e-01,-4.765541851520538330e-02,1.546461135149002075e-01,-5.727614089846611023e-02,-1.525224000215530396e-01,-2.290650904178619385e-01,-1.496175229549407959e-01
-7.765568047761917114e-02,7.605008035898208618e-02,2.347111850976943970e-01,5.906007438898086548e-02,-7.177472114562988281e-02,1.368413567543029785e-01,1.302668750286102295e-01,5.256117880344390869e-02,-1.705469787120819092e-01,2.058863937854766846e-01,6.361319124698638916e-02,-8.389992639422416687e-03,1.193311214447021484e-01,1.910236775875091553e-01,2.366009354591369629e-01,-1.249428745359182358e-02,1.833967566490173340e-01,-7.000822573900222778e-02,4.375046119093894958e-02,-2.414295673370361328e-01,8.883627131581306458e-03,1.834623664617538452e-01,2.348024696111679077e-01,5.179457366466522217e-02,1.773260682821273804e-01,1.298944354057312012e-01,9.552845358848571777e-02,-2.563919126987457275e-02,-1.492557227611541748e-01,-1.828601062297821045e-01,1.115112081170082092e-01,-2.020944356918334961e-01,-2.096048891544342041e-01,2.092026025056838989e-01,-8.400558680295944214e-02,-2.260798364877700806e-01,1.475028544664382935e-01,2.261804193258285522e-01,1.394956260919570923e-01,-2.286585271358489990e-01,5.446431413292884827e-02,1.178275421261787415e-01,-1.054698452353477478e-01,2.327028959989547729e-01,3.063387237489223480e-03,9.129776805639266968e-02,2.814595960080623627e-02,5.956175923347473145e-02,3.695734590291976929e-02,1.584871262311935425e-01
1.341490000486373901e-01,-1.088492199778556824e-01,1.358095556497573853e-01,2.240566164255142212e-01,-5.373437423259019852e-03,-4.096918925642967224e-02,-1.251699328422546387e-01,1.876725107431411743e-01,1.793085932731628418e-01,1.535229831933975220e-01,-1.333445608615875244e-01,2.072894573211669922e-01,6.707654893398284912e-02,-7.132899016141891479e-02,-9.844707697629928589e-02,-1.467711180448532104e-01,-1.614713296294212341e-02,1.830913573503494263e-01,2.334008067846298218e-01,-1.860442012548446655e-01,1.793485283851623535e-01,6.099341809749603271e-02,2.171101570129394531e-01,1.848073601722717285e-01,-3.715362772345542908e-02,-1.018885225057601929e-01,-2.287721037864685059e-01,9.521595388650894165e-02,-2.369830459356307983e-01,1.405521389096975327e-02,7.801488041877746582e-03,-2.515139281749725342e-01,9.112732112407684326e-02,8.317188173532485962e-02,1.445967257022857666e-01,2.254965752363204956e-01,2.248463332653045654e-01,-4.609008101397193968e-05,2.244250774383544922e-01,-7.943674921989440918e-03,-1.321720145642757416e-02,-2.310788929462432861e-01,1.091483905911445618e-01,2.007044702768325806e-01,1.725770980119705200e-01,3.602802008390426636e-02,-2.227095514535903931e-01,-2.335007339715957642e-01,-2.039776295423507690e-01,-2.284747511148452759e-01
-5.863657221198081970e-02,-1.093618273735046387e-01,-2.691181562840938568e-02,-8.003395795822143555e-02,1.432005614042282104e-01,1.127870082855224609e-01,1.369657814502716064e-01,-1.897045969963073730e-01,-1.659193634986877441e-01,-5.751803144812583923e-02,1.554677486419677734e-01,2.240199595689773560e-01,4.181419312953948975e-02,-1.177660897374153137e-01,-2.241789102554321289e-01,-2.079714536666870117e-01,-4.753460735082626343e-02,-1.288851946592330933e-01,2.245953828096389771e-01,-3.276852518320083618e-02,1.391387134790420532e-01,-1.874321550130844116e-01,2.307141199707984924e-02,1.967440545558929443e-01,2.271186560392379761e-01,-7.635707408189773560e-02,-1.729449927806854248e-01,-1.350215226411819458e-01,1.455324739217758179e-01,-8.519785106182098389e-02,-2.121523208916187286e-02,2.645090520381927490e-01,2.431302964687347412e-01,2.074246406555175781e-01,4.312005639076232910e-02,-1.272848695516586304e-01,-1.222744211554527283e-01,-2.323617190122604370e-01,-3.725093975663185120e-02,-7.690455019474029541e-02,1.611601263284683228e-01,9.296344220638275146e-02,2.229283452033996582e-01,1.721235066652297974e-01,-2.464112127199769020e-03,3.086120635271072388e-02,-1.268709748983383179e-01,-7.399913668632507324e-02,-2.140833763405680656e-03,-2.441647648811340332e-01
1.462798863649368286e-01,8.250182121992111206e-02,3.247319534420967102e-02,2.341018468141555786e-01,-1.609879583120346069e-01,3.191785514354705811e-02,-5.602668225765228271e-02,6.873463094234466553e-02,-1.227001026272773743e-01,-1.585187166929244995e-01,1.960991881787776947e-02,1.501474827527999878e-01,1.198933199048042297e-01,1.792785674333572388e-01,2.246766835451126099e-01,-2.049790471792221069e-01,2.184342406690120697e-02,2.037115842103958130e-01,7.933123409748077393e-02,1.240555495023727417e-01,1.899167746305465698e-01,3.439991921186447144e-02,-1.690830141305923462e-01,-2.343807183206081390e-02,-2.062645852565765381e-01,-1.436656266450881958e-01,2.225136011838912964e-01,1.360960900783538818e-01,-5.688028037548065186e-02,-1.151896864175796509e-01,2.247712761163711548e-01,7.384280115365982056e-02,-2.402375191450119019e-01,-7.885815203189849854e-02,-2.450387179851531982e-02,6.866993755102157593e-02,2.124413996934890747e-01,-9.628097712993621826e-02,-7.027535140514373779e-02,1.213449686765670776e-01,-7.104555517435073853e-02,1.903127878904342651e-02,2.083607167005538940e-01,-7.987875491380691528e-02,-6.972065567970275879e-02,1.628243029117584229e-01,-1.654749214649200439e-01,-7.282029092311859131e-02,-1.292194277048110962e-01,-1.232249289751052856e-01
-4.939243569970130920e-02,1.491941977292299271e-02,-3.211030736565589905e-02,6.991130113601684570e-02,6.449247151613235474e-02,1.143167242407798767e-01,-3.736999630928039551e-02,-7.205276191234588623e-02,-4.785506799817085266e-02,-1.172906532883644104e-01,1.537572443485260010e-01,-1.618408262729644775e-01,1.026177257299423218e-01,-1.875266805291175842e-02,-8.477228693664073944e-03,2.233716100454330444e-01,7.950115203857421875e-02,1.698110997676849365e-01,7.904104143381118774e-02,8.231793344020843506e-02,2.378423511981964111e-01,-2.595771849155426025e-01,-2.169087231159210205e-01,6.905720382928848267e-02,2.652940452098846436e-01,2.327081710100173950e-01,1.018216237425804138e-01,1.577957719564437866e-01,2.256537973880767822e-02,-1.383474469184875488e-01,-2.353166788816452026e-01,2.187297195196151733e-01,-1.434246450662612915e-01,-1.256969869136810303e-01,3.634808957576751709e-02,6.799621134996414185e-02,-2.381496727466583252e-01,-3.975344821810722351e-02,-1.658351123332977295e-01,-3.472527861595153809e-02,-1.082342863082885742e-01,-1.322407722473144531e-01,-5.252530425786972046e-02,6.959026306867599487e-02,1.300603002309799194e-01,3.672256693243980408e-02,6.784498691558837891e-02,-2.035634964704513550e-01,1.176935508847236633e-01,-2.856448292732238770e-02
1.018929667770862579e-02,1.883331388235092163e-01,-7.069844286888837814e-03,-1.460125744342803955e-01,-1.845449656248092651e-01,1.604533791542053223e-01,-1.621646732091903687e-01,-1.590373218059539795e-01,5.844753235578536987e-02,2.270820885896682739e-01,-2.251295745372772217e-01,1.157373487949371338e-01,-1.423897445201873779e-01,1.167467702180147171e-02,1.614107042551040649e-01,-1.512742340564727783e-01,4.302225261926651001e-02,1.256749331951141357e-01,-1.052353531122207642e-01,3.278773427009582520e-01,1.975606381893157959e-01,4.480598121881484985e-02,-1.621696203947067261e-01,-7.161960750818252563e-02,2.979903519153594971e-01,2.137381732463836670e-01,9.895661473274230957e-02,1.469064354896545410e-01,-2.043903768062591553e-01,1.936495304107666016e-01,4.220268502831459045e-02,2.779228091239929199e-01,4.378462210297584534e-02,-1.678427457809448242e-01,-1.255372166633605957e-01,-6.816584616899490356e-02,-1.902568787336349487e-01,9.386788122355937958e-03,-2.403803169727325439e-01,1.159396022558212280e-01,2.822500765323638916e-01,2.573650777339935303e-01,-2.165551781654357910e-01,2.117325514554977417e-01,-1.743355393409729004e-01,-1.262438595294952393e-01,-1.812560409307479858e-01,2.761069536209106445e-01,1.325680613517761230e-01,1.819321326911449432e-02
5.016429722309112549e-02,-1.145529448986053467e-01,-1.039226204156875610e-01,-7.075312547385692596e-03,-6.875809282064437866e-02,1.880046539008617401e-02,1.224625483155250549e-01,-2.243955433368682861e-01,1.795408278703689575e-01,-3.031458146870136261e-02,-8.078005164861679077e-02,2.012770324945449829e-01,4.582228884100914001e-02,1.816611550748348236e-02,1.667473316192626953e-01,3.873705118894577026e-02,-1.985281147062778473e-02,-1.555707189254462719e-03,-6.450336426496505737e-02,2.455934286117553711e-01,-1.117266118526458740e-01,1.231986582279205322e-01,1.909528821706771851e-01,-2.377605140209197998e-01,1.158066093921661377e-01,-3.048047423362731934e-02,1.132292002439498901e-01,6.871221959590911865e-02,1.291932016611099243e-01,-2.249791845679283142e-02,1.210496667772531509e-02,2.783250808715820312e-02,1.879623234272003174e-01,-1.749203801155090332e-01,1.704618930816650391e-01,-1.818644255399703979e-01,-1.153955981135368347e-01,-2.379507273435592651e-01,-1.095538139343261719e-01,-1.051669418811798096e-01,-8.119303733110427856e-02,1.819996088743209839e-01,-1.719786524772644043e-01,-5.880259722471237183e-02,1.747570782899856567e-01,6.727373600006103516e-02,1.629483997821807861e-01,1.804034113883972168e-01,1.523895561695098877e-01,7.640731334686279297e-02
4.095634445548057556e-02,2.056910991668701172e-01,2.253082543611526489e-01,4.047091305255889893e-02,-1.463843733072280884e-01,2.220175564289093018e-01,-7.412751019001007080e-02,-5.298018455505371094e-02,1.515973657369613647e-01,3.432971984148025513e-02,2.313429117202758789e-01,-1.449831873178482056e-01,1.038910970091819763e-01,-2.273725718259811401e-01,1.901309005916118622e-02,-1.993231028318405151e-01,-5.162074696272611618e-03,1.755524575710296631e-01,-9.736004471778869629e-02,2.838718295097351074e-01,-6.666781008243560791e-02,1.814214885234832764e-02,1.847985237836837769e-01,1.187165603041648865e-01,-5.034558102488517761e-02,1.472730934619903564e-01,-2.001507282257080078e-01,4.135121591389179230e-03,-1.843714714050292969e-01,-1.537016332149505615e-01,3.158609196543693542e-02,2.165027260780334473e-01,2.339626401662826538e-01,-2.053501009941101074e-01,4.072960838675498962e-02,6.333147734403610229e-02,-3.529303893446922302e-02,-1.383167356252670288e-01,-2.162728607654571533e-01,-1.818269789218902588e-01,1.615713089704513550e-01,-4.973686486482620239e-02,1.123428866267204285e-01,1.768419146537780762e-01,-1.587319225072860718e-01,2.231793850660324097e-01,-2.135471999645233154e-01,-7.945080101490020752e-02,-1.682842820882797241e-01,-1.206351816654205322e-01
-5.076440423727035522e-02,-2.309781163930892944e-01,1.295558214187622070e-01,-3.446426242589950562e-02,-8.384494483470916748e-02,3.421905450522899628e-03,2.647768519818782806e-02,-2.035266757011413574e-01,-1.984573006629943848e-01,2.336520552635192871e-01,3.592143952846527100e-02,1.844154000282287598e-01,1.340785175561904907e-01,-1.713615097105503082e-02,-1.425443589687347412e-01,-6.650061160326004028e-02,2.199608534574508667e-01,8.601024001836776733e-02,1.590950042009353638e-01,-5.976910144090652466e-02,-1.565659493207931519e-01,-1.259776055812835693e-01,-1.094869375228881836e-01,-4.998377710580825806e-02,-1.956395059823989868e-01,1.904708594083786011e-01,1.231828033924102783e-01,3.591049835085868835e-02,-1.768694818019866943e-01,-3.827424347400665283e-02,3.117569535970687866e-02,5.054923146963119507e-02,-8.019357919692993164e-03,-1.596531271934509277e-01,-1.084266677498817444e-01,1.614970620721578598e-03,-1.773329675197601318e-01,1.450383514165878296e-01,-2.049266099929809570e-01,1.379509419202804565e-01,-1.396322548389434814e-01,2.233867645263671875e-01,6.368812918663024902e-02,-1.330691426992416382e-01,-1.707859039306640625e-01,1.491477191448211670e-01,3.323818743228912354e-02,-2.317910045385360718e-01,1.339413225650787354e-01,2.318127453327178955e-02
-5.653894692659378052e-02,-1.139695942401885986e-01,2.550650835037231445e-01,2.132624685764312744e-01,6.084943190217018127e-02,5.039066448807716370e-02,-1.089641079306602478e-01,-2.356217801570892334e-01,-8.611200004816055298e-02,1.665612906217575073e-01,-7.642831769771873951e-04,2.455714195966720581e-01,2.154621332883834839e-01,-2.259390503168106079e-01,-8.715584874153137207e-02,2.517658472061157227e-02,-3.853783011436462402e-02,4.063229635357856750e-02,-7.355239242315292358e-02,1.104752570390701294e-01,-9.946290403604507446e-02,-9.389743953943252563e-02,1.956340372562408447e-01,7.401765882968902588e-02,-2.329582571983337402e-01,-7.848384790122509003e-03,-1.324808001518249512e-01,-1.657920777797698975e-01,2.268974035978317261e-01,-1.107944250106811523e-01,6.449966877698898315e-02,2.383135724812746048e-03,-1.234801113605499268e-01,1.172842308878898621e-01,-1.193361356854438782e-01,-2.145592123270034790e-01,-2.445896863937377930e-01,1.385615170001983643e-01,9.958121180534362793e-02,1.113139092922210693e-02,6.245076656341552734e-02,-1.116138473153114319e-01,-1.093842834234237671e-01,-3.659502789378166199e-02,1.696109175682067871e-01,6.944447010755538940e-02,2.098470926284790039e-01,1.003093197941780090e-01,2.122262269258499146e-01,2.624701708555221558e-02
3.672794997692108154e-02,-1.801338791847229004e-02,-1.565688997507095337e-01,7.667291164398193359e-02,-2.010846138000488281e-01,-2.344918102025985718e-01,1.216055154800415039e-01,-1.982839405536651611e-02,1.510823965072631836e-01,3.237206488847732544e-02,2.267935574054718018e-01,2.190977931022644043e-01,1.713392138481140137e-02,2.246109943371266127e-06,2.231528609991073608e-01,-5.617850646376609802e-02,1.250322759151458740e-01,-9.540239721536636353e-02,1.037822291254997253e-01,-6.591812521219253540e-02,5.721766036003828049e-03,-1.475448310375213623e-01,-1.826018542051315308e-01,-4.122873768210411072e-02,-4.748836904764175415e-02,1.450521796941757202e-01,7.146529108285903931e-02,-3.820697590708732605e-02,-2.081523835659027100e-02,1.841352134943008423e-01,-7.971039414405822754e-02,-9.573788940906524658e-02,9.222069382667541504e-02,1.973970793187618256e-02,2.422172278165817261e-01,1.314618438482284546e-01,1.814146190881729126e-01,1.264707595109939575e-01,-2.443426549434661865e-01,-1.243011653423309326e-02,1.258134692907333374e-01,-2.071487903594970703e-01,-1.885045692324638367e-02,-8.927952498197555542e-02,1.091441884636878967e-01,9.372816979885101318e-02,-1.651956439018249512e-01,1.057974249124526978e-01,-1.866638958454132080e-01,-1.576844155788421631e-01
-2.092665284872055054e-01,-1.851992309093475342e-01,-1.927119046449661255e-01,-2.083208560943603516e-01,-1.723045259714126587e-01,5.556701496243476868e-02,1.773964911699295044e-01,-7.580357789993286133e-02,1.673932224512100220e-01,-1.490138322114944458e-01,9.727783501148223877e-02,-9.569362550973892212e-02,1.233884692192077637e-01,-1.663317084312438965e-01,-2.418667823076248169e-01,1.702500581741333008e-01,-2.314117401838302612e-01,-3.363735973834991455e-02,5.877934396266937256e-02,-7.842111587524414062e-02,-3.302794322371482849e-02,-1.194885224103927612e-01,-3.308493643999099731e-02,1.220136731863021851e-01,8.953639864921569824e-02,1.770613342523574829e-01,5.479458346962928772e-02,-9.023630619049072266e-02,1.446033865213394165e-01,1.087052449584007263e-01,-1.731957495212554932e-01,-3.736491873860359192e-02,6.846254318952560425e-02,-1.209045425057411194e-01,-1.155111491680145264e-01,-3.108637407422065735e-02,1.331229507923126221e-02,2.265340983867645264e-01,-1.857406347990036011e-01,5.525587499141693115e-02,-5.923475837334990501e-04,4.930800572037696838e-02,-4.301620274782180786e-02,2.239857763051986694e-01,-1.005173921585083008e-01,9.182409197092056274e-02,-2.151000499725341797e-01,1.059506535530090332e-01,9.687024354934692383e-02,1.091032475233078003e-01
-4.720270633697509766e-03,2.327823489904403687e-01,2.267316132783889771e-01,1.228839308023452759e-01,-1.534514427185058594e-01,1.430475860834121704e-01,-1.860441863536834717e-01,-2.241139262914657593e-01,2.238757759332656860e-01,2.584894001483917236e-02,1.233886331319808960e-01,5.920128524303436279e-02,4.793660342693328857e-02,1.006915420293807983e-01,4.743658006191253662e-02,3.319531679153442383e-03,-6.911860406398773193e-02,-2.445984482765197754e-01,2.125779837369918823e-01,-5.210712552070617676e-03,1.123515218496322632e-01,-8.541214466094970703e-02,-1.579289436340332031e-01,1.619189828634262085e-01,-2.291200757026672363e-01,-1.804550886154174805e-01,-7.997027039527893066e-02,-1.664824485778808594e-01,9.983153641223907471e-02,1.596843451261520386e-01,1.590767353773117065e-01,-1.109740436077117920e-01,-2.058043628931045532e-01,-8.329109847545623779e-02,2.161154001951217651e-01,-4.680271446704864502e-02,-2.249422222375869751e-01,2.208830565214157104e-01,-1.727861166000366211e-01,2.248752266168594360e-01,-1.345959007740020752e-01,8.163258433341979980e-03,1.517439335584640503e-01,-2.436830848455429077e-01,-1.678186357021331787e-01,-2.231590896844863892e-01,3.766749799251556396e-02,-1.837924122810363770e-03,-1.997495293617248535e-01,7.982678711414337158e-02
5.601134896278381348e-02,-2.078659534454345703e-01,-2.191051989793777466e-01,5.249053984880447388e-02,6.606616824865341187e-02,-2.074770927429199219e-01,-5.125199258327484131e-02,-2.151928097009658813e-01,3.898749826475977898e-03,-1.607755422592163086e-01,9.118144214153289795e-02,-1.146377697587013245e-01,1.005578860640525818e-01,1.454748958349227905e-01,-1.101903617382049561e-01,-1.409914046525955200e-01,1.542691886425018311e-01,-1.922090798616409302e-01,-2.259376645088195801e-01,-1.156208198517560959e-02,1.905499994754791260e-01,-9.670425951480865479e-02,8.345080539584159851e-03,-7.986707240343093872e-02,-1.486389338970184326e-01,1.784019768238067627e-01,-1.838209778070449829e-01,-1.502776145935058594e-01,-1.800971031188964844e-01,5.473407730460166931e-02,-9.148449636995792389e-03,1.520207375288009644e-01,2.262269146740436554e-02,1.842200458049774170e-01,2.277747839689254761e-01,5.704705417156219482e-02,-1.793728172779083252e-01,2.230674624443054199e-01,-1.808876991271972656e-01,-1.428447067737579346e-01,2.438495606184005737e-01,1.970132440328598022e-01,-5.616056546568870544e-02,-7.099869847297668457e-02,-2.122344374656677246e-01,2.404369115829467773e-01,-2.099514752626419067e-01,2.298049032688140869e-01,1.660551279783248901e-01,1.879859715700149536e-01
2.406589388847351074e-01,-2.640748023986816406e-01,2.336572557687759399e-01,2.635194063186645508e-01,-7.687915861606597900e-02,-1.746562868356704712e-01,-1.657270789146423340e-01,5.825392901897430420e-02,1.490121185779571533e-01,1.332995593547821045e-01,-1.727167069911956787e-01,3.073324076831340790e-02,5.861716717481613159e-02,1.293663028627634048e-02,-2.295178771018981934e-01,1.702247411012649536e-01,2.873755991458892822e-01,1.897044479846954346e-01,-2.167354524135589600e-01,-1.093827858567237854e-01,-2.132943719625473022e-01,1.532125622034072876e-01,-2.449939697980880737e-01,1.322757601737976074e-01,-1.880399435758590698e-01,-2.146123796701431274e-01,-5.752640310674905777e-03,4.062813520431518555e-02,-2.277591079473495483e-01,2.998965978622436523e-02,3.719954788684844971e-01,-1.400720775127410889e-01,4.042509943246841431e-02,1.351104080677032471e-01,-1.905719004571437836e-02,4.816229641437530518e-02,-1.900763213634490967e-01,-2.107045054435729980e-01,4.671166092157363892e-02,-1.740541160106658936e-01,8.551296778023242950e-04,-4.749232903122901917e-02,2.516878545284271240e-01,1.693936437368392944e-01,-1.437014043331146240e-01,9.525530040264129639e-02,2.670350074768066406e-01,-1.818552613258361816e-01,-2.214160263538360596e-01,-1.387098431587219238e-01
-1.369790136814117432e-01,-1.500055640935897827e-01,-5.019362270832061768e-02,-7.130071520805358887e-02,4.113902337849140167e-03,5.147192627191543579e-02,-2.388351559638977051e-01,-2.002393305301666260e-01,-2.411582320928573608e-01,1.238055080175399780e-01,2.189832478761672974e-01,1.050697043538093567e-01,-1.769397705793380737e-01,6.587583571672439575e-02,-1.739722788333892822e-01,-2.118051201105117798e-01,-2.489381283521652222e-01,1.064040362834930420e-01,-2.180063724517822266e-01,-3.196868300437927246e-02,-8.084305375814437866e-02,1.439062207937240601e-01,3.680025413632392883e-02,-1.521598696708679199e-01,-7.350965403020381927e-03,-8.682659268379211426e-02,-1.057027280330657959e-01,9.705784171819686890e-02,-1.940957903861999512e-01,8.372124284505844116e-03,-2.532193362712860107e-01,1.824696362018585205e-01,2.166951298713684082e-01,-4.925047606229782104e-02,-1.501940488815307617e-01,2.513207495212554932e-01,-1.744573712348937988e-01,-1.452309489250183105e-01,2.247314453125000000e-01,2.100987583398818970e-01,1.924970746040344238e-01,1.183094009757041931e-01,1.232430934906005859e-01,1.409258842468261719e-01,-1.915523707866668701e-01,1.150281950831413269e-01,1.599116772413253784e-01,-3.357391804456710815e-02,2.981975860893726349e-02,-2.369255721569061279e-01
1.494596749544143677e-01,2.322079688310623169e-01,-2.199263274669647217e-01,-1.351178735494613647e-01,-7.013966888189315796e-02,-5.932338908314704895e-02,5.791220813989639282e-02,-2.137097269296646118e-01,-1.385020762681961060e-01,-1.229252889752388000e-01,-6.570611894130706787e-02,2.115854471921920776e-01,-1.731774806976318359e-01,-1.022629961371421814e-01,-9.906111657619476318e-02,1.357672829180955887e-02,1.516638547182083130e-01,-1.872094124555587769e-01,2.358245849609375000e-01,-2.418193370103836060e-01,1.867028921842575073e-01,1.697946786880493164e-01,-1.441966295242309570e-01,-7.867736369371414185e-02,2.349519133567810059e-01,-8.763772249221801758e-02,1.688240617513656616e-01,1.160757392644882202e-01,1.433339864015579224e-01,-3.871781378984451294e-02,-1.048462837934494019e-01,1.468773931264877319e-01,-2.143590152263641357e-01,2.079475373029708862e-01,1.636577546596527100e-01,2.057022154331207275e-01,-1.392957270145416260e-01,2.316383868455886841e-01,1.727963835000991821e-01,-6.789429485797882080e-02,-1.300014704465866089e-01,2.000330537557601929e-01,-2.144753634929656982e-01,-1.610315442085266113e-01,2.753917872905731201e-02,2.743238210678100586e-02,-7.032133638858795166e-02,-1.637610942125320435e-01,6.636231392621994019e-02,9.470226615667343140e-02
-2.353719770908355713e-01,1.880563348531723022e-01,-4.543961212038993835e-02,-2.482337644323706627e-03,3.206403180956840515e-02,1.629232913255691528e-01,1.629194021224975586e-01,1.851346045732498169e-01,1.438782215118408203e-01,8.120913058519363403e-02,-4.986337199807167053e-02,8.448973298072814941e-02,2.343422174453735352e-01,-2.087894678115844727e-01,1.437218040227890015e-01,-1.176086142659187317e-01,-1.046435721218585968e-02,-5.787074565887451172e-02,1.257960945367813110e-01,1.228477284312248230e-01,-2.135935872793197632e-01,1.703060269355773926e-01,-7.381214946508407593e-02,3.901403769850730896e-02,7.750526815652847290e-02,-1.763467043638229370e-01,-1.918840035796165466e-02,-1.527967303991317749e-01,3.667615354061126709e-02,1.099152788519859314e-01,-9.922563098371028900e-03,1.333940587937831879e-02,-1.948260366916656494e-01,2.065405845642089844e-01,-1.850035488605499268e-01,7.578740268945693970e-02,-1.934745907783508301e-02,7.928601652383804321e-02,-1.037638485431671143e-01,-1.032964438199996948e-01,5.475439503788948059e-02,-1.086969859898090363e-02,-1.064506322145462036e-01,-2.721017785370349884e-02,3.846877813339233398e-02,-2.005574703216552734e-01,-6.919950246810913086e-03,1.285961419343948364e-01,-2.426252514123916626e-01,5.461352318525314331e-02
3.977673500776290894e-02,2.150049358606338501e-01,-1.802814453840255737e-01,-1.228013187646865845e-01,1.014047712087631226e-01,-1.146908178925514221e-01,4.848780110478401184e-03,-2.109400331974029541e-01,-2.175121605396270752e-01,2.436104975640773773e-02,2.031840682029724121e-01,-1.461895406246185303e-01,1.479410231113433838e-01,5.820031091570854187e-02,-9.323523193597793579e-02,2.227162867784500122e-01,5.338903889060020447e-02,4.518227651715278625e-02,1.648649871349334717e-01,-8.290664851665496826e-02,-2.180328816175460815e-01,-6.256842613220214844e-02,1.883677393198013306e-01,-3.999247029423713684e-02,-1.539766937494277954e-01,-4.827387630939483643e-02,7.171280682086944580e-02,-1.545220911502838135e-01,-8.380840718746185303e-02,1.032602638006210327e-01,-1.092077866196632385e-01,6.346716731786727905e-02,2.219078242778778076e-01,-1.585973501205444336e-01,-4.473841935396194458e-02,-5.623437836766242981e-02,-4.025310277938842773e-03,-1.214768737554550171e-01,-1.178119704127311707e-01,2.124712914228439331e-01,-7.024673372507095337e-02,5.934626609086990356e-02,1.848188638687133789e-01,1.458314657211303711e-01,1.575243622064590454e-01,2.044411897659301758e-01,-2.380879670381546021e-01,8.723589032888412476e-02,-4.328811168670654297e-02,-1.467789113521575928e-01
-2.370468527078628540e-01,1.515204459428787231e-01,1.043867692351341248e-01,1.121713519096374512e-01,1.564494222402572632e-01,3.100328333675861359e-02,-5.335922166705131531e-02,-2.342502474784851074e-01,-1.350657343864440918e-01,-1.357728838920593262e-01,3.533201664686203003e-02,-1.393846571445465088e-01,2.182745188474655151e-01,2.241607308387756348e-01,1.042706668376922607e-01,4.132964089512825012e-02,1.338185966014862061e-01,-2.190192230045795441e-02,4.761377722024917603e-02,-1.286032050848007202e-01,1.775608509778976440e-01,-1.359436288475990295e-02,1.278115361928939819e-01,-2.739864587783813477e-01,1.163572371006011963e-01,-7.467015087604522705e-02,-2.100114375352859497e-01,2.664375118911266327e-02,2.077393978834152222e-01,-1.881126314401626587e-02,-2.589829564094543457e-01,3.095064163208007812e-01,-1.264432966709136963e-01,-3.837469220161437988e-02,-2.315009534358978271e-01,-2.134978324174880981e-01,2.396565303206443787e-02,-1.294458508491516113e-01,-1.256407797336578369e-01,-7.074862718582153320e-03,2.753710560500621796e-02,5.973828956484794617e-03,1.236643493175506592e-01,6.782179325819015503e-02,-2.321522682905197144e-01,-1.048880349844694138e-02,7.647342234849929810e-02,-5.838092043995857239e-02,-1.908206939697265625e-02,2.457666397094726562e-02
-1.651901602745056152e-01,1.620797812938690186e-01,2.325091958045959473e-01,-1.711291372776031494e-01,-1.590119153261184692e-01,1.932869851589202881e-01,7.868248224258422852e-02,-4.202164709568023682e-02,2.040600329637527466e-01,-2.314046025276184082e-01,2.363256365060806274e-01,1.596110016107559204e-01,-2.120951265096664429e-01,-1.318713128566741943e-01,-2.390313893556594849e-01,-8.113052695989608765e-02,-2.914863266050815582e-02,-6.666086614131927490e-02,-9.396883845329284668e-02,-2.403541281819343567e-02,-5.316685140132904053e-02,-6.479399651288986206e-02,7.430124282836914062e-02,8.449718356132507324e-02,-2.712077833712100983e-02,1.555718630552291870e-01,2.080550789833068848e-01,4.893985390663146973e-02,6.822194159030914307e-02,-4.744688048958778381e-02,1.536697298288345337e-01,-1.357548385858535767e-01,1.228097528219223022e-01,-3.169839084148406982e-02,-1.424256265163421631e-01,-2.183254808187484741e-01,-6.210921704769134521e-02,-1.450361311435699463e-02,-8.106008172035217285e-02,-3.633894026279449463e-02,-5.421843379735946655e-02,-2.398701570928096771e-02,-2.842296473681926727e-02,-2.380815297365188599e-01,-9.132079780101776123e-02,-5.072905868291854858e-02,2.190410196781158447e-01,-2.294921875000000000e-01,7.470705360174179077e-02,-2.416495233774185181e-01
-2.131286561489105225e-01,1.430134326219558716e-01,-3.136930288746953011e-03,1.135548949241638184e-02,-1.945899724960327148e-01,2.278766185045242310e-01,-2.053933590650558472e-01,-1.353232115507125854e-01,1.274149566888809204e-01,-2.084222733974456787e-01,2.276880890130996704e-01,-8.295078575611114502e-02,1.289586126804351807e-01,-1.988610923290252686e-01,-2.198761403560638428e-01,-1.249075680971145630e-01,-1.558815985918045044e-01,5.858929455280303955e-02,-2.173767834901809692e-01,-6.080014258623123169e-02,1.117759272456169128e-01,2.071193605661392212e-01,-1.012416258454322815e-01,-2.153389155864715576e-01,5.400985106825828552e-02,-1.746768015436828136e-03,-1.685964763164520264e-01,2.012803256511688232e-01,-9.412699937820434570e-02,6.576665490865707397e-02,1.851060539484024048e-01,-2.404791302978992462e-02,1.581986695528030396e-01,2.268149405717849731e-01,1.369574218988418579e-01,9.949724376201629639e-02,3.615258634090423584e-02,-2.074340730905532837e-01,1.786282211542129517e-01,-1.991593837738037109e-02,1.274940073490142822e-01,-1.353005468845367432e-01,4.474329203367233276e-02,-1.517743915319442749e-01,-1.527170538902282715e-01,7.371437549591064453e-02,1.109766960144042969e-01,2.289232760667800903e-01,-3.563511371612548828e-02,-2.241275906562805176e-01
4.082689806818962097e-02,-1.770642846822738647e-01,-2.301384359598159790e-01,1.785424202680587769e-01,-1.452866941690444946e-01,-1.020438373088836670e-01,-1.703071445226669312e-01,-1.180220991373062134e-01,2.298193275928497314e-01,-6.563724949955940247e-03,2.159987241029739380e-01,-2.222424596548080444e-01,-8.396058529615402222e-02,1.888009160757064819e-01,-1.589325964450836182e-01,1.817358434200286865e-01,-2.391486763954162598e-01,-9.319689869880676270e-02,1.859231144189834595e-01,1.706118583679199219e-01,-1.586473733186721802e-01,5.715636163949966431e-02,-8.652472496032714844e-02,1.596321910619735718e-01,-1.728422194719314575e-01,-1.456269621849060059e-01,8.764480054378509521e-02,7.762297987937927246e-03,2.233241498470306396e-02,1.854503154754638672e-01,1.914118416607379913e-02,8.012421429157257080e-02,2.440839707851409912e-01,1.543809622526168823e-01,-1.378789395093917847e-01,-3.172118589282035828e-02,9.971602261066436768e-02,1.857932209968566895e-01,5.207550525665283203e-02,-1.679272651672363281e-01,1.744747906923294067e-01,-2.272299677133560181e-02,-2.387813758105039597e-03,-7.391267269849777222e-02,1.808163374662399292e-01,-2.224402874708175659e-01,-2.433109581470489502e-01,3.888039290904998779e-02,-4.917779564857482910e-02,-1.533976644277572632e-01
6.688261032104492188e-02,1.020411774516105652e-01,1.962124705314636230e-01,-2.541483044624328613e-01,1.056396514177322388e-01,-3.610731661319732666e-02,3.427981957793235779e-02,2.426597923040390015e-01,1.094130352139472961e-01,-2.171098887920379639e-01,-8.633425831794738770e-02,8.330269902944564819e-02,2.472067028284072876e-01,6.424907594919204712e-02,7.116320729255676270e-02,1.004346609115600586e-01,-3.390428051352500916e-02,2.235453426837921143e-01,-2.389236092567443848e-01,1.660846769809722900e-01,7.627546042203903198e-02,1.910920999944210052e-02,5.538419634103775024e-02,-1.937376111745834351e-01,-1.674543917179107666e-01,-2.322627604007720947e-01,-2.353589609265327454e-02,-1.431474238634109497e-01,-2.268385440111160278e-01,-7.371225208044052124e-02,7.846903800964355469e-02,-1.732486300170421600e-02,1.998244524002075195e-01,1.071509718894958496e-01,-1.866464465856552124e-01,2.242902815341949463e-01,1.669060587882995605e-01,-3.328994661569595337e-02,-5.602404847741127014e-02,4.592834413051605225e-02,2.797438204288482666e-01,1.446465961635112762e-02,6.416721642017364502e-02,1.758459210395812988e-01,-1.083812862634658813e-01,1.328218728303909302e-01,1.900045871734619141e-01,1.701337546110153198e-01,-2.414177805185317993e-01,-6.797140836715698242e-02
1.322389543056488037e-01,-1.883632242679595947e-01,2.644830010831356049e-02,2.161563038825988770e-01,8.659368008375167847e-02,6.833513826131820679e-02,-8.696189522743225098e-02,-1.099599301815032959e-01,-4.866935312747955322e-03,-1.485042124986648560e-01,-1.757749766111373901e-01,-6.056544184684753418e-02,-1.178968399763107300e-01,1.696977317333221436e-01,1.176277101039886475e-01,6.430977582931518555e-02,5.510070919990539551e-02,-7.836826890707015991e-02,4.356645792722702026e-02,2.269189506769180298e-01,1.863794475793838501e-01,-1.999850720167160034e-01,2.019479274749755859e-01,1.168034300208091736e-01,-7.129442691802978516e-02,4.043409600853919983e-02,2.408364266157150269e-01,-7.209925353527069092e-02,-1.892258375883102417e-01,1.140870600938796997e-01,-7.648947089910507202e-02,2.184356600046157837e-01,-7.836583256721496582e-02,1.620986759662628174e-01,3.809586167335510254e-02,2.183652818202972412e-01,5.250300467014312744e-02,-7.074178755283355713e-02,1.136822160333395004e-02,-1.846477687358856201e-01,-1.993966400623321533e-01,5.869675800204277039e-02,9.505786001682281494e-02,-2.305378913879394531e-01,-1.088170409202575684e-01,-5.833192542195320129e-02,-1.299065798521041870e-01,-7.034479826688766479e-02,-9.281876683235168457e-02,1.550981551408767700e-01
2.439398877322673798e-02,-1.126186847686767578e-01,-1.642552763223648071e-01,2.435920089483261108e-01,9.771240502595901489e-02,-2.054664939641952515e-01,-1.250125840306282043e-02,6.119892001152038574e-03,-1.482651680707931519e-01,-8.658652752637863159e-02,8.878517150878906250e-02,-2.172016501426696777e-01,-9.912741184234619141e-02,-1.496787965297698975e-01,-6.304979324340820312e-02,2.314963936805725098e-01,-8.053338527679443359e-02,-2.426199465990066528e-01,-2.187027484178543091e-01,1.630615592002868652e-01,5.755584314465522766e-02,3.813159419223666191e-03,1.085788160562515259e-01,-1.450622081756591797e-01,-2.380164563655853271e-01,-1.989999562501907349e-01,-1.982001662254333496e-01,1.812539398670196533e-01,2.316551655530929565e-01,-1.227015852928161621e-01,-2.988781593739986420e-02,-1.508509218692779541e-01,-1.532459110021591187e-01,-4.849220067262649536e-02,1.526692211627960205e-01,-1.717130839824676514e-01,1.878574043512344360e-01,2.347388267517089844e-01,-5.507326498627662659e-02,-1.811927407979965210e-01,1.419308930635452271e-01,-1.361564993858337402e-01,-7.937908917665481567e-02,3.148050233721733093e-02,-2.313776314258575439e-02,1.206539496779441833e-01,1.298395395278930664e-01,-3.390375152230262756e-02,-2.036346048116683960e-01,3.790578991174697876e-02
-7.152887433767318726e-02,-9.949883073568344116e-02,2.293944060802459717e-01,-1.452548205852508545e-01,-2.080858051776885986e-01,-1.112829446792602539e-01,2.257033437490463257e-01,-5.471736192703247070e-02,9.622657299041748047e-02,7.523153442889451981e-03,-8.616348356008529663e-02,-4.621076211333274841e-02,-5.203630030155181885e-02,-1.933670490980148315e-01,-1.211963370442390442e-01,2.026329934597015381e-02,-5.468415841460227966e-02,1.818238347768783569e-01,4.292130097746849060e-02,-1.927785426378250122e-01,-2.077163755893707275e-01,-1.208198294043540955e-01,-2.275701463222503662e-01,-1.111592873930931091e-01,6.311272829771041870e-02,-4.204794764518737793e-02,-9.493578970432281494e-02,-3.711204335559159517e-04,2.313774079084396362e-01,1.587683218531310558e-03,5.766024813055992126e-02,1.457256376743316650e-01,-7.913994789123535156e-02,1.867268830537796021e-01,8.801619708538055420e-02,-1.662338227033615112e-01,1.096618622541427612e-01,1.435813866555690765e-02,-2.020478434860706329e-02,-1.711436212062835693e-01,-4.828155972063541412e-03,-9.684040397405624390e-02,-2.280886918306350708e-01,-1.033040583133697510e-01,5.817519128322601318e-02,-2.356797903776168823e-01,-1.949832588434219360e-01,8.855709433555603027e-02,2.376629263162612915e-01,9.844957292079925537e-02
1.607786566019058228e-01,2.105035036802291870e-01,-3.777273744344711304e-02,1.550836414098739624e-01,4.861907660961151123e-02,5.098581314086914062e-02,-2.380525618791580200e-01,7.826142013072967529e-02,-1.294636130332946777e-01,-1.183916926383972168e-01,8.187328348867595196e-04,-1.324959993362426758e-01,4.509578272700309753e-02,-1.171932220458984375e-01,-7.919052988290786743e-02,1.740840971469879150e-01,9.527114033699035645e-02,-2.316162586212158203e-01,-3.245973959565162659e-02,2.466452866792678833e-01,2.113237231969833374e-01,-7.878123223781585693e-02,-5.570777226239442825e-03,-1.627152860164642334e-01,1.007998064160346985e-01,2.359244525432586670e-01,-1.735025346279144287e-01,-2.734093694016337395e-03,-8.150252699851989746e-02,1.100390106439590454e-01,3.449842706322669983e-02,9.202291816473007202e-02,2.066704332828521729e-01,1.284502074122428894e-02,4.534518718719482422e-02,3.902897238731384277e-02,1.475950628519058228e-01,-1.321347653865814209e-01,-1.978583335876464844e-01,-2.135847508907318115e-01,1.876285225152969360e-01,-6.047870963811874390e-02,8.025375008583068848e-02,2.303691208362579346e-01,1.732759177684783936e-01,2.278655916452407837e-01,1.419222056865692139e-01,-1.069544330239295959e-01,-2.398319244384765625e-01,-1.671289354562759399e-01
1.220256313681602478e-01,8.297722786664962769e-02,-1.867768615484237671e-01,8.453713729977607727e-03,1.387245208024978638e-01,1.199827566742897034e-01,-1.594810038805007935e-01,-1.448227316141128540e-01,-2.096582204103469849e-01,-1.251360177993774414e-01,-1.048256456851959229e-01,-1.491880565881729126e-01,1.669188290834426880e-01,-7.937923818826675415e-02,2.320866137742996216e-01,9.132574498653411865e-02,4.861857742071151733e-02,7.527200132608413696e-02,-4.795954376459121704e-02,2.597571909427642822e-01,-1.714159548282623291e-01,-9.956562519073486328e-02,-1.846885830163955688e-01,-1.944674402475357056e-01,9.485183656215667725e-02,-1.593550890684127808e-01,-1.435597389936447144e-01,-1.149665936827659607e-01,1.265817135572433472e-01,-2.228592187166213989e-01,1.299992501735687256e-01,1.415970474481582642e-01,-2.208838015794754028e-01,-2.377520948648452759e-01,-1.123375222086906433e-01,2.332379966974258423e-01,-1.835867464542388916e-01,-1.983130574226379395e-01,-7.836903631687164307e-02,-6.865713000297546387e-02,1.130561977624893188e-01,-2.093577682971954346e-01,-1.666145771741867065e-01,1.687005162239074707e-02,-1.592316776514053345e-01,3.977005183696746826e-02,2.126676738262176514e-01,7.173857837915420532e-02,-5.784566700458526611e-02,-1.252985298633575439e-01
-1.012031137943267822e-01,-1.768182814121246338e-01,1.980535387992858887e-01,-8.413816243410110474e-02,1.985591500997543335e-01,-4.390772432088851929e-02,2.252959609031677246e-01,-1.916630566120147705e-01,4.278560355305671692e-02,9.824823588132858276e-02,1.726081818342208862e-01,-1.080581545829772949e-01,-1.487353909760713577e-02,8.486761152744293213e-02,1.073155850172042847e-01,1.867267042398452759e-01,8.690582960844039917e-02,-1.947533935308456421e-01,1.522333920001983643e-01,2.341642230749130249e-01,-1.967139095067977905e-01,2.251201719045639038e-01,-1.631315648555755615e-01,-2.349622696638107300e-01,5.138980224728584290e-03,1.312641948461532593e-01,6.497487425804138184e-02,9.125599265098571777e-02,2.406843006610870361e-02,2.299108803272247314e-01,1.588978171348571777e-01,1.219201758503913879e-01,-2.221656590700149536e-01,1.993744075298309326e-01,8.646053262054920197e-03,1.978121548891067505e-01,-9.979183226823806763e-02,-8.451377600431442261e-02,-2.011582404375076294e-01,-6.062813103199005127e-02,1.529155969619750977e-01,-1.956324428319931030e-01,-1.025333106517791748e-01,1.100409552454948425e-01,-2.016265094280242920e-01,1.265223696827888489e-02,-7.039227336645126343e-02,1.846979409456253052e-01,-3.143920376896858215e-02,1.258158236742019653e-01
2.358623594045639038e-01,-1.644091308116912842e-01,1.825574785470962524e-01,2.321847379207611084e-01,-2.290994375944137573e-01,2.433056533336639404e-01,9.459954500198364258e-02,-1.626316308975219727e-01,1.774547994136810303e-01,2.180166095495223999e-01,8.048553764820098877e-02,1.140655204653739929e-01,-2.142159491777420044e-01,1.547165811061859131e-01,2.533512748777866364e-02,-4.619055986404418945e-02,-2.239224761724472046e-01,-1.154618635773658752e-01,-1.127127408981323242e-01,5.581929534673690796e-02,6.799347698688507080e-02,-1.667906194925308228e-01,-8.120027184486389160e-02,-2.355670742690563202e-02,-3.645223379135131836e-02,1.268476992845535278e-02,2.439817041158676147e-02,4.730799049139022827e-02,9.883983433246612549e-02,-1.402501612901687622e-01,1.267423778772354126e-01,1.958907693624496460e-01,2.154655158519744873e-01,-2.287616021931171417e-02,-2.171289473772048950e-01,-1.338346004486083984e-01,7.316674292087554932e-02,-1.629998534917831421e-01,2.421699464321136475e-02,-2.120609134435653687e-01,-1.808679699897766113e-01,3.033382073044776917e-02,1.223182901740074158e-01,-2.157152891159057617e-01,-1.156598031520843506e-01,-1.831748187541961670e-01,9.143048524856567383e-02,6.140952929854393005e-02,1.437043696641921997e-01,-4.655626416206359863e-02
6.448364257812500000e-02,1.291156709194183350e-01,1.475899219512939453e-01,-2.382064610719680786e-02,-2.153719216585159302e-01,9.818052500486373901e-02,2.195051126182079315e-02,-8.281420171260833740e-02,-1.484853923320770264e-01,4.106358066201210022e-02,-7.137935608625411987e-02,-6.137166172266006470e-02,2.303741276264190674e-01,-9.945037215948104858e-02,8.346829563379287720e-02,-1.850593388080596924e-01,3.546461090445518494e-02,4.321023821830749512e-02,6.597163155674934387e-03,3.206514716148376465e-01,1.961853206157684326e-01,5.954246222972869873e-02,2.060792744159698486e-01,-1.022418439388275146e-01,1.618429869413375854e-01,3.637460619211196899e-02,-1.047184094786643982e-01,1.896492391824722290e-02,-1.173992007970809937e-01,-2.504501640796661377e-01,-1.579241305589675903e-01,1.202126592397689819e-01,-1.315138787031173706e-01,-7.494908757507801056e-03,-6.985341012477874756e-02,8.743378520011901855e-02,1.724883168935775757e-01,-1.490334868431091309e-01,-1.529448106884956360e-02,-2.224534898996353149e-01,1.370467692613601685e-01,1.183932051062583923e-01,-1.641979664564132690e-01,-2.976801618933677673e-02,7.903540506958961487e-03,-8.514200896024703979e-02,-1.271559745073318481e-01,-4.602996632456779480e-02,2.979187667369842529e-02,5.656021833419799805e-02
-9.279995411634445190e-02,8.150739222764968872e-02,-1.400043219327926636e-01,-1.171788051724433899e-01,-1.475618183612823486e-01,-4.823702573776245117e-02,-2.045192271471023560e-01,-8.884999155998229980e-02,-1.243413314223289490e-01,1.346843838691711426e-01,-2.076675593852996826e-01,4.594081640243530273e-02,-1.832042634487152100e-01,2.833930961787700653e-02,-8.948099799454212189e-03,-9.415873140096664429e-02,-5.750899761915206909e-02,1.742485612630844116e-01,-3.742629429325461388e-03,-1.460770964622497559e-01,-1.267507821321487427e-01,9.470719844102859497e-03,1.483555436134338379e-01,-8.415099233388900757e-02,7.464974652975797653e-03,1.225821822881698608e-01,-1.594874709844589233e-01,-5.958396568894386292e-02,3.990872204303741455e-02,7.380244135856628418e-02,-2.014458179473876953e-01,-2.900964021682739258e-02,-1.537421047687530518e-01,2.022773027420043945e-01,2.275787889957427979e-01,1.691039055585861206e-01,-1.838844120502471924e-01,1.142404228448867798e-02,-1.389992684125900269e-01,6.625816226005554199e-03,-9.283938258886337280e-02,-1.407185047864913940e-01,-1.046959161758422852e-01,-1.504503488540649414e-01,2.114877104759216309e-01,-6.374581158161163330e-02,-4.246192798018455505e-02,4.258017987012863159e-03,4.745717719197273254e-02,5.508048832416534424e-02
-9.736584126949310303e-02,-2.052861005067825317e-01,1.990088969469070435e-01,5.810257792472839355e-02,1.941554248332977295e-01,-2.537142485380172729e-02,4.487480968236923218e-02,4.179452359676361084e-02,1.955019980669021606e-01,1.173240318894386292e-01,-1.275779008865356445e-01,-3.698312491178512573e-02,-2.280416041612625122e-01,-1.939430832862854004e-01,-8.012656122446060181e-02,-7.464828342199325562e-02,-1.196432411670684814e-01,2.380970865488052368e-02,-1.421385556459426880e-01,8.649649471044540405e-02,2.122745960950851440e-01,9.732470661401748657e-02,9.934838116168975830e-02,-2.305465191602706909e-01,1.965048760175704956e-01,2.216725349426269531e-01,1.786191016435623169e-01,4.839952569454908371e-03,9.918768703937530518e-02,-2.005035877227783203e-01,-1.044610962271690369e-01,-1.093988344073295593e-01,5.306311696767807007e-02,2.046789526939392090e-01,-1.492595076560974121e-01,-1.873796731233596802e-01,-1.990620940923690796e-01,1.103130578994750977e-01,1.622346341609954834e-01,-7.961204648017883301e-02,1.439593732357025146e-01,1.098038535565137863e-02,-2.388312667608261108e-01,-1.530103757977485657e-02,-4.374404624104499817e-02,1.951484382152557373e-01,-2.380340397357940674e-01,-3.298417106270790100e-02,-1.350204199552536011e-01,2.891643345355987549e-02
2.270969450473785400e-01,2.106849253177642822e-01,1.235885173082351685e-01,-6.066354457288980484e-03,5.673424154520034790e-02,1.345907747745513916e-01,1.833279877901077271e-01,-6.930145621299743652e-02,-1.366954743862152100e-01,-1.868198961019515991e-01,-1.087043434381484985e-01,-1.023331955075263977e-01,9.175903350114822388e-02,4.906999692320823669e-02,5.449401214718818665e-06,-1.303520798683166504e-01,5.685942620038986206e-02,2.254547551274299622e-02,4.716490581631660461e-02,-1.048772186040878296e-01,1.427844762802124023e-01,1.782487630844116211e-01,2.186904847621917725e-01,2.243028879165649414e-01,1.495369523763656616e-01,1.561223864555358887e-01,-2.359902709722518921e-01,-2.054866254329681396e-01,6.698499619960784912e-02,-1.287905722856521606e-01,1.642851680517196655e-01,2.373680770397186279e-01,2.111587524414062500e-01,-1.143983658403158188e-02,-2.261100336909294128e-02,1.735295057296752930e-01,-1.466002315282821655e-01,-1.508966237306594849e-01,8.858104050159454346e-02,7.312773168087005615e-02,-8.596767671406269073e-03,7.418438792228698730e-03,2.399438768625259399e-01,-1.452392786741256714e-01,1.031698361039161682e-01,-1.683157682418823242e-02,2.015505880117416382e-01,-1.342139542102813721e-01,-9.042330086231231689e-02,-6.740021705627441406e-02
4.732412844896316528e-02,-6.772792339324951172e-02,2.367960363626480103e-01,-1.182029247283935547e-01,3.469218686223030090e-02,1.529320701956748962e-02,1.070911437273025513e-01,-1.213290765881538391e-01,-2.031032741069793701e-01,-2.249976843595504761e-01,-2.269939184188842773e-01,5.168113112449645996e-02,-1.177954599261283875e-01,1.337105631828308105e-01,-9.226808324456214905e-03,-1.336284428834915161e-01,6.412171572446823120e-02,-6.502018123865127563e-02,-5.839369446039199829e-02,1.772991195321083069e-02,-3.563137352466583252e-02,1.610716879367828369e-01,2.006312757730484009e-01,7.461079955101013184e-02,2.348875701427459717e-01,-1.463259905576705933e-01,1.542374938726425171e-01,-2.443050593137741089e-01,8.591128885746002197e-02,-1.663350872695446014e-02,1.608506441116333008e-01,-1.804318279027938843e-01,-3.425185568630695343e-03,-8.432886749505996704e-02,-1.639242470264434814e-01,8.554071933031082153e-02,-2.211453616619110107e-01,1.275396198034286499e-01,1.512507349252700806e-02,-1.806904971599578857e-01,-1.560906171798706055e-01,-8.254491537809371948e-02,-1.914117485284805298e-01,-1.995999515056610107e-01,-1.664956510066986084e-01,1.142917945981025696e-01,2.459208220243453979e-01,1.249753683805465698e-01,-1.290377676486968994e-01,5.607638042420148849e-03
-2.544190734624862671e-02,1.048233639448881149e-02,-1.316326111555099487e-01,1.350118219852447510e-01,-2.380881160497665405e-01,-5.963796284049749374e-03,9.812331758439540863e-03,1.059147566556930542e-01,-2.464026361703872681e-01,2.189899981021881104e-01,1.806189119815826416e-01,2.257944643497467041e-01,8.642806112766265869e-02,-2.402268499135971069e-01,-1.721049249172210693e-01,2.302377521991729736e-01,-5.607447028160095215e-02,-1.897207945585250854e-01,2.383483648300170898e-01,2.308771759271621704e-01,1.140049174427986145e-01,-2.137962169945240021e-02,-1.707346886396408081e-01,-1.101964637637138367e-01,1.065356209874153137e-01,-1.305412948131561279e-01,1.691980361938476562e-01,-1.074174717068672180e-01,1.991270333528518677e-01,-7.762042433023452759e-02,-1.557095944881439209e-01,1.524846255779266357e-01,4.744960367679595947e-02,4.891292005777359009e-02,4.816422984004020691e-02,-2.081911116838455200e-01,-2.598203718662261963e-02,1.224287673830986023e-01,-2.750688046216964722e-02,-2.438102811574935913e-01,2.288661748170852661e-01,2.609647996723651886e-02,-3.098756819963455200e-02,-8.524033427238464355e-02,2.314506173133850098e-01,4.183025285601615906e-02,-1.459717303514480591e-01,-1.220452189445495605e-01,-5.509839951992034912e-02,1.370689123868942261e-01
1.484232842922210693e-01,1.933123320341110229e-01,1.496865600347518921e-01,-9.968140721321105957e-02,-2.225424647331237793e-01,5.278130993247032166e-02,1.316851079463958740e-01,2.035457342863082886e-01,-1.229787170886993408e-01,1.601760685443878174e-01,-1.401077359914779663e-01,-6.424220651388168335e-02,5.803703516721725464e-02,-1.554848849773406982e-01,-5.166895315051078796e-02,2.264098376035690308e-01,-2.000632435083389282e-01,1.256212890148162842e-01,-2.208356708288192749e-01,-2.120847553014755249e-01,-1.618699729442596436e-01,-1.495882570743560791e-01,2.442392334342002869e-02,-1.936580240726470947e-01,7.848838716745376587e-02,1.444857567548751831e-01,2.105388194322586060e-01,-1.454641371965408325e-01,-1.613707244396209717e-01,2.174261063337326050e-01,-1.819583475589752197e-01,1.890930384397506714e-01,2.244698852300643921e-01,1.395875513553619385e-01,5.260368064045906067e-02,1.642842292785644531e-01,7.438538968563079834e-02,6.675264239311218262e-02,2.436633557081222534e-01,-1.766255497932434082e-02,-1.246864721179008484e-01,-2.266757339239120483e-01,-1.693199127912521362e-01,-1.198729202151298523e-01,-3.726470470428466797e-02,2.010246738791465759e-02,1.998344361782073975e-01,2.675655484199523926e-02,1.925140768289566040e-01,-1.441044658422470093e-01
-2.372047752141952515e-01,7.022736128419637680e-03,-1.022052392363548279e-01,-1.788261085748672485e-01,9.726634621620178223e-02,-2.409025132656097412e-01,-1.889183074235916138e-01,3.565639257431030273e-03,1.887331455945968628e-01,1.142539530992507935e-01,-2.210904210805892944e-01,2.190532535314559937e-01,4.838307201862335205e-02,1.553477346897125244e-01,-1.458703130483627319e-01,1.220346391201019287e-01,-1.270435452461242676e-01,-2.002052813768386841e-01,-1.559877544641494751e-01,1.697140038013458252e-01,7.117137312889099121e-02,-1.720960140228271484e-01,-1.595258861780166626e-01,2.889060974121093750e-01,2.863438799977302551e-02,-8.474745601415634155e-02,-1.045413911342620850e-01,9.334779530763626099e-02,4.877220094203948975e-02,-4.973127692937850952e-02,1.913256496191024780e-01,1.860023140907287598e-01,-1.119075044989585876e-01,-2.005820125341415405e-01,-1.193197369575500488e-01,1.794121712446212769e-01,2.403703778982162476e-01,-1.197504177689552307e-01,1.224082931876182556e-01,1.190551370382308960e-01,-1.973709464073181152e-01,-5.770634859800338745e-02,-1.817355453968048096e-01,3.110675141215324402e-02,-5.464538559317588806e-02,-2.258474528789520264e-01,-6.198363006114959717e-02,1.768867820501327515e-01,-3.404130786657333374e-02,-1.841655075550079346e-01
1.161860376596450806e-01,-7.883896678686141968e-02,-2.334785312414169312e-01,1.275242418050765991e-01,1.040647923946380615e-02,7.336056977510452271e-02,-1.290488541126251221e-01,-7.665430009365081787e-02,2.258837968111038208e-01,2.370810694992542267e-02,5.686422064900398254e-02,2.064619772136211395e-02,1.003191247582435608e-01,1.854087561368942261e-01,6.295352242887020111e-03,1.647824198007583618e-01,-1.521393060684204102e-01,1.986925490200519562e-02,-1.493319720029830933e-01,1.957278698682785034e-01,-9.207203239202499390e-02,-2.091840952634811401e-01,1.816219985485076904e-01,-1.807219237089157104e-01,-1.328549534082412720e-01,-8.679337054491043091e-02,-1.390673369169235229e-01,1.375851482152938843e-01,-9.624955058097839355e-02,7.717063277959823608e-02,2.168118767440319061e-02,-1.649430394172668457e-01,-1.298072487115859985e-01,3.973304480314254761e-02,1.448743492364883423e-01,1.937910467386245728e-01,1.027411669492721558e-01,-1.011313050985336304e-01,1.632990390062332153e-01,-1.653949022293090820e-01,1.538216974586248398e-02,3.307678550481796265e-02,2.114307135343551636e-01,1.080722957849502563e-01,1.461480110883712769e-01,2.343424782156944275e-02,1.315910369157791138e-01,-1.502868682146072388e-01,-2.425694763660430908e-01,-2.199549973011016846e-01
-1.902946233749389648e-01,1.543208509683609009e-01,-1.209235712885856628e-01,-1.253328919410705566e-01,-1.906859576702117920e-01,2.849771678447723389e-01,1.961953639984130859e-01,-1.054124683141708374e-01,1.506307125091552734e-01,-1.787171959877014160e-01,2.323107272386550903e-01,-1.585427969694137573e-01,2.441557794809341431e-01,1.797924637794494629e-01,1.627545207738876343e-01,8.213282376527786255e-02,-1.808728575706481934e-01,1.167035400867462158e-01,2.124642729759216309e-01,1.456360071897506714e-01,4.248506575822830200e-02,1.793581843376159668e-01,-1.288196444511413574e-01,1.403800994157791138e-01,3.296641409397125244e-01,-2.430498152971267700e-01,8.624898642301559448e-02,-2.989134518429636955e-03,-2.153434753417968750e-01,-2.442236803472042084e-02,-2.708992175757884979e-02,2.634110748767852783e-01,-2.152815014123916626e-01,1.261079013347625732e-01,8.845226466655731201e-02,3.575282916426658630e-02,-1.592990458011627197e-01,-2.392028570175170898e-01,1.834205724298954010e-02,2.153175622224807739e-01,7.644069939851760864e-02,4.046997055411338806e-03,-2.037185616791248322e-02,-4.381054267287254333e-02,1.001494526863098145e-01,2.942273579537868500e-02,1.182431578636169434e-01,2.334790229797363281e-01,1.590473651885986328e-01,7.480593863874673843e-03
-1.303115189075469971e-01,7.193591445684432983e-02,-9.303560853004455566e-02,-5.444325506687164307e-02,1.649156659841537476e-01,2.002553790807723999e-01,-7.690168172121047974e-02,-1.191575825214385986e-01,-1.917786747217178345e-01,-2.190222889184951782e-01,9.624335914850234985e-02,-2.419392168521881104e-01,-2.358813732862472534e-01,2.778564952313899994e-02,-2.234077155590057373e-01,1.367388367652893066e-01,-5.404892936348915100e-02,1.063839644193649292e-01,1.644279062747955322e-01,6.868372857570648193e-02,2.323314249515533447e-01,1.601585000753402710e-01,-4.119500145316123962e-02,-3.348834067583084106e-02,-2.569876238703727722e-02,1.487523764371871948e-01,2.409129738807678223e-01,2.261956930160522461e-01,-2.898609638214111328e-02,-1.169077306985855103e-01,1.418846547603607178e-01,1.089836582541465759e-01,-2.379570007324218750e-01,-1.812812089920043945e-01,-2.320137172937393188e-01,-1.371945291757583618e-01,-2.032086402177810669e-01,-5.699238926172256470e-02,7.780215144157409668e-02,-5.834642052650451660e-02,1.582124382257461548e-01,2.209136337041854858e-01,-5.589263141155242920e-02,-1.358836293220520020e-01,2.364901155233383179e-01,1.558971703052520752e-01,1.022957265377044678e-01,1.150890532881021500e-02,-5.009971931576728821e-02,8.848200738430023193e-02
-8.809947222471237183e-02,5.569954589009284973e-02,-2.299222201108932495e-01,1.417811810970306396e-01,1.426421403884887695e-01,-3.747991286218166351e-03,-1.255391985177993774e-01,-2.202175110578536987e-01,1.956041306257247925e-01,-1.791732758283615112e-01,1.377905160188674927e-01,2.005461417138576508e-02,-1.781584918498992920e-01,2.286356985569000244e-01,2.194617390632629395e-01,-2.341079115867614746e-01,3.047011233866214752e-02,2.078567296266555786e-01,8.502121269702911377e-02,5.064142402261495590e-03,-2.129691690206527710e-01,-2.154995501041412354e-01,1.366288214921951294e-01,-2.206217199563980103e-01,-1.416425406932830811e-01,7.411959022283554077e-02,-2.866939082741737366e-02,-9.072224050760269165e-02,8.330728113651275635e-02,-1.830755546689033508e-02,-7.637363672256469727e-02,-1.697880327701568604e-01,-1.492934226989746094e-01,1.357818692922592163e-01,1.567255407571792603e-01,2.522067725658416748e-02,-1.996649056673049927e-01,8.779661729931831360e-03,-1.806150078773498535e-01,1.283945292234420776e-01,-5.798801407217979431e-02,6.674165278673171997e-02,1.835703104734420776e-01,-7.505185157060623169e-02,1.395944356918334961e-01,-2.155762910842895508e-01,2.373219281435012817e-01,-1.057912781834602356e-01,-1.080923900008201599e-01,2.386213988065719604e-01
1.034052809700369835e-03,-9.702784568071365356e-02,1.008318513631820679e-01,-1.036848127841949463e-01,2.384685426950454712e-01,5.368313193321228027e-02,-9.446643292903900146e-02,-8.930265903472900391e-02,2.055340632796287537e-02,-1.368639618158340454e-02,-1.155007928609848022e-01,2.365855872631072998e-02,5.975666269659996033e-02,-9.252414107322692871e-02,-9.326250851154327393e-02,3.126091882586479187e-02,8.133993297815322876e-02,2.984842285513877869e-02,1.973520517349243164e-01,1.137507036328315735e-01,-1.024534478783607483e-01,-1.262968964874744415e-02,-2.219015508890151978e-01,-5.343468114733695984e-02,-3.860502317547798157e-02,1.801786720752716064e-01,7.595277577638626099e-02,-7.348727434873580933e-02,-1.094339638948440552e-01,8.200551383197307587e-03,-7.851280272006988525e-02,1.362359970808029175e-01,1.877030241303145885e-03,9.400957822799682617e-02,2.401290088891983032e-01,2.688443474471569061e-02,-1.822511255741119385e-01,2.305299043655395508e-03,-2.233516871929168701e-01,-1.311855465173721313e-01,-1.414889395236968994e-01,1.579882949590682983e-01,1.360904723405838013e-01,5.839410424232482910e-02,-1.969617307186126709e-01,-1.174284797161817551e-02,1.634328812360763550e-01,1.020557209849357605e-01,-1.076694428920745850e-01,-1.312604099512100220e-01
