0.000000000000000000e+00,4.319303482770919800e-02,2.909581735730171204e-02,-3.761233892873860896e-05,1.895854994654655457e-02,5.696704611182212830e-02,9.260249137878417969e-02,-6.176872178912162781e-02,1.269493401050567627e-01,-1.799595728516578674e-02,6.757904193364083767e-04,2.685331739485263824e-02,-2.514994936063885689e-03,1.423587463796138763e-02,5.811551585793495178e-02,1.615232378244400024e-01,8.244618028402328491e-02,-1.962754502892494202e-02,-3.338021785020828247e-02,1.420923024415969849e-01,-1.383741106837987900e-02,7.617489993572235107e-02,9.966949373483657837e-02,0.000000000000000000e+00,1.467170417308807373e-01,-4.586023837327957153e-02,-7.489601848646998405e-04,2.291967719793319702e-02,1.544979959726333618e-01,-1.312784617766737938e-03
8.541803061962127686e-02,-2.363113760948181152e-01,-2.407676875591278076e-01,2.242714315652847290e-01,-1.376608163118362427e-01,2.366333901882171631e-01,-1.788618564605712891e-01,1.620641797780990601e-01,3.159677237272262573e-02,-1.050842553377151489e-01,2.067944705486297607e-01,-1.717480719089508057e-01,9.741225093603134155e-02,1.356973946094512939e-01,-2.172599732875823975e-01,2.059925943613052368e-01,-1.795388609170913696e-01,2.224043160676956177e-01,2.036843299865722656e-01,4.341004416346549988e-02,5.812026560306549072e-02,2.887766249477863312e-02,2.076083123683929443e-01,1.476186066865921021e-01,8.508690446615219116e-02,2.142186164855957031e-01,2.224621325731277466e-01,-1.425424218177795410e-01,1.564169675111770630e-01,1.452626734972000122e-01
1.976703554391860962e-01,2.508515957742929459e-03,1.622630506753921509e-01,-9.936549514532089233e-02,3.064618632197380066e-02,7.853681594133377075e-02,2.448140531778335571e-01,-6.837667524814605713e-02,-1.597936451435089111e-01,-6.079036369919776917e-02,-1.094909086823463440e-01,2.012094706296920776e-01,-1.454337388277053833e-01,-1.622019112110137939e-01,-1.651889532804489136e-01,-3.867852687835693359e-02,1.889894455671310425e-01,-9.952240437269210815e-02,-2.215205878019332886e-01,1.468253601342439651e-02,-1.389289647340774536e-01,-1.479534357786178589e-01,-8.371718972921371460e-02,-1.724959909915924072e-01,2.968869507312774658e-01,-2.009007483720779419e-01,8.140747249126434326e-02,2.277531027793884277e-01,2.088761180639266968e-01,-9.729818999767303467e-02
-1.353868693113327026e-01,2.271423488855361938e-01,1.137840822339057922e-01,-6.021303683519363403e-02,4.483201541006565094e-03,7.874903082847595215e-02,-1.963464915752410889e-01,-2.652878640219569206e-03,-5.276175215840339661e-02,-4.966630786657333374e-02,1.811135262250900269e-01,5.398379638791084290e-02,7.618074771016836166e-03,1.851637512445449829e-01,1.794710159301757812e-01,1.534610893577337265e-02,1.266691982746124268e-01,1.823211014270782471e-01,-1.691120304167270660e-02,1.517789810895919800e-01,-8.121478557586669922e-02,2.703061401844024658e-01,-7.128567248582839966e-02,1.402659714221954346e-02,1.538299918174743652e-01,3.615147620439529419e-02,-2.089874893426895142e-01,1.685066893696784973e-02,-6.320781260728836060e-02,-8.081455528736114502e-02
-2.341358512639999390e-01,-4.328623414039611816e-02,1.207596138119697571e-01,-2.241109460592269897e-01,8.744109421968460083e-03,9.928423911333084106e-02,-1.550908386707305908e-01,6.824474781751632690e-02,-1.708345711231231689e-01,5.564119666814804077e-02,-6.347477436065673828e-02,-1.997580081224441528e-01,1.976010203361511230e-01,-2.807915955781936646e-02,-1.604519635438919067e-01,2.358052134513854980e-01,6.167918443679809570e-02,-2.673816867172718048e-02,-5.454656854271888733e-02,1.855899542570114136e-01,-5.508695170283317566e-02,1.409201771020889282e-01,-1.337309032678604126e-01,-4.051673412322998047e-02,-2.118353098630905151e-01,2.203810662031173706e-01,6.035090982913970947e-02,-9.605659544467926025e-02,1.474032551050186157e-01,-3.470273315906524658e-02
-1.165589690208435059e-02,-2.125668376684188843e-01,-7.279048115015029907e-02,-1.608326137065887451e-01,1.995978653430938721e-01,1.378668248653411865e-01,2.327536493539810181e-01,2.189801335334777832e-01,8.530869334936141968e-02,2.442075014114379883e-01,2.031469792127609253e-01,-3.530155122280120850e-02,1.703073531389236450e-01,-1.257140189409255981e-01,2.020909786224365234e-01,7.643839716911315918e-02,-6.548699736595153809e-02,-1.674539223313331604e-02,1.354542821645736694e-01,-3.667660057544708252e-02,3.636911883950233459e-02,-1.758221387863159180e-01,-1.239545941352844238e-01,-1.925230622291564941e-01,-2.371557503938674927e-01,4.449104145169258118e-02,-2.202470600605010986e-01,4.949080944061279297e-02,1.454723328351974487e-01,2.026960998773574829e-01
1.304519325494766235e-01,9.177996218204498291e-02,-1.911815255880355835e-01,-1.410865336656570435e-01,1.128637120127677917e-01,1.673397719860076904e-01,-1.084621697664260864e-01,2.128806561231613159e-01,1.489050090312957764e-01,1.702706217765808105e-01,-1.689504534006118774e-01,-1.127341687679290771e-01,2.764064967632293701e-01,-1.649874746799468994e-01,8.295701444149017334e-02,1.530247926712036133e-01,-1.918815821409225464e-01,-1.555041074752807617e-01,-1.197810843586921692e-01,-1.726352423429489136e-01,2.296337634325027466e-01,-1.669002473354339600e-01,-3.014536574482917786e-02,-3.924347460269927979e-02,2.263282984495162964e-01,-2.381541877985000610e-01,1.750410199165344238e-01,1.242158189415931702e-01,3.290675282478332520e-01,8.006440103054046631e-02
-1.436803638935089111e-01,-1.733980476856231689e-01,1.878223419189453125e-01,1.561481505632400513e-01,-6.932995282113552094e-03,-2.298291027545928955e-01,-2.127761095762252808e-01,-7.897142320871353149e-02,-8.220421522855758667e-02,3.286737203598022461e-02,-3.287107124924659729e-02,-1.571677774190902710e-01,-2.390133142471313477e-01,1.230812519788742065e-01,6.235829740762710571e-02,-1.442828625440597534e-01,-1.226525381207466125e-01,-8.110570907592773438e-02,1.654118150472640991e-01,9.888920933008193970e-02,-2.179857790470123291e-01,2.219697237014770508e-01,-8.833388984203338623e-02,-1.488995552062988281e-01,-1.979587972164154053e-01,1.261654794216156006e-01,1.317309141159057617e-01,-1.056313663721084595e-01,2.056146115064620972e-01,8.028735965490341187e-02
1.091037839651107788e-01,-4.260057210922241211e-02,-3.005588054656982422e-02,1.359629780054092407e-01,-1.569673418998718262e-02,8.240176737308502197e-02,1.632564216852188110e-01,5.200864374637603760e-02,-6.611590087413787842e-02,-1.253692805767059326e-02,-2.170367389917373657e-01,-9.291470050811767578e-04,-6.281919777393341064e-02,1.976980268955230713e-02,1.264189034700393677e-01,-1.791331470012664795e-01,-1.158334314823150635e-01,-1.571689248085021973e-01,-8.516873419284820557e-02,-1.000967472791671753e-01,-1.571915298700332642e-01,-7.808773219585418701e-02,-1.455169916152954102e-01,-1.283949911594390869e-01,4.481703042984008789e-03,1.848512440919876099e-01,1.273781210184097290e-01,-1.647439301013946533e-01,1.012079864740371704e-01,1.446284502744674683e-01
-1.265300512313842773e-01,1.090374588966369629e-01,2.335450351238250732e-01,-8.022303879261016846e-02,-5.695294216275215149e-02,5.807112529873847961e-02,-9.647142142057418823e-02,-2.266128659248352051e-01,-7.913150638341903687e-02,2.779561281204223633e-02,-1.609306186437606812e-01,7.113438099622726440e-02,5.608212202787399292e-02,-6.109401956200599670e-02,2.071707546710968018e-01,1.390274316072463989e-01,-9.436988830566406250e-02,-6.694488227367401123e-02,1.279727518558502197e-01,-6.833084672689437866e-02,-4.050827398896217346e-02,2.237337529659271240e-01,-1.508470773696899414e-01,9.977348148822784424e-02,-1.442268043756484985e-01,1.067342087626457214e-01,-1.019066274166107178e-01,7.079777121543884277e-02,-2.334143519401550293e-01,-1.023692786693572998e-01
-1.097072213888168335e-01,2.227208577096462250e-02,5.295467004179954529e-02,-7.779350876808166504e-02,2.174662947654724121e-01,-9.995784610509872437e-02,-1.779972016811370850e-01,2.619804069399833679e-02,-8.572932332754135132e-02,-1.282514184713363647e-01,7.481524348258972168e-02,-1.664294302463531494e-01,-1.044339127838611603e-02,-1.416369229555130005e-01,1.407325267791748047e-01,1.873062402009963989e-01,2.051003426313400269e-01,4.711087048053741455e-02,1.429029107093811035e-01,1.492854505777359009e-01,-9.597144275903701782e-02,1.415053103119134903e-02,8.163051307201385498e-02,3.972937166690826416e-02,1.166847497224807739e-01,1.064398977905511856e-02,-1.608327031135559082e-01,1.037357077002525330e-01,-1.980411708354949951e-01,5.068738758563995361e-02
-8.815485239028930664e-02,-1.536774784326553345e-01,1.212587859481573105e-02,4.386350139975547791e-02,-2.226484008133411407e-02,9.660831093788146973e-02,-7.383467257022857666e-02,1.733337342739105225e-01,1.128940731287002563e-01,1.399827841669321060e-02,-9.397868067026138306e-02,-1.633777171373367310e-01,9.337022155523300171e-02,1.350314766168594360e-01,-1.582000553607940674e-01,9.820811450481414795e-03,6.488145142793655396e-02,1.338631510734558105e-01,-8.876012265682220459e-02,-5.386937782168388367e-02,2.462779134511947632e-01,-2.196775525808334351e-01,1.889656782150268555e-01,-1.185246258974075317e-01,7.074520736932754517e-02,-4.118944052606821060e-03,2.009719014167785645e-01,-1.780349463224411011e-01,2.548994123935699463e-02,2.792106941342353821e-02
-2.204564809799194336e-01,1.400291919708251953e-01,8.505594730377197266e-02,-1.796081066131591797e-01,-1.962935030460357666e-01,1.492852568626403809e-01,-2.299067378044128418e-01,2.048915028572082520e-01,-2.550171613693237305e-01,-8.599907904863357544e-02,1.519262194633483887e-01,9.962311387062072754e-02,1.224456075578927994e-02,1.195153146982192993e-01,1.361220628023147583e-01,4.252518713474273682e-02,1.184181794524192810e-01,-1.519381254911422729e-01,1.085103154182434082e-01,9.303332120180130005e-02,1.385125070810317993e-01,1.038223430514335632e-01,1.123913303017616272e-01,-2.403575330972671509e-01,6.770783662796020508e-02,-8.609165996313095093e-02,2.302895039319992065e-01,-1.615993380546569824e-01,1.804931461811065674e-01,-2.389048188924789429e-01
-4.652577638626098633e-02,-1.028163880109786987e-01,1.754231154918670654e-01,4.170658439397811890e-02,1.912103742361068726e-01,-1.098959520459175110e-01,4.895158857107162476e-02,-1.087533608078956604e-01,1.351477205753326416e-01,1.357863694429397583e-01,-2.421806156635284424e-01,2.043069601058959961e-01,1.333242803812026978e-01,-1.764312237501144409e-01,-1.791244745254516602e-01,4.764915257692337036e-02,2.230871170759201050e-01,-1.635768115520477295e-01,-2.243023961782455444e-01,9.666669182479381561e-03,1.240830048918724060e-01,9.954179823398590088e-02,-4.102795943617820740e-02,-1.708471179008483887e-01,8.426341414451599121e-02,7.073798030614852905e-02,-1.981752365827560425e-02,2.151843458414077759e-01,1.285868138074874878e-01,5.106225609779357910e-02
1.725936979055404663e-01,2.243736535310745239e-01,2.294995076954364777e-02,2.363087385892868042e-01,-6.778074055910110474e-02,-1.470425445586442947e-02,-1.718596369028091431e-01,-9.523461014032363892e-02,-1.220346242189407349e-01,-1.396304965019226074e-01,2.775344066321849823e-02,1.822273731231689453e-01,-1.853738129138946533e-01,-4.646712541580200195e-02,1.062279269099235535e-01,2.063444256782531738e-01,1.479054838418960571e-01,-1.344735771417617798e-01,-2.357001900672912598e-01,-5.092547088861465454e-02,-6.120843067765235901e-02,-1.056082844734191895e-01,-3.926134109497070312e-02,-1.698344945907592773e-03,-1.854813694953918457e-01,1.871008425951004028e-01,1.025468111038208008e-01,-1.882942765951156616e-01,1.773403882980346680e-01,1.838411837816238403e-01
9.935821592807769775e-02,-9.490068256855010986e-02,-6.041373312473297119e-02,-9.813035279512405396e-02,-1.198354177176952362e-02,-8.815239369869232178e-02,-2.359760850667953491e-01,-2.329164147377014160e-01,-1.089000143110752106e-02,2.023729830980300903e-01,-8.478696644306182861e-02,2.285374552011489868e-01,1.660022735595703125e-01,1.826888024806976318e-01,2.343965917825698853e-01,4.153878241777420044e-02,6.729563232511281967e-03,2.189667373895645142e-01,1.702428907155990601e-01,-8.214122802019119263e-02,-1.343418359756469727e-01,-2.026179581880569458e-01,-1.292645186185836792e-01,-1.654040813446044922e-01,1.176854297518730164e-01,3.405018150806427002e-02,-1.499060243368148804e-01,-4.629402980208396912e-02,2.495197504758834839e-01,-1.622109301388263702e-02
-7.253818213939666748e-02,-1.524292826652526855e-01,-1.998763978481292725e-01,-3.378328680992126465e-02,-1.518603861331939697e-01,-2.289042770862579346e-01,-2.191705107688903809e-01,-1.772739887237548828e-01,8.263779431581497192e-02,-3.990119323134422302e-02,1.511722952127456665e-01,-9.639764577150344849e-02,-1.726976931095123291e-01,2.209722623229026794e-02,-1.922714337706565857e-02,-2.133433939889073372e-03,-2.307079173624515533e-02,1.191661581397056580e-01,2.054173499345779419e-01,1.769584417343139648e-01,1.613881886005401611e-01,-6.276280432939529419e-02,-7.322715967893600464e-02,-2.679567039012908936e-02,-9.970644861459732056e-02,-1.229899972677230835e-01,2.360188513994216919e-01,4.968190565705299377e-02,-8.243770897388458252e-02,-2.090836018323898315e-01
-6.682470440864562988e-02,2.307962328195571899e-01,-1.468442678451538086e-01,-5.200226604938507080e-02,1.905046850442886353e-01,-1.388433426618576050e-01,-1.642033644020557404e-02,1.751088649034500122e-01,2.073173969984054565e-01,-2.212270796298980713e-01,2.253067642450332642e-01,1.479058712720870972e-01,-7.223340123891830444e-02,-6.001184135675430298e-02,-1.350627243518829346e-01,7.181674242019653320e-03,-1.409008949995040894e-01,5.618739873170852661e-02,-9.818061441183090210e-02,3.431719541549682617e-01,6.540003418922424316e-02,3.029452562332153320e-01,-1.230177432298660278e-01,7.682414352893829346e-02,-3.958726674318313599e-02,4.695155099034309387e-02,2.473415434360504150e-02,2.254572808742523193e-01,-2.321531474590301514e-01,-2.899156697094440460e-02
-2.286017090082168579e-01,-1.155188158154487610e-01,8.994153141975402832e-02,-5.427132174372673035e-02,-5.251225084066390991e-02,-1.761341094970703125e-01,-2.655225247144699097e-02,-3.844682360067963600e-04,1.480618715286254883e-01,-1.123128533363342285e-01,9.759684652090072632e-02,1.668073087930679321e-01,1.936406046152114868e-01,1.865776628255844116e-01,1.577160060405731201e-01,1.784255206584930420e-01,-1.422947179526090622e-02,2.310313433408737183e-01,2.827803604304790497e-02,-2.306262850761413574e-01,8.772956579923629761e-02,6.278503686189651489e-02,1.261858493089675903e-01,-1.161563843488693237e-01,1.548883020877838135e-01,1.803558617830276489e-01,-1.569639593362808228e-01,-1.361996680498123169e-01,2.338170707225799561e-01,4.925575107336044312e-02
1.277189105749130249e-01,9.714408218860626221e-02,-9.605391323566436768e-02,-9.455540031194686890e-02,2.149804681539535522e-01,5.937170609831809998e-02,-2.216511666774749756e-01,2.040433287620544434e-01,-2.647016569972038269e-02,1.522972062230110168e-02,-2.285619974136352539e-01,-1.236366182565689087e-01,5.491987243294715881e-02,-1.810890287160873413e-01,1.628480255603790283e-01,-1.643748581409454346e-01,-2.151112854480743408e-01,1.465791761875152588e-01,-2.131675332784652710e-01,-1.925509423017501831e-01,-9.455407038331031799e-03,1.380266696214675903e-01,-2.010828107595443726e-01,1.362196058034896851e-01,-3.128254413604736328e-02,-1.277311593294143677e-01,6.113772466778755188e-02,-1.654803603887557983e-01,-9.057663381099700928e-02,4.402855783700942993e-02
-1.436679065227508545e-02,-1.209965497255325317e-01,1.507429629564285278e-01,-7.589276134967803955e-02,2.316418737173080444e-01,1.476315408945083618e-01,1.645677983760833740e-01,-6.622185558080673218e-02,2.811888456344604492e-01,3.278720751404762268e-02,-7.623154670000076294e-02,1.011100560426712036e-01,-3.067927435040473938e-02,5.924737080931663513e-03,1.552765667438507080e-01,-2.096302211284637451e-01,-9.978801943361759186e-03,-1.024049222469329834e-01,3.408074751496315002e-02,-2.123854458332061768e-01,-8.077410608530044556e-02,-2.023759633302688599e-01,2.010711729526519775e-01,-1.647727191448211670e-01,1.456508636474609375e-01,-2.373040020465850830e-01,-2.051858603954315186e-01,-3.345711156725883484e-03,1.444539278745651245e-01,2.150210551917552948e-03
2.394749224185943604e-02,3.286857903003692627e-02,-2.229499630630016327e-02,1.498346626758575439e-01,-1.294757872819900513e-01,1.236021295189857483e-01,-1.458299607038497925e-01,-1.415254175662994385e-01,1.784053891897201538e-01,-1.581190079450607300e-01,-1.954909786581993103e-02,1.992349475622177124e-01,1.125524044036865234e-01,9.359139949083328247e-02,-1.041484549641609192e-01,-6.859411299228668213e-02,1.113803386688232422e-01,4.821704700589179993e-02,9.956254810094833374e-02,-1.881283149123191833e-02,4.217544198036193848e-02,-7.967349141836166382e-02,2.037123292684555054e-01,2.385835498571395874e-01,1.476105451583862305e-01,2.123544067144393921e-01,1.687643826007843018e-01,-2.247694134712219238e-01,1.232114881277084351e-01,1.644951254129409790e-01
5.230899155139923096e-02,-1.818240284919738770e-01,2.020651996135711670e-01,-1.710033863782882690e-01,2.084577083587646484e-01,3.793532028794288635e-02,-5.693487077951431274e-02,6.125199422240257263e-02,1.541666090488433838e-01,-1.710634678602218628e-01,-1.037312150001525879e-01,3.139158478006720543e-03,-4.635473340749740601e-02,-6.357038766145706177e-02,-1.572892665863037109e-01,1.253373026847839355e-01,-7.758847624063491821e-02,-1.891665309667587280e-01,2.349428832530975342e-01,1.467907875776290894e-01,5.597751215100288391e-02,2.611305713653564453e-01,-2.177232056856155396e-01,1.073924750089645386e-01,-5.286522954702377319e-02,-1.164827588945627213e-02,2.433888614177703857e-02,2.812277292832732201e-03,1.583610624074935913e-01,-1.284473538398742676e-01
1.339513808488845825e-01,1.605584099888801575e-02,1.218378990888595581e-01,-1.621407866477966309e-01,1.622306853532791138e-01,-1.237570419907569885e-01,1.290830075740814209e-01,-1.201599389314651489e-01,-1.048730611801147461e-01,-1.910490393638610840e-01,-2.303443551063537598e-01,-1.337432712316513062e-01,2.353014200925827026e-01,-7.374166697263717651e-02,1.027375236153602600e-01,-1.802134811878204346e-01,1.183400824666023254e-01,-2.112528234720230103e-01,-1.588492542505264282e-01,2.353012263774871826e-01,-1.644523590803146362e-01,5.217025056481361389e-02,-1.458346247673034668e-01,2.691850066184997559e-03,-3.086250275373458862e-02,-4.589715972542762756e-02,-2.227512896060943604e-01,-1.257770210504531860e-01,1.856952011585235596e-01,1.851860582828521729e-01
1.930855661630630493e-01,7.660150527954101562e-02,1.237114146351814270e-01,-7.231363654136657715e-02,1.203543785959482193e-02,3.046707063913345337e-02,-2.058645039796829224e-01,-1.512032300233840942e-01,6.528021395206451416e-02,-3.134691715240478516e-02,-9.720003604888916016e-02,-1.666977852582931519e-01,-4.120236635208129883e-02,2.077283263206481934e-01,-2.277160733938217163e-01,2.787058651447296143e-01,1.363528519868850708e-01,-1.130702048540115356e-01,1.382917258888483047e-02,3.356641829013824463e-01,1.728043891489505768e-02,1.765675395727157593e-01,-2.421279251575469971e-02,9.793026745319366455e-02,-2.469386011362075806e-01,-2.053572982549667358e-02,-1.131467372179031372e-01,-2.298410283401608467e-03,-1.578426510095596313e-01,-1.200499907135963440e-01
-2.164055407047271729e-02,-1.523323953151702881e-01,-4.818586632609367371e-02,1.119014993309974670e-01,1.491977721452713013e-01,-1.012613922357559204e-01,2.597228586673736572e-01,1.640549004077911377e-01,2.613667547702789307e-01,-2.116408795118331909e-01,4.426315426826477051e-02,1.962472200393676758e-01,-1.114082336425781250e-01,2.029458433389663696e-01,1.540921479463577271e-01,1.440536789596080780e-02,1.565067470073699951e-01,-9.658621996641159058e-02,-1.901787072420120239e-01,-1.438394337892532349e-01,-2.276000976562500000e-01,-2.376111596822738647e-02,1.651147007942199707e-01,-1.942209303379058838e-01,3.560940623283386230e-01,3.652158007025718689e-02,-1.388130336999893188e-01,9.628579020500183105e-02,-2.139854989945888519e-02,1.612105667591094971e-01
1.288963705301284790e-01,-2.043244093656539917e-01,7.117674499750137329e-02,-2.286540269851684570e-01,-2.206878811120986938e-01,2.028558999300003052e-01,-7.756806910037994385e-02,9.312766790390014648e-02,-2.340386062860488892e-01,1.491632908582687378e-01,1.145081669092178345e-01,4.078579694032669067e-02,-1.489300280809402466e-01,1.218877434730529785e-01,1.445857882499694824e-01,2.022944986820220947e-01,1.059115864336490631e-02,-8.575239777565002441e-02,1.074557974934577942e-01,-2.001403868198394775e-01,7.018861919641494751e-02,1.694953292608261108e-01,1.806434839963912964e-01,-4.606470465660095215e-02,1.972331553697586060e-01,-1.228431463241577148e-01,-7.781939208507537842e-02,-2.188618928194046021e-01,-2.203201055526733398e-01,6.468503177165985107e-02
3.599660098552703857e-02,-2.276818007230758667e-01,1.646326929330825806e-01,-2.387088239192962646e-01,3.257692232728004456e-02,-8.518814295530319214e-02,3.162714838981628418e-02,2.294894307851791382e-01,-5.046467483043670654e-02,-4.527386277914047241e-02,-1.883895248174667358e-01,2.152263671159744263e-01,-2.173055708408355713e-01,1.250103116035461426e-01,-2.245388180017471313e-01,1.356899440288543701e-01,9.998920559883117676e-02,-1.043260321021080017e-01,3.432550653815269470e-02,1.502944231033325195e-01,-8.868139982223510742e-02,-8.913122117519378662e-02,-2.099730372428894043e-01,-3.970158100128173828e-02,-4.240220040082931519e-02,2.063314616680145264e-02,7.514546811580657959e-02,1.375752538442611694e-01,-2.067077346146106720e-02,1.323594599962234497e-01
1.036352664232254028e-01,1.441462337970733643e-01,-4.921621084213256836e-02,-1.563531309366226196e-01,-2.235440015792846680e-01,1.075207889080047607e-01,6.551598757505416870e-02,-1.055528745055198669e-01,1.293373852968215942e-01,-8.665017783641815186e-02,9.110005944967269897e-02,1.966835111379623413e-01,-2.115139961242675781e-01,2.098466828465461731e-02,-1.242266371846199036e-01,9.637229144573211670e-02,-1.738899052143096924e-01,1.846995949745178223e-01,1.690987646579742432e-01,1.465428173542022705e-01,1.453059762716293335e-01,-5.017952620983123779e-02,-2.154723703861236572e-01,1.212442070245742798e-01,-2.646471746265888214e-02,-2.187521159648895264e-01,-9.600016474723815918e-02,8.753413707017898560e-02,1.023948863148689270e-01,-1.700688451528549194e-01
-6.904916465282440186e-02,-1.902872025966644287e-01,2.398006170988082886e-01,5.414883792400360107e-02,2.286026924848556519e-01,-1.937892436981201172e-01,-3.100827336311340332e-02,-1.402922570705413818e-01,-7.611480355262756348e-02,-3.487104177474975586e-02,-1.598502099514007568e-01,1.438063234090805054e-01,1.489868015050888062e-01,-1.636831462383270264e-01,2.273222655057907104e-01,2.326415628194808960e-01,2.038557827472686768e-02,-5.532619357109069824e-02,6.044538319110870361e-02,7.531400024890899658e-02,1.028628200292587280e-01,2.088300138711929321e-01,-1.133819520473480225e-01,-2.318571209907531738e-01,1.286546438932418823e-01,1.671230345964431763e-01,-1.804700493812561035e-02,-1.183890253305435181e-01,-3.653243184089660645e-03,4.204143583774566650e-02
-2.002111077308654785e-02,-2.396696507930755615e-01,-1.188597977161407471e-01,1.593115776777267456e-01,-9.815146028995513916e-02,1.815524548292160034e-01,2.415521629154682159e-02,-1.764233112335205078e-01,-2.135749459266662598e-01,1.553850919008255005e-01,-1.187211424112319946e-01,1.197700574994087219e-01,1.424191594123840332e-01,-2.287013530731201172e-01,1.350034581264480948e-04,1.206591576337814331e-01,-4.682538285851478577e-02,-9.031042456626892090e-02,8.400635421276092529e-02,-1.494637224823236465e-02,1.820169687271118164e-01,-8.008781820535659790e-02,-2.163932472467422485e-01,-2.146336436271667480e-02,1.459475755691528320e-01,4.120055586099624634e-02,-3.059141337871551514e-02,-2.274128049612045288e-02,1.712619885802268982e-02,-2.124057114124298096e-01
-7.348893582820892334e-02,-4.502997919917106628e-02,1.586419939994812012e-01,1.062841564416885376e-01,-2.347967624664306641e-01,1.748572476208209991e-02,7.280938327312469482e-02,-8.858246356248855591e-02,-2.356188744306564331e-01,-1.930376291275024414e-01,-2.263542562723159790e-01,-9.970296174287796021e-02,-1.820515841245651245e-01,-1.778372563421726227e-02,-2.116994410753250122e-01,2.313349843025207520e-01,-2.601267397403717041e-01,3.960111737251281738e-02,-1.815174520015716553e-01,3.497039675712585449e-01,-7.833766192197799683e-02,3.246918618679046631e-01,-2.301116734743118286e-01,-1.698739826679229736e-01,-1.619227528572082520e-01,-1.652467548847198486e-01,6.870117038488388062e-02,-1.897601187229156494e-01,-2.416756302118301392e-01,-1.433448344469070435e-01
-1.859801709651947021e-01,-1.634265631437301636e-01,1.758962124586105347e-01,-1.831330917775630951e-02,2.589623630046844482e-01,5.514454841613769531e-02,3.149414360523223877e-01,1.379833519458770752e-01,-2.473350428044795990e-02,2.169702649116516113e-01,-2.217066287994384766e-01,2.860531806945800781e-01,2.511940896511077881e-01,1.925585418939590454e-02,2.546508908271789551e-01,-2.988175749778747559e-01,1.366631388664245605e-01,2.139073908329010010e-01,5.332757532596588135e-02,-1.536654531955718994e-01,8.260992914438247681e-02,8.769486844539642334e-02,2.099954932928085327e-01,-1.672070175409317017e-01,1.554311066865921021e-01,-1.928955316543579102e-01,1.925292760133743286e-01,1.686768084764480591e-01,3.412586450576782227e-02,-9.330860525369644165e-02
-1.149067282676696777e-01,1.632481962442398071e-01,-8.643208444118499756e-02,-1.362324357032775879e-01,1.113201752305030823e-01,-2.209838666021823883e-02,-1.100124791264533997e-01,-1.614814437925815582e-02,-2.278908938169479370e-01,-1.817831844091415405e-01,-7.549067586660385132e-02,-8.135060966014862061e-02,-2.169502526521682739e-01,-2.013703882694244385e-01,2.201292514801025391e-01,2.654262632131576538e-02,1.246351599693298340e-01,8.868288248777389526e-02,1.674271076917648315e-01,1.146544665098190308e-01,-7.462091743946075439e-02,-2.025738507509231567e-01,7.715211808681488037e-02,-6.728693842887878418e-02,6.139602139592170715e-02,-1.196177210658788681e-02,4.255998507142066956e-02,2.030612714588642120e-02,7.496256381273269653e-02,1.239358335733413696e-01
7.445827126502990723e-03,-7.786036282777786255e-02,5.303473025560379028e-02,3.123416006565093994e-02,-6.190432608127593994e-02,1.911293864250183105e-01,-1.602312736213207245e-02,-1.170239746570587158e-01,-1.763924062252044678e-01,1.091120615601539612e-01,-1.995060220360755920e-02,6.092027761042118073e-03,-1.060455814003944397e-01,-6.595669686794281006e-02,-1.125542744994163513e-01,2.264660149812698364e-01,1.031226292252540588e-02,-5.960641801357269287e-02,-2.188298553228378296e-01,1.381635367870330811e-01,2.112486585974693298e-02,-2.053471356630325317e-01,1.435961127281188965e-01,-1.247779130935668945e-01,1.739284247159957886e-01,-1.561746448278427124e-01,-1.728374660015106201e-01,-5.286319181323051453e-02,-1.547048240900039673e-01,-1.230676285922527313e-02
-2.174336314201354980e-01,-1.118534952402114868e-01,1.465611904859542847e-01,-3.805129230022430420e-02,-1.080163642764091492e-01,-4.851735383272171021e-02,-1.235991045832633972e-01,-5.609479546546936035e-02,-5.079494416713714600e-02,-6.845623254776000977e-02,-9.919426590204238892e-02,-1.104578077793121338e-01,-3.640891611576080322e-02,-3.829931467771530151e-02,2.979008108377456665e-02,-2.240504473447799683e-01,5.705438181757926941e-02,1.991400122642517090e-01,-2.439348585903644562e-02,1.085114404559135437e-01,4.909043014049530029e-02,5.599779635667800903e-02,-1.589384824037551880e-01,-1.738654226064682007e-01,-1.258999705314636230e-01,-1.454180758446455002e-02,-1.033492386341094971e-01,-2.273602187633514404e-01,-2.010585814714431763e-01,7.980944216251373291e-02
9.477306902408599854e-02,2.323411256074905396e-01,4.000431299209594727e-02,5.578948557376861572e-02,2.071074396371841431e-02,2.301903218030929565e-01,8.336558192968368530e-02,2.074376866221427917e-02,-1.541411131620407104e-01,8.844822645187377930e-03,1.814257204532623291e-01,2.089430838823318481e-01,-2.821791358292102814e-02,-7.754708826541900635e-02,-2.150357961654663086e-01,6.136073544621467590e-02,2.364992797374725342e-01,-3.590641170740127563e-02,-1.160391792654991150e-01,2.416603863239288330e-01,1.021709293127059937e-01,3.655628487467765808e-02,2.043164223432540894e-01,-2.064114809036254883e-01,2.011204808950424194e-01,1.533411443233489990e-01,-2.391631454229354858e-01,-9.947213530540466309e-02,-6.166808307170867920e-02,2.040928602218627930e-02
1.804148405790328979e-01,1.735288053750991821e-01,1.016856580972671509e-01,-1.558892428874969482e-02,1.246385052800178528e-01,-1.341222077608108521e-01,1.856045871973037720e-01,1.096294298768043518e-01,5.934754014015197754e-02,5.061136186122894287e-02,1.340518444776535034e-01,5.592807754874229431e-02,1.084650456905364990e-01,8.235141634941101074e-03,1.799900829792022705e-01,-8.016434311866760254e-02,4.900183901190757751e-02,1.563060134649276733e-01,-5.210553109645843506e-02,-1.936974748969078064e-02,-2.776418626308441162e-02,1.839333921670913696e-01,7.922323048114776611e-02,-6.897804141044616699e-02,-1.133014857769012451e-01,-7.041241228580474854e-02,3.982369601726531982e-02,-2.422302067279815674e-01,8.412557840347290039e-02,-1.224420294165611267e-01
-2.136323451995849609e-01,2.024398893117904663e-01,1.108410358428955078e-01,-6.384937465190887451e-02,-1.384975314140319824e-01,-1.515720039606094360e-01,-4.371199011802673340e-02,-5.491299927234649658e-02,-5.768502876162528992e-02,-1.768271327018737793e-01,-2.180268019437789917e-01,-2.309136688709259033e-01,-1.505606323480606079e-01,-2.111482471227645874e-01,2.075692862272262573e-01,-3.176667378284037113e-04,2.017301023006439209e-01,1.681738942861557007e-01,8.259792625904083252e-02,-1.454462856054306030e-01,-2.018235623836517334e-01,-2.292181998491287231e-01,1.747797280550003052e-01,1.421336382627487183e-01,1.599364429712295532e-01,-3.986887633800506592e-02,-9.133234620094299316e-03,2.375351190567016602e-01,2.040853351354598999e-01,-1.448954343795776367e-01
-1.103433221578598022e-01,2.083330601453781128e-02,2.151718288660049438e-01,-1.565993428230285645e-01,-8.553558588027954102e-02,-7.943462580442428589e-02,1.995582729578018188e-01,-2.154742926359176636e-01,-1.708358973264694214e-01,2.359431535005569458e-01,-1.378045678138732910e-01,1.832296401262283325e-01,-9.811682626605033875e-03,1.142503097653388977e-01,7.575944066047668457e-03,-4.667982924729585648e-03,-1.048375368118286133e-01,-1.098737865686416626e-01,2.267128974199295044e-02,-1.347419172525405884e-01,-7.350873947143554688e-02,-1.012721955776214600e-01,2.392870634794235229e-01,-5.479942262172698975e-02,2.020420432090759277e-01,-3.320471616461873055e-03,-9.814681112766265869e-02,3.140875324606895447e-02,-2.266010083258152008e-02,1.647488921880722046e-01
-2.427404373884201050e-01,1.307009905576705933e-01,1.335939317941665649e-01,-2.090396285057067871e-01,2.386766523122787476e-01,1.814513951539993286e-01,-1.179031282663345337e-01,1.057226210832595825e-01,-5.645547807216644287e-02,-2.180180996656417847e-01,3.591926395893096924e-02,4.711566865444183350e-02,2.004965096712112427e-01,2.297633439302444458e-01,2.046140283346176147e-01,-2.366641163825988770e-01,-2.408058643341064453e-01,-3.788194060325622559e-02,-1.735477149486541748e-01,-2.109918892383575439e-01,-1.642827987670898438e-01,5.945627391338348389e-02,7.065634429454803467e-02,4.547975957393646240e-02,-1.215674057602882385e-01,9.286041557788848877e-02,1.700323075056076050e-01,-1.381941735744476318e-01,-5.771592259407043457e-03,-8.884614706039428711e-02
-5.961954593658447266e-02,-9.564004838466644287e-02,-2.479158937931060791e-01,-1.827064715325832367e-02,1.867868304252624512e-01,1.185336783528327942e-01,-2.001097425818443298e-02,-1.951973140239715576e-01,1.508849710226058960e-01,2.165526449680328369e-01,7.860223203897476196e-02,2.946595847606658936e-01,2.271743565797805786e-01,5.732826888561248779e-02,9.880980849266052246e-02,5.660099908709526062e-02,2.028767317533493042e-01,-2.438407540321350098e-01,6.072374805808067322e-02,1.998904049396514893e-01,1.029183715581893921e-01,1.422689706087112427e-01,1.392730623483657837e-01,1.822517067193984985e-01,3.010025918483734131e-01,-1.039513349533081055e-01,-1.682280898094177246e-01,1.727885603904724121e-01,3.315424323081970215e-01,-9.986802935600280762e-02
-1.769538074731826782e-01,-1.223551034927368164e-01,1.757839620113372803e-01,1.255311518907546997e-01,-9.360635280609130859e-02,-1.777755282819271088e-02,4.710547160357236862e-03,4.009568691253662109e-02,1.501769125461578369e-01,-1.974437087774276733e-01,-1.602836698293685913e-01,3.125472739338874817e-02,9.485068917274475098e-02,-2.274023890495300293e-01,-1.290194988250732422e-01,6.222205981612205505e-02,-2.798182889819145203e-02,2.035850435495376587e-01,-2.278874963521957397e-01,1.106317713856697083e-01,-1.603331416845321655e-01,-1.205609738826751709e-01,-1.134282574057579041e-01,-9.045110642910003662e-02,2.682898044586181641e-01,7.477219402790069580e-02,-1.173597648739814758e-01,-5.098635703325271606e-02,6.901893764734268188e-02,-1.301250010728836060e-01
-8.759468793869018555e-03,2.428314685821533203e-01,-5.043613910675048828e-02,1.182772964239120483e-01,-9.112487733364105225e-02,-1.649050116539001465e-01,-1.333583239465951920e-02,-1.843144148588180542e-01,9.845440089702606201e-02,-4.036623984575271606e-02,-7.796879857778549194e-02,1.668876409530639648e-02,1.917350739240646362e-01,2.980217896401882172e-02,-6.379641592502593994e-02,1.933954805135726929e-01,-1.538819670677185059e-01,-1.627799719572067261e-01,1.948404461145401001e-01,5.441325902938842773e-02,-1.880056113004684448e-01,1.120188981294631958e-01,-2.052139043807983398e-01,9.877853095531463623e-02,1.969001442193984985e-02,-7.511413842439651489e-02,2.871454507112503052e-02,8.369626477360725403e-03,2.493196912109851837e-02,-1.557945907115936279e-01
1.351450830698013306e-01,2.501954883337020874e-02,-1.043970659375190735e-01,1.724174469709396362e-01,-1.645237579941749573e-02,-2.462749928236007690e-02,1.332756876945495605e-01,-1.635634303092956543e-01,1.511343568563461304e-01,-1.392291635274887085e-01,3.684320300817489624e-02,9.892554022371768951e-03,1.850090622901916504e-01,-5.782821029424667358e-02,-9.069367311894893646e-03,-2.489700019359588623e-01,-1.801183372735977173e-01,-4.084170982241630554e-02,-1.482330262660980225e-01,7.199548929929733276e-02,1.991018056869506836e-01,1.248416900634765625e-01,7.581416517496109009e-02,1.356869190931320190e-01,-7.467358559370040894e-02,1.175762154161930084e-02,7.309246063232421875e-02,-1.713871806859970093e-01,1.531898528337478638e-01,-1.282900720834732056e-01
-2.146631777286529541e-01,-1.205679476261138916e-01,-4.043623805046081543e-02,-2.886082231998443604e-02,2.326735854148864746e-01,2.212551832199096680e-01,-1.308012902736663818e-01,-4.468207061290740967e-02,2.114581316709518433e-02,6.121677160263061523e-02,-2.183502763509750366e-01,2.281132526695728302e-02,-1.400487124919891357e-01,1.284511834383010864e-01,-1.821289062500000000e-01,-1.402959376573562622e-01,-2.284813970327377319e-01,-6.507012248039245605e-02,6.664951145648956299e-02,-1.677971482276916504e-01,5.123316310346126556e-03,1.845421642065048218e-01,9.362806379795074463e-02,4.122121632099151611e-02,2.140521854162216187e-01,1.956261545419692993e-01,-1.536640822887420654e-01,-1.342149078845977783e-01,-2.247617989778518677e-01,-3.030361235141754150e-02
8.206142485141754150e-02,-9.361601620912551880e-02,-5.127894133329391479e-02,-1.592864096164703369e-01,-1.043455973267555237e-01,1.022748425602912903e-01,6.128457933664321899e-02,2.380114942789077759e-01,-2.303143292665481567e-01,5.357613414525985718e-02,1.271848380565643311e-01,2.659676223993301392e-02,-6.716515868902206421e-02,-1.580774784088134766e-01,1.557477861642837524e-01,-1.052671670913696289e-02,-2.192811965942382812e-01,-1.289574801921844482e-01,3.965022042393684387e-02,3.756062313914299011e-02,-5.749680567532777786e-04,-1.374443769454956055e-01,3.659538552165031433e-02,1.633258312940597534e-01,5.195325240492820740e-02,1.626441478729248047e-01,3.369868174195289612e-02,1.951906383037567139e-01,3.028530068695545197e-02,1.667410135269165039e-01
2.412856966257095337e-01,2.397433072328567505e-01,2.326800115406513214e-02,-3.779671713709831238e-02,-1.699663400650024414e-01,7.205981016159057617e-02,6.090799719095230103e-02,1.316931694746017456e-01,-1.794971078634262085e-01,8.621832728385925293e-02,2.333179861307144165e-01,5.560906976461410522e-02,8.844069391489028931e-02,1.376328170299530029e-01,-6.017026305198669434e-02,1.614469662308692932e-02,6.225372850894927979e-02,1.164431571960449219e-01,6.091890111565589905e-02,-3.658743202686309814e-02,2.187520861625671387e-01,2.421446740627288818e-01,2.461392432451248169e-01,-1.624045819044113159e-01,-4.170278087258338928e-02,-1.283804178237915039e-01,-1.213730648159980774e-01,-2.293310612440109253e-01,-7.704867422580718994e-02,-1.799521446228027344e-01
1.739942580461502075e-01,2.386339157819747925e-01,1.620277017354965210e-01,-9.157566726207733154e-02,1.240685954689979553e-01,-1.680912822484970093e-01,1.447903513908386230e-01,1.963777542114257812e-01,1.552443951368331909e-01,-1.269787400960922241e-01,-1.818686723709106445e-02,5.284751951694488525e-02,1.076456084847450256e-01,-1.870936751365661621e-01,-8.499632775783538818e-02,2.604107372462749481e-02,6.626443564891815186e-02,-1.198794245719909668e-01,7.811585813760757446e-02,-5.815875157713890076e-02,2.080109119415283203e-01,1.304759085178375244e-01,1.843563318252563477e-01,-9.071390330791473389e-02,-6.213421002030372620e-02,2.115133702754974365e-01,1.027223542332649231e-01,1.210229843854904175e-02,1.963882148265838623e-01,-4.139957204461097717e-02
-7.663299143314361572e-02,-1.528929769992828369e-01,1.055795326828956604e-01,2.419828474521636963e-01,6.593056023120880127e-03,5.322564393281936646e-02,1.365324705839157104e-01,-1.983726471662521362e-01,-5.419506132602691650e-02,3.219892084598541260e-02,-1.731134653091430664e-01,-7.743005454540252686e-02,-6.467680633068084717e-02,-2.027139961719512939e-01,-1.190431863069534302e-01,1.111416816711425781e-01,7.699759304523468018e-02,-1.479307413101196289e-01,2.039696425199508667e-01,-6.266766041517257690e-02,3.907958790659904480e-02,-2.003235667943954468e-01,-6.242037937045097351e-02,2.136377841234207153e-01,-1.613326966762542725e-01,5.076733231544494629e-02,-3.361565992236137390e-02,1.823313534259796143e-02,-2.096178382635116577e-01,1.376933604478836060e-01
-1.991636455059051514e-01,-2.335463464260101318e-01,-7.760169357061386108e-02,-2.364803850650787354e-01,1.200866252183914185e-01,4.449899494647979736e-02,-6.100361794233322144e-02,2.000484615564346313e-01,1.796163432300090790e-02,-2.489054203033447266e-02,-1.632246375083923340e-01,-2.495625242590904236e-02,-2.448472678661346436e-01,-1.517889052629470825e-01,-4.573830962181091309e-02,-1.809378713369369507e-01,1.083652824163436890e-01,-3.450323641300201416e-02,2.342151552438735962e-01,-1.635341644287109375e-01,1.717879921197891235e-01,1.399061381816864014e-01,-7.644025981426239014e-02,2.153306752443313599e-01,1.458011567592620850e-01,-8.131109178066253662e-02,2.487657964229583740e-02,-6.072001159191131592e-02,-1.144717708230018616e-01,1.386739313602447510e-02
