1.398676354438066483e-02,2.157615311443805695e-02,-1.554195303469896317e-02,1.216225884854793549e-02,5.341057479381561279e-02,0.000000000000000000e+00,7.435218244791030884e-02,-1.139122620224952698e-02,1.805577659979462624e-03,1.250599161721765995e-03,-4.650463536381721497e-02,-3.245489671826362610e-02,-3.418558044359087944e-03,-4.802877665497362614e-04,0.000000000000000000e+00,-1.093152631074190140e-02,2.526620030403137207e-02,4.216961190104484558e-02,-3.311752900481224060e-02,4.121847450733184814e-02,0.000000000000000000e+00,-6.471574306488037109e-03,0.000000000000000000e+00,-9.167235693894326687e-04,1.326998579315841198e-03,7.476728409528732300e-03,5.526958405971527100e-02,-3.278086427599191666e-03,-1.347867026925086975e-02,2.789766062051057816e-03,2.788033452816307545e-04,0.000000000000000000e+00,8.207842707633972168e-03,-9.536581113934516907e-03,6.897022016346454620e-03,-2.761339209973812103e-02,4.897657781839370728e-02,-2.406290918588638306e-02,0.000000000000000000e+00,5.243171472102403641e-03,0.000000000000000000e+00,1.506833173334598541e-02,-3.451335476711392403e-03,2.363500185310840607e-02,-1.094150077551603317e-02,2.477573975920677185e-02,-2.793810330331325531e-02,-6.479336880147457123e-03,5.943355150520801544e-03,-4.315434955060482025e-03,3.719861432909965515e-02,4.552995786070823669e-02,-2.233160845935344696e-02,0.000000000000000000e+00,-1.722589507699012756e-02,1.204256433993577957e-02,4.417804628610610962e-02,-1.135304011404514313e-02,-1.283801998943090439e-02,-2.726994082331657410e-02,-4.871474113315343857e-03,0.000000000000000000e+00,-3.519980236887931824e-03,2.696355339139699936e-03,-1.545151695609092712e-03,5.957067385315895081e-02,1.635713875293731689e-02,4.256951808929443359e-02,0.000000000000000000e+00,7.784377317875623703e-03
-8.164935745298862457e-03,-4.402149096131324768e-02,8.900952525436878204e-03,1.972058787941932678e-02,9.688987582921981812e-02,-7.479587197303771973e-02,2.855913946405053139e-03,-7.616145908832550049e-02,1.003700792789459229e-01,-6.079461425542831421e-02,3.880828991532325745e-02,-4.902241006493568420e-02,6.023786589503288269e-02,-5.246846377849578857e-02,7.929755002260208130e-02,-1.063668653368949890e-01,1.167831644415855408e-01,5.482020229101181030e-02,-5.161417648196220398e-02,4.390784725546836853e-02,3.003569692373275757e-02,-4.193960875272750854e-02,1.049941554665565491e-01,-6.600914895534515381e-02,1.765620079822838306e-03,-1.043317914009094238e-01,-3.905048593878746033e-02,2.647024206817150116e-02,3.422912210226058960e-02,-1.211055088788270950e-02,-1.165605895221233368e-02,4.389462620019912720e-02,-3.367410972714424133e-02,4.717266932129859924e-02,6.004950776696205139e-02,-5.687178298830986023e-02,1.511227153241634369e-02,4.910788312554359436e-02,7.108478993177413940e-02,-5.761347711086273193e-02,-2.638410776853561401e-02,-2.943419106304645538e-02,-6.383220665156841278e-03,-3.184223547577857971e-02,1.059260033071041107e-02,-6.564458459615707397e-02,-1.040397793985903263e-03,-9.930612146854400635e-02,-1.685324497520923615e-02,7.449052482843399048e-02,-4.915346577763557434e-02,3.187879920005798340e-02,-5.461776256561279297e-02,-6.797846406698226929e-02,7.320113480091094971e-02,-4.808705300092697144e-02,-6.795842200517654419e-02,-4.835637658834457397e-02,-1.020554751157760620e-01,-1.089646220207214355e-01,-5.191307887434959412e-02,6.916107982397079468e-02,-6.673448532819747925e-02,6.891926378011703491e-02,9.819696843624114990e-02,8.484865725040435791e-02,8.809021860361099243e-02,1.073773130774497986e-01,-1.843937486410140991e-02,-6.372903939336538315e-03
-8.758566528558731079e-02,-1.175679359585046768e-02,-1.205391902476549149e-02,2.950721047818660736e-02,-3.775558993220329285e-02,4.467641562223434448e-02,1.124095618724822998e-01,-6.867958605289459229e-02,1.056806836277246475e-02,3.405801206827163696e-02,-1.375641375780105591e-01,-7.660825736820697784e-03,-6.908544152975082397e-02,6.119512766599655151e-02,-4.348330199718475342e-03,-5.483526736497879028e-02,4.771567881107330322e-02,1.383961085230112076e-02,-8.211417496204376221e-02,-7.885624468326568604e-02,-1.106716692447662354e-03,6.425785273313522339e-02,-8.021841943264007568e-02,-6.613702513277530670e-03,-5.851636081933975220e-02,-3.616204112768173218e-02,-4.966213181614875793e-02,7.924538105726242065e-02,-6.449417769908905029e-02,-3.733593598008155823e-02,-3.565859049558639526e-02,-4.254714399576187134e-02,-6.568566709756851196e-02,4.914169386029243469e-02,2.538333088159561157e-02,4.493841156363487244e-02,1.043073926120996475e-02,-1.172979101538658142e-01,2.808964997529983521e-02,-4.951297491788864136e-02,4.485414177179336548e-02,4.947797954082489014e-02,2.609244920313358307e-02,5.153430998325347900e-02,2.384434454143047333e-03,3.378172963857650757e-02,3.419925272464752197e-02,-6.172313168644905090e-02,8.344014734029769897e-02,1.145085133612155914e-02,2.239337563514709473e-02,-3.542594611644744873e-02,-1.206171792000532150e-02,-2.488259971141815186e-02,-8.559843897819519043e-02,-1.980555802583694458e-02,1.221381202340126038e-01,7.563125342130661011e-02,-6.427424401044845581e-02,3.674528747797012329e-02,3.840302675962448120e-02,-1.033659875392913818e-01,-5.798433441668748856e-03,2.747632935643196106e-02,3.610190749168395996e-02,-6.858561187982559204e-02,-2.240308094769716263e-03,-8.745439350605010986e-02,7.850796729326248169e-02,1.780953072011470795e-02
3.372271358966827393e-02,-1.740075647830963135e-02,1.508487761020660400e-02,1.128574013710021973e-01,2.963509410619735718e-02,-2.738155424594879150e-03,2.092196978628635406e-02,-6.065331771969795227e-02,7.318429648876190186e-02,-2.489415928721427917e-02,-3.396392567083239555e-04,-1.012747660279273987e-01,1.012130752205848694e-01,-3.209510818123817444e-02,-2.563538402318954468e-02,-9.447546675801277161e-03,-3.997921571135520935e-02,8.278167247772216797e-02,-1.983145624399185181e-02,8.956313878297805786e-02,9.164919704198837280e-02,9.473822265863418579e-02,-9.070108085870742798e-02,2.279613912105560303e-02,9.523659944534301758e-02,-2.016682550311088562e-02,-1.967241754755377769e-03,1.166940550319850445e-03,-3.826693445444107056e-02,2.155071496963500977e-02,-1.012415960431098938e-01,7.049532979726791382e-02,-2.604170143604278564e-02,-1.252974662929773331e-02,9.284725040197372437e-02,6.530018895864486694e-02,1.499999407678842545e-02,-7.428067922592163086e-02,8.864685148000717163e-02,5.124145187437534332e-03,4.654511809349060059e-03,1.158042438328266144e-02,5.985622107982635498e-02,7.097233086824417114e-03,7.008002698421478271e-02,3.171616792678833008e-02,-8.291789144277572632e-02,-9.777180850505828857e-02,8.838976174592971802e-02,1.913810847327113152e-03,3.355495631694793701e-02,-5.626475065946578979e-02,-2.605537138879299164e-02,-5.776103958487510681e-02,-3.721345588564872742e-02,-5.206555128097534180e-02,-3.502358496189117432e-02,3.231640905141830444e-02,-5.713727697730064392e-02,-1.899498514831066132e-02,6.832087785005569458e-02,-9.267479181289672852e-03,1.610072702169418335e-02,-4.763552173972129822e-02,3.190069645643234253e-02,3.609611093997955322e-02,-4.426414147019386292e-02,-8.623164030723273754e-04,-6.689222902059555054e-02,-5.395125970244407654e-02
-7.194069027900695801e-02,9.939841926097869873e-03,1.127532403916120529e-02,-7.383478432893753052e-02,8.272614330053329468e-02,-1.020028814673423767e-01,6.316923350095748901e-02,-9.504702687263488770e-02,8.232767879962921143e-02,1.097310520708560944e-02,-2.946909144520759583e-02,-1.277408911846578121e-03,1.306037069298326969e-03,-6.372364610433578491e-02,-3.852823376655578613e-02,-3.292192891240119934e-02,4.562522098422050476e-02,2.636787667870521545e-02,3.626641258597373962e-02,1.147111505270004272e-02,-9.104910492897033691e-02,1.269437838345766068e-02,-6.242826581001281738e-02,-3.502995148301124573e-02,7.102160155773162842e-02,1.193176023662090302e-02,2.919682301580905914e-02,-5.345644056797027588e-02,9.645543992519378662e-02,7.954280078411102295e-02,-3.780145198106765747e-02,-6.624509394168853760e-02,1.898788101971149445e-02,3.950579091906547546e-02,-5.019349977374076843e-02,-1.065549068152904510e-02,5.944071710109710693e-02,6.993200629949569702e-02,-1.028334274888038635e-01,8.029128424823284149e-03,1.995729655027389526e-02,-1.012089997529983521e-01,-8.504857867956161499e-02,9.169481694698333740e-02,-4.297202453017234802e-02,-6.599653512239456177e-02,-9.865926206111907959e-02,-4.345567151904106140e-02,7.251582108438014984e-03,-4.992810636758804321e-02,-5.807225033640861511e-02,-4.225106537342071533e-02,3.808024898171424866e-02,-9.207338094711303711e-03,7.285381108522415161e-02,-7.358938455581665039e-02,-7.771269232034683228e-02,4.111729562282562256e-02,-9.698368608951568604e-02,-8.339635282754898071e-02,-5.682377144694328308e-02,1.044070348143577576e-01,-5.791875347495079041e-02,-1.791835390031337738e-02,1.041472926735877991e-01,-1.368842925876379013e-02,5.204890668392181396e-02,6.307977717369794846e-03,2.335836738348007202e-02,1.147794630378484726e-02
4.844252392649650574e-02,-6.691968441009521484e-02,-9.472862631082534790e-02,-7.941819727420806885e-02,-8.188815414905548096e-02,7.201763242483139038e-02,-4.065043106675148010e-02,-9.697709232568740845e-02,-7.629758864641189575e-02,-7.403205335140228271e-02,-2.636971883475780487e-02,-5.341609194874763489e-02,-5.124064534902572632e-02,3.168638423085212708e-02,3.406947106122970581e-02,-6.279852241277694702e-02,1.788813248276710510e-02,8.014074712991714478e-02,5.984995886683464050e-02,-8.297633379697799683e-02,6.432943046092987061e-03,-1.025219261646270752e-01,-6.607110798358917236e-02,-2.353976294398307800e-02,5.638583377003669739e-02,8.380430936813354492e-02,2.061875909566879272e-02,1.138373650610446930e-02,-4.303997382521629333e-02,-5.118994414806365967e-02,4.276978597044944763e-02,9.943284839391708374e-02,-2.611653506755828857e-02,1.829454861581325531e-02,5.000911653041839600e-02,1.339410897344350815e-02,2.324375510215759277e-02,3.689500736072659492e-03,-4.694885760545730591e-02,8.898045867681503296e-02,-8.864934742450714111e-02,-1.104334183037281036e-02,-9.560595452785491943e-02,-7.013435661792755127e-02,-4.924562200903892517e-02,-8.047558367252349854e-02,7.132747210562229156e-03,-1.733843982219696045e-02,7.915853708982467651e-02,-1.363108213990926743e-02,-5.290329456329345703e-02,8.513152599334716797e-02,5.960123986005783081e-02,-7.317245006561279297e-02,-1.652670837938785553e-02,-1.457192003726959229e-02,6.963001191616058350e-02,4.519267752766609192e-02,-2.344214171171188354e-02,-5.367285385727882385e-02,3.514382522553205490e-03,8.520679920911788940e-02,1.994029991328716278e-02,-2.214110828936100006e-02,-5.161120556294918060e-03,1.397194433957338333e-02,6.965251639485359192e-03,9.245643764734268188e-02,-6.954614818096160889e-02,-6.841444969177246094e-02
7.164669036865234375e-02,-5.996080115437507629e-02,-9.399098902940750122e-02,-7.040090113878250122e-02,2.987045608460903168e-02,-5.891500413417816162e-02,-5.166638176888227463e-03,-5.454156175255775452e-02,-4.525357484817504883e-02,-1.891992613673210144e-02,-4.249999672174453735e-02,-1.437087310478091240e-03,9.177617728710174561e-02,-9.962841868400573730e-02,1.216654479503631592e-02,6.676610559225082397e-02,2.130215987563133240e-02,-9.243728965520858765e-02,-3.598590195178985596e-02,-4.642079398036003113e-02,2.052921801805496216e-02,3.282338753342628479e-02,4.992651194334030151e-02,1.024815067648887634e-01,-9.375664591789245605e-02,-1.353075169026851654e-02,9.338568896055221558e-02,6.742201000452041626e-02,-2.422338537871837616e-02,-7.721976190805435181e-02,-9.728840738534927368e-02,1.634325832128524780e-02,5.120744183659553528e-02,3.126462548971176147e-02,5.530702322721481323e-02,1.240067090839147568e-02,8.310999721288681030e-02,2.848564647138118744e-02,5.877738445997238159e-02,3.808736801147460938e-02,-5.277389287948608398e-02,-6.028489023447036743e-02,-4.343963228166103363e-03,7.087014615535736084e-02,-1.633343403227627277e-03,-5.588429421186447144e-02,4.635329917073249817e-02,-3.262791782617568970e-02,5.264654755592346191e-02,2.250153757631778717e-02,-7.619740068912506104e-02,1.607292331755161285e-02,-3.366628661751747131e-02,-5.191783607006072998e-02,4.401498660445213318e-02,-4.200081899762153625e-02,7.073913514614105225e-02,-3.616487607359886169e-02,7.512509077787399292e-02,-5.111230164766311646e-02,-5.032603070139884949e-02,-3.101740032434463501e-02,3.694039583206176758e-02,7.762186974287033081e-02,-2.998915500938892365e-02,1.257975772023200989e-02,4.968499019742012024e-02,8.258610963821411133e-02,9.507710486650466919e-02,-8.158739656209945679e-02
4.301820416003465652e-03,-5.183748900890350342e-02,-6.958173215389251709e-02,1.071923896670341492e-01,5.571864545345306396e-02,8.210249990224838257e-02,8.503863215446472168e-02,-1.091528758406639099e-01,3.832031041383743286e-02,-1.743803545832633972e-02,-8.519581751897931099e-04,-6.405571103096008301e-02,9.808161854743957520e-02,4.856833443045616150e-02,7.717258483171463013e-02,8.991303294897079468e-02,-7.047972641885280609e-03,-5.111639201641082764e-02,-9.801538288593292236e-02,8.836042881011962891e-02,6.227515637874603271e-03,3.447962179780006409e-02,-4.475009813904762268e-02,7.981080561876296997e-02,9.268692880868911743e-02,8.854807168245315552e-02,-2.131139487028121948e-02,9.000928257592022419e-04,1.021468266844749451e-01,-9.208340942859649658e-02,7.361650466918945312e-02,7.178617268800735474e-02,9.514265507459640503e-02,-1.020242720842361450e-01,5.913366749882698059e-02,-1.371636148542165756e-02,6.004798412322998047e-02,2.574488520622253418e-02,-4.468754678964614868e-02,-7.044576108455657959e-02,-8.164624124765396118e-02,-6.090705841779708862e-02,-1.032672524452209473e-01,-2.205840684473514557e-02,-9.174213558435440063e-02,-9.295915067195892334e-02,4.713582340627908707e-03,-6.817757338285446167e-02,-6.262543797492980957e-02,3.302292898297309875e-02,3.154889121651649475e-02,3.833666443824768066e-03,-7.714374363422393799e-02,-1.620377600193023682e-02,7.022142410278320312e-02,7.975330948829650879e-02,5.921482294797897339e-02,2.835433930158615112e-02,-8.903179317712783813e-02,5.268370360136032104e-02,-5.253061652183532715e-02,3.252207487821578979e-02,9.959474205970764160e-02,-2.874164492823183537e-04,-8.022091351449489594e-03,6.172142550349235535e-02,-8.991141803562641144e-03,8.972112089395523071e-02,5.179124325513839722e-02,3.722132742404937744e-02
5.690745310857892036e-04,5.004277825355529785e-02,8.640405535697937012e-02,-2.353027835488319397e-02,6.441176682710647583e-02,1.718599349260330200e-02,-6.947080790996551514e-02,6.569913774728775024e-02,8.336073905229568481e-02,-5.372876301407814026e-03,6.740061938762664795e-02,7.617942243814468384e-02,-4.119355976581573486e-02,8.239920437335968018e-02,5.747225135564804077e-02,5.454775691032409668e-02,-9.713529795408248901e-02,-3.170325234532356262e-02,8.240279555320739746e-02,7.195373531430959702e-03,3.155047446489334106e-02,6.387359648942947388e-02,7.171817868947982788e-02,-4.155847057700157166e-02,6.888405233621597290e-02,6.697846949100494385e-02,-7.364069670438766479e-02,-2.740022353827953339e-02,-3.589569404721260071e-02,6.798665970563888550e-02,1.861241459846496582e-02,2.426954358816146851e-02,5.816130712628364563e-02,-3.690024837851524353e-02,-2.085002511739730835e-02,-2.507868781685829163e-02,-3.200218081474304199e-02,-1.032280698418617249e-01,-4.467078298330307007e-02,6.287463009357452393e-03,-1.017528995871543884e-01,-1.709634996950626373e-02,8.439020812511444092e-02,-5.295870080590248108e-02,4.228844493627548218e-02,6.193526089191436768e-02,-8.874134719371795654e-02,-7.930823415517807007e-02,7.491836696863174438e-02,-8.791404543444514275e-04,-2.670687437057495117e-02,6.391692161560058594e-02,-9.161504358053207397e-02,-3.211150318384170532e-02,-2.153040096163749695e-02,5.430319532752037048e-02,-3.922104462981224060e-02,-7.047153264284133911e-02,2.627503871917724609e-02,-4.563426598906517029e-02,9.739175438880920410e-02,1.524948328733444214e-02,1.371951401233673096e-02,9.091632813215255737e-02,-7.233190536499023438e-02,1.477003842592239380e-02,-1.814424991607666016e-02,7.097779214382171631e-02,-3.192171454429626465e-02,-5.939730256795883179e-02
-4.959219601005315781e-03,5.437596887350082397e-02,-8.987931534647941589e-03,-5.423741042613983154e-02,7.473704218864440918e-02,1.001500859856605530e-01,1.174521371722221375e-01,3.641311451792716980e-02,-6.633696705102920532e-02,9.765214473009109497e-02,-4.803778231143951416e-02,6.382222473621368408e-02,-2.994881011545658112e-02,1.886313781142234802e-02,-3.257284313440322876e-02,-1.794396340847015381e-02,5.129350721836090088e-02,2.098877727985382080e-02,4.792005941271781921e-02,-9.112968295812606812e-02,2.624712884426116943e-03,7.282125204801559448e-02,-6.038183346390724182e-02,6.245525181293487549e-02,-7.263556122779846191e-02,-3.293693065643310547e-02,-4.661864601075649261e-03,-1.062448695302009583e-02,-1.290305797010660172e-02,-2.468564361333847046e-02,4.784828424453735352e-02,-2.007008343935012817e-02,-5.341969430446624756e-02,7.621601969003677368e-02,8.284267783164978027e-02,1.685948483645915985e-02,-2.943884953856468201e-02,-8.993808925151824951e-02,-4.564925283193588257e-02,-3.336849063634872437e-02,3.204970806837081909e-02,-4.405081272125244141e-03,-1.909559126943349838e-03,-5.492468178272247314e-02,-3.939175512641668320e-03,-6.801281124353408813e-02,7.145220786333084106e-02,8.795119822025299072e-02,-8.023097366094589233e-02,5.006724968552589417e-02,3.714295104146003723e-02,6.429278850555419922e-02,-7.998711615800857544e-02,8.314967155456542969e-03,-5.136094614863395691e-02,-6.223971024155616760e-02,-8.169050514698028564e-02,7.731560617685317993e-02,2.678981516510248184e-03,6.961797922849655151e-02,1.003431007266044617e-01,-4.436443001031875610e-02,6.351998448371887207e-02,1.784687861800193787e-02,-8.956305682659149170e-02,-4.723212122917175293e-02,-8.117104321718215942e-02,-7.064114511013031006e-02,-9.790706634521484375e-02,-4.134130105376243591e-02
-7.437053322792053223e-02,5.626222491264343262e-02,-2.874368615448474884e-02,-5.515760742127895355e-03,-8.435083180665969849e-02,-2.369191497564315796e-02,-5.486728996038436890e-02,-8.437151461839675903e-02,7.576065510511398315e-02,7.196423411369323730e-02,8.330083638429641724e-02,-2.858444489538669586e-02,-5.567248910665512085e-02,-6.595568358898162842e-02,-5.947666987776756287e-02,-4.241728037595748901e-02,7.379604130983352661e-02,6.111044064164161682e-02,-9.738654643297195435e-02,-5.803764611482620239e-02,-8.978076279163360596e-02,7.992764562368392944e-02,7.795192301273345947e-03,4.408729448914527893e-02,-3.324534976854920387e-03,9.615141153335571289e-02,9.464582800865173340e-02,-7.451386749744415283e-02,9.476206451654434204e-02,-9.673014283180236816e-02,-8.877833932638168335e-02,6.155685335397720337e-02,1.017798036336898804e-01,-2.775408886373043060e-02,2.242973260581493378e-02,7.958815246820449829e-02,1.032657697796821594e-01,-8.827210962772369385e-02,-9.939736872911453247e-02,-2.879152260720729828e-02,4.609642177820205688e-02,7.635387778282165527e-02,7.585761696100234985e-02,-9.743288904428482056e-02,-6.379415839910507202e-02,-9.190446883440017700e-02,4.367105662822723389e-03,6.135655194520950317e-02,-5.009886994957923889e-02,9.330686181783676147e-02,8.499484509229660034e-02,5.584892630577087402e-02,-5.253367871046066284e-02,1.567367464303970337e-02,7.171411067247390747e-02,5.177147313952445984e-02,-3.608078882098197937e-02,7.999327778816223145e-02,4.375294595956802368e-02,5.424826964735984802e-02,-3.014768240973353386e-03,8.902395516633987427e-02,-3.307314962148666382e-02,-5.997411161661148071e-02,-8.926463872194290161e-02,-5.543376505374908447e-02,1.238328497856855392e-02,-1.930459029972553253e-02,-4.456488043069839478e-02,-7.636498659849166870e-02
-1.042040064930915833e-01,-6.453584134578704834e-02,1.000924184918403625e-01,-5.342792719602584839e-02,1.151334121823310852e-01,1.542600989341735840e-02,1.138015766628086567e-03,-1.041539758443832397e-01,3.097116015851497650e-02,1.937569491565227509e-02,1.891162246465682983e-02,-3.254033252596855164e-02,9.352725744247436523e-02,2.994976192712783813e-02,-5.867861956357955933e-02,-8.582210540771484375e-02,7.933324575424194336e-02,-7.654701475985348225e-04,-1.029755473136901855e-01,-1.424925576429814100e-04,7.877752184867858887e-03,8.729159086942672729e-02,-8.268309384584426880e-02,3.208707273006439209e-02,-9.341616183519363403e-02,9.098756313323974609e-02,-9.761033579707145691e-03,6.638529896736145020e-02,3.941130824387073517e-03,-6.269031018018722534e-02,2.326919138431549072e-02,5.638945847749710083e-02,-2.651699446141719818e-02,3.957544267177581787e-02,3.504929319024085999e-02,3.854850679636001587e-02,5.381651595234870911e-02,2.224930748343467712e-02,1.771752536296844482e-02,-1.753422431647777557e-02,1.305580139160156250e-02,-2.783260494470596313e-02,9.729965031147003174e-02,6.875563412904739380e-02,-7.721066474914550781e-02,8.940783888101577759e-02,-3.794661164283752441e-02,-7.195975631475448608e-02,5.947684869170188904e-02,7.639531791210174561e-02,-5.599711462855339050e-02,-3.783227875828742981e-02,4.705691710114479065e-02,6.588906049728393555e-03,-1.442109234631061554e-02,-9.363982826471328735e-02,-8.388718962669372559e-02,2.127761580049991608e-02,5.482568591833114624e-02,-4.235071688890457153e-02,4.105986282229423523e-02,-8.396073430776596069e-02,4.811627045273780823e-02,-6.321491301059722900e-02,-6.376106292009353638e-02,6.434123963117599487e-02,3.410651907324790955e-02,1.091004088521003723e-01,7.356620579957962036e-02,-2.537668310105800629e-02
2.729069441556930542e-03,-3.081232309341430664e-02,-2.786728553473949432e-02,5.366261303424835205e-02,-7.301578670740127563e-02,-4.656313732266426086e-02,-4.095364362001419067e-02,-4.570588469505310059e-02,-9.974558651447296143e-02,1.023796275258064270e-01,-2.140547707676887512e-02,-3.166875615715980530e-02,1.784178614616394043e-02,-4.339545220136642456e-02,1.027485504746437073e-01,-7.667622715234756470e-02,4.736102744936943054e-02,-2.261653169989585876e-02,6.183589342981576920e-03,7.116362452507019043e-02,7.053975015878677368e-02,5.189055576920509338e-02,-2.657130360603332520e-03,6.739339977502822876e-02,7.764298468828201294e-02,-7.182958722114562988e-02,4.339364543557167053e-02,8.681621402502059937e-02,3.108438476920127869e-02,2.145615778863430023e-02,9.809912741184234619e-02,9.181729704141616821e-02,2.721971273422241211e-02,-4.943155497312545776e-02,5.463894084095954895e-02,2.773604728281497955e-02,6.469895131886005402e-03,-5.867698788642883301e-02,-5.167167261242866516e-02,7.382986694574356079e-02,-2.239578217267990112e-02,-6.156592816114425659e-02,9.411796927452087402e-02,-4.903500154614448547e-02,-4.387668799608945847e-03,5.778225883841514587e-02,4.830561950802803040e-02,-2.842207811772823334e-02,2.114524319767951965e-02,-2.147739380598068237e-02,-3.293513134121894836e-02,-5.758949741721153259e-02,1.657043397426605225e-02,-4.840389639139175415e-02,-6.861750781536102295e-02,5.697848647832870483e-02,1.062377765774726868e-01,8.957694284617900848e-03,-6.277419161051511765e-03,8.000736683607101440e-02,-5.131021887063980103e-02,4.785937815904617310e-02,-6.913228332996368408e-02,9.394659101963043213e-02,1.051024049520492554e-01,-8.049423247575759888e-02,-5.588452890515327454e-02,-3.545308113098144531e-02,1.107224822044372559e-02,1.203514169901609421e-02
2.970632351934909821e-02,-3.878038749098777771e-02,1.039517894387245178e-01,8.632455766201019287e-02,6.914377212524414062e-02,8.695304393768310547e-03,8.214861154556274414e-02,6.411642301827669144e-03,-6.742230616509914398e-03,-4.089500755071640015e-02,-9.024129807949066162e-02,2.119871415197849274e-02,8.018621802330017090e-02,4.274957254528999329e-02,4.081983119249343872e-02,-5.201845243573188782e-02,-4.458542540669441223e-02,1.584305614233016968e-02,-1.025496944785118103e-01,5.089841410517692566e-02,-2.867853641510009766e-02,-4.586549103260040283e-02,8.946958929300308228e-02,4.024724289774894714e-02,-5.420167371630668640e-02,4.980158060789108276e-02,9.358161687850952148e-02,-1.917632855474948883e-02,-2.235869690775871277e-02,-8.201588690280914307e-02,9.006515890359878540e-02,6.692675501108169556e-02,-9.607185423374176025e-02,9.095910936594009399e-02,1.006464436650276184e-01,2.392035722732543945e-02,8.463552594184875488e-02,-6.030971556901931763e-02,-5.987153574824333191e-02,-5.585547536611557007e-02,-3.080240637063980103e-02,-6.104693934321403503e-02,-3.937400132417678833e-02,-6.276666373014450073e-02,-1.032787561416625977e-02,-6.723945587873458862e-02,8.868970721960067749e-02,-5.427566915750503540e-02,-8.477436006069183350e-02,-1.524943858385086060e-03,2.318616490811109543e-03,6.074902415275573730e-02,9.866932034492492676e-02,6.638359278440475464e-02,-7.193413376808166504e-02,-2.240307442843914032e-02,-8.117002993822097778e-02,-7.293969392776489258e-02,7.864779233932495117e-02,8.596867322921752930e-02,-3.551992774009704590e-02,-1.034147441387176514e-01,8.974099159240722656e-02,-6.098720058798789978e-02,6.170457229018211365e-02,2.613443695008754730e-02,-2.011870034039020538e-02,1.903358846902847290e-02,-6.425829231739044189e-02,-9.858794510364532471e-02
-4.122130200266838074e-02,5.855288822203874588e-03,4.498651251196861267e-03,7.388038933277130127e-02,4.551124200224876404e-02,-7.827432453632354736e-02,1.289259195327758789e-01,-2.370107546448707581e-02,6.563625484704971313e-02,-5.489088594913482666e-02,-5.377754196524620056e-02,-5.895657464861869812e-03,7.505988236516714096e-03,-5.419305339455604553e-02,-1.807557046413421631e-02,1.005963906645774841e-01,9.411686658859252930e-02,4.386859014630317688e-02,-6.566150486469268799e-02,-3.506904095411300659e-02,-2.588555216789245605e-04,7.342511415481567383e-02,6.443931907415390015e-02,-3.000106289982795715e-02,1.030932068824768066e-01,8.427527733147144318e-03,7.108946144580841064e-02,-6.040601432323455811e-02,-3.051591105759143829e-03,-7.203347980976104736e-02,-3.774739056825637817e-02,-8.141528069972991943e-02,-7.961516827344894409e-02,-1.046076864004135132e-01,5.206320434808731079e-02,8.710255846381187439e-03,-6.627012044191360474e-02,-8.333063870668411255e-02,2.482727915048599243e-02,1.796336844563484192e-02,-4.072540998458862305e-02,1.547781005501747131e-02,-5.472354963421821594e-02,1.639252901077270508e-02,5.966522172093391418e-02,2.957231551408767700e-02,-7.927960157394409180e-02,7.714508473873138428e-02,3.656835481524467468e-02,4.543747752904891968e-02,5.078919231891632080e-02,2.023313939571380615e-02,1.178660541772842407e-01,9.112588316202163696e-02,6.003014277666807175e-03,-1.069932058453559875e-01,2.234824188053607941e-02,-9.803387522697448730e-02,6.415872275829315186e-02,-3.571359813213348389e-02,-6.501188874244689941e-02,-1.033200770616531372e-01,-5.011789873242378235e-02,7.112829387187957764e-02,-1.024295911192893982e-01,-7.052030414342880249e-02,-4.936200566589832306e-03,8.868530392646789551e-03,2.543555945158004761e-02,6.837688386440277100e-02
5.076753348112106323e-02,-1.037668138742446899e-01,8.737343363463878632e-03,3.808103501796722412e-02,1.010425686836242676e-01,-8.208674937486648560e-02,1.089329048991203308e-01,-1.730867102742195129e-02,9.013103693723678589e-02,-4.757216200232505798e-02,-1.162910163402557373e-01,2.850488573312759399e-02,-5.913029983639717102e-02,-6.798063218593597412e-02,-5.945545807480812073e-02,4.730993509292602539e-02,-6.939876079559326172e-02,5.983388982713222504e-03,-5.652482807636260986e-02,-5.040615797042846680e-03,1.298996061086654663e-02,3.210059180855751038e-02,-8.959577232599258423e-02,8.624845743179321289e-02,9.453049302101135254e-02,1.038478836417198181e-01,1.572422683238983154e-02,9.087082743644714355e-02,1.479125022888183594e-02,-6.733106565661728382e-04,4.379021748900413513e-02,6.120788305997848511e-02,1.023377329111099243e-01,-9.685575030744075775e-03,9.021435678005218506e-02,7.594951987266540527e-02,4.570647329092025757e-02,-7.856938987970352173e-02,2.363055199384689331e-02,-9.274245239794254303e-03,-2.821219712495803833e-02,4.407428577542304993e-02,-1.337448786944150925e-02,1.015902161598205566e-01,3.324590250849723816e-02,2.783383987843990326e-02,5.864116922020912170e-02,-7.693066447973251343e-02,3.079696744680404663e-02,-4.979258403182029724e-02,3.492624312639236450e-02,4.260419681668281555e-02,1.168012022972106934e-01,3.497503697872161865e-03,-8.802065998315811157e-02,1.316360011696815491e-02,-8.287454396486282349e-02,-2.496339753270149231e-02,3.972074761986732483e-02,6.821140646934509277e-02,-3.153478354215621948e-02,9.464710205793380737e-02,8.682984113693237305e-02,-1.013202294707298279e-01,3.784257918596267700e-02,7.920971140265464783e-03,-5.501246079802513123e-02,6.022541597485542297e-02,-4.876662045717239380e-02,-7.012314349412918091e-02
3.404867276549339294e-02,8.973488956689834595e-02,-6.470161676406860352e-02,4.773210734128952026e-02,8.912041038274765015e-02,3.371082991361618042e-02,-8.969004265964031219e-03,-1.533625088632106781e-02,6.580012291669845581e-02,7.045497000217437744e-02,-8.007451146841049194e-02,2.345956116914749146e-02,-4.047409817576408386e-02,-3.348360955715179443e-02,-2.830021083354949951e-02,-4.644769057631492615e-02,-1.000121012330055237e-01,-1.232939027249813080e-02,5.896546691656112671e-02,-7.255893945693969727e-02,-1.025193333625793457e-01,-8.996892720460891724e-02,-6.513302028179168701e-02,-1.831079274415969849e-02,7.372841238975524902e-02,-1.093509607017040253e-02,-4.363150149583816528e-02,5.295137315988540649e-02,3.027541562914848328e-02,-1.045426428318023682e-01,4.367657750844955444e-02,6.127060204744338989e-02,-5.931809937465004623e-05,-2.782384306192398071e-02,-5.171756073832511902e-02,2.175924181938171387e-02,-3.312891721725463867e-02,4.663270339369773865e-02,2.493976801633834839e-02,5.771840736269950867e-02,-5.597775802016258240e-02,5.364762619137763977e-02,-1.053040251135826111e-01,9.422504901885986328e-02,-1.000605672597885132e-01,9.655642323195934296e-03,5.023846030235290527e-02,-1.860746368765830994e-02,-2.396671846508979797e-02,-2.153250388801097870e-02,-2.802376821637153625e-02,5.835505947470664978e-02,2.175060845911502838e-02,9.442720562219619751e-02,1.578877214342355728e-03,6.349453330039978027e-02,5.408607795834541321e-02,3.605788201093673706e-02,-2.414269372820854187e-02,3.042968362569808960e-02,8.837180584669113159e-02,-3.822432458400726318e-02,-2.931557223200798035e-02,7.739191502332687378e-02,-4.763295873999595642e-03,7.407283782958984375e-02,3.011957369744777679e-02,1.081758923828601837e-02,4.603669047355651855e-03,8.090115338563919067e-02
-1.941755600273609161e-02,-1.219307910650968552e-02,-1.318544242531061172e-02,-6.560631096363067627e-02,-2.650643512606620789e-02,9.716259688138961792e-02,1.349089592695236206e-01,8.033477514982223511e-02,-6.705426424741744995e-02,9.185159951448440552e-02,5.621687509119510651e-03,8.428036421537399292e-02,-2.841617912054061890e-02,-1.658903062343597412e-02,2.060917764902114868e-02,2.221963740885257721e-02,-3.938328474760055542e-02,8.747559040784835815e-03,-4.755194857716560364e-02,8.280268311500549316e-02,-5.730688571929931641e-03,-5.485532432794570923e-02,-5.857047811150550842e-02,9.200562536716461182e-02,3.127056732773780823e-02,-2.035704068839550018e-02,6.600765883922576904e-02,9.002096951007843018e-02,-4.376705735921859741e-02,-3.031865879893302917e-02,6.045240536332130432e-02,6.005249917507171631e-03,-2.974406629800796509e-02,-8.787871152162551880e-02,-1.141300704330205917e-02,-9.901488199830055237e-03,5.143471807241439819e-02,-5.800653994083404541e-02,-2.263234555721282959e-02,8.390928804874420166e-02,6.253123283386230469e-03,-2.471596561372280121e-02,-5.367388576269149780e-02,7.298946380615234375e-02,4.098212346434593201e-03,-1.844295486807823181e-02,-9.307443350553512573e-02,-4.797980654984712601e-03,-1.428981591016054153e-02,2.479604631662368774e-02,-9.513048827648162842e-02,6.955832242965698242e-02,-2.411805838346481323e-02,-5.313751846551895142e-02,-6.983350962400436401e-02,-9.003845602273941040e-02,9.727331250905990601e-02,7.125942502170801163e-03,-2.341478690505027771e-02,-4.001263156533241272e-02,7.446976006031036377e-02,-5.391821265220642090e-03,-2.829052135348320007e-02,3.703459352254867554e-02,-5.736848711967468262e-02,-5.040531232953071594e-02,-1.091228052973747253e-01,1.149935573339462280e-01,2.714908868074417114e-02,-9.264481812715530396e-02
1.037570834159851074e-01,-9.665495902299880981e-02,-8.186580240726470947e-02,-5.027295276522636414e-02,-2.307053841650485992e-02,5.318046361207962036e-02,5.399742349982261658e-02,-9.406006336212158203e-02,-9.133237600326538086e-02,-6.371206790208816528e-02,-1.269233226776123047e-02,4.083954729139804840e-03,1.023095548152923584e-01,2.579968050122261047e-02,7.972743362188339233e-02,-9.410348720848560333e-03,1.382549293339252472e-02,6.353493034839630127e-02,-7.176866382360458374e-02,-8.319085091352462769e-02,-9.364320337772369385e-02,-4.705139994621276855e-02,-1.766806840896606445e-02,8.007196336984634399e-02,1.088098660111427307e-01,5.395283177495002747e-02,1.520329155027866364e-02,4.106153920292854309e-02,6.531493365764617920e-02,7.348264008760452271e-02,1.151344478130340576e-01,6.968896836042404175e-02,-9.106118977069854736e-02,5.223753675818443298e-02,1.103871241211891174e-01,-2.048191800713539124e-02,1.086654737591743469e-01,-1.397812925279140472e-02,2.898538857698440552e-02,-2.911560051143169403e-02,-4.961636662483215332e-02,-2.282171882688999176e-02,-1.006596311926841736e-01,1.590302400290966034e-02,8.272530883550643921e-02,2.514623804017901421e-03,-7.252433151006698608e-02,-8.538211882114410400e-02,-3.443156182765960693e-02,-5.325578153133392334e-02,7.108604907989501953e-02,5.780907720327377319e-02,5.587856471538543701e-02,1.529788970947265625e-02,-9.677650034427642822e-02,-1.027329564094543457e-01,-1.783713698387145996e-02,-7.572736591100692749e-02,-6.468407064676284790e-02,-7.775551825761795044e-02,-3.633241727948188782e-02,8.769497275352478027e-03,9.742799401283264160e-02,2.002258971333503723e-02,-9.127645939588546753e-02,-2.542320638895034790e-02,-1.086972951889038086e-01,-7.329487055540084839e-02,-6.801460683345794678e-02,-4.249031469225883484e-02
-9.759169071912765503e-03,-3.754369169473648071e-02,1.452422980219125748e-02,5.671631172299385071e-02,-7.352832704782485962e-02,-9.210067987442016602e-02,-4.637320339679718018e-02,2.141854353249073029e-02,-7.141982018947601318e-02,7.703478634357452393e-02,-1.019437834620475769e-01,8.367908746004104614e-02,-3.103302046656608582e-02,2.488995529711246490e-02,8.130001276731491089e-02,-8.243779838085174561e-02,3.054744750261306763e-02,-1.648072153329849243e-02,-1.616403460502624512e-02,1.874603889882564545e-02,8.766979724168777466e-02,-9.700303524732589722e-02,-4.574567079544067383e-03,3.356468677520751953e-02,-2.841117419302463531e-02,3.020126931369304657e-02,-1.759819127619266510e-02,-5.314217507839202881e-02,-4.961010068655014038e-02,3.944990411400794983e-02,5.888421460986137390e-02,-3.778828680515289307e-02,9.463515877723693848e-02,-7.456963509321212769e-02,9.957654029130935669e-02,-1.043125540018081665e-01,-6.242089718580245972e-02,-2.604063227772712708e-02,6.027657538652420044e-02,8.402768522500991821e-02,3.250996023416519165e-02,-8.599918335676193237e-02,2.221961878240108490e-02,-1.395873911678791046e-02,-5.012623965740203857e-02,-7.020505517721176147e-02,3.828939422965049744e-02,-8.941542473621666431e-04,7.964909076690673828e-02,7.238468527793884277e-02,-4.657958447933197021e-02,8.502365648746490479e-02,3.859279677271842957e-03,-4.923527315258979797e-02,-3.153759986162185669e-02,-5.939726904034614563e-02,-1.141117233783006668e-02,-9.145812690258026123e-02,7.552370894700288773e-03,7.657369971275329590e-02,-8.728576451539993286e-02,7.627344876527786255e-02,6.030612066388130188e-02,1.561863999813795090e-02,-5.038138106465339661e-02,4.546147212386131287e-02,6.648334860801696777e-02,2.523982711136341095e-02,2.192469686269760132e-02,5.505191534757614136e-02
3.914033249020576477e-02,-1.002359092235565186e-01,4.454226046800613403e-02,-9.672886133193969727e-02,2.708776853978633881e-02,-1.001460105180740356e-01,7.460074871778488159e-02,-7.497850805521011353e-02,6.838416308164596558e-02,5.793670564889907837e-02,-8.636502921581268311e-02,8.297553658485412598e-02,-6.949522346258163452e-02,-9.763114899396896362e-02,4.242707043886184692e-02,-6.238475069403648376e-02,-8.301088213920593262e-02,-3.197645768523216248e-02,-6.119826436042785645e-02,3.219203650951385498e-02,-1.125510036945343018e-02,-5.536038428544998169e-02,-8.936172723770141602e-02,7.607872039079666138e-02,-4.401945509016513824e-03,-3.636754676699638367e-02,3.677400946617126465e-02,-4.706319049000740051e-02,-9.668554179370403290e-03,3.336397930979728699e-02,6.338135898113250732e-02,-7.003844529390335083e-02,-6.556104123592376709e-02,7.046914100646972656e-02,-7.298655807971954346e-02,-8.292404562234878540e-02,-5.642058327794075012e-02,-7.399217784404754639e-02,-6.006047502160072327e-02,-7.439069449901580811e-02,-4.093915224075317383e-02,1.072827503085136414e-01,-5.540279089473187923e-04,1.882475987076759338e-02,4.875802993774414062e-02,9.371415525674819946e-02,4.275316745042800903e-02,4.008735343813896179e-02,-4.121181368827819824e-02,7.976534776389598846e-03,4.786956310272216797e-02,4.103980492800474167e-03,4.300015047192573547e-02,8.915672451257705688e-02,1.055364310741424561e-01,-5.165714025497436523e-02,-1.488706097006797791e-02,9.423525631427764893e-02,5.008611083030700684e-02,-3.757208585739135742e-02,-3.710781782865524292e-02,2.277790755033493042e-02,5.013196170330047607e-02,-7.431990653276443481e-02,-3.712347149848937988e-02,8.518062531948089600e-02,-4.143983498215675354e-02,3.811008110642433167e-02,-8.319309353828430176e-02,-4.339991603046655655e-03
7.836413383483886719e-02,-3.276759292930364609e-03,2.539888769388198853e-02,-1.007609814405441284e-01,7.122172415256500244e-02,-7.499254494905471802e-02,-4.642946645617485046e-02,-2.713061682879924774e-02,2.312985435128211975e-02,7.943204790353775024e-02,-2.419998869299888611e-02,6.349327415227890015e-02,7.131470739841461182e-02,4.003094881772994995e-02,1.318186521530151367e-02,4.695141222327947617e-03,2.726691961288452148e-02,2.922465652227401733e-02,5.083999410271644592e-02,1.263815816491842270e-02,-7.097049802541732788e-02,-3.067394345998764038e-02,3.102321177721023560e-02,-8.916626125574111938e-02,-2.237663231790065765e-02,-4.963495582342147827e-02,-1.772286370396614075e-02,-8.147321641445159912e-02,2.730546705424785614e-02,-3.398717194795608521e-02,5.738789588212966919e-02,1.344488561153411865e-02,6.659413129091262817e-02,-8.376909792423248291e-02,-9.704884886741638184e-02,5.934916809201240540e-02,4.810462519526481628e-02,4.749477282166481018e-02,-4.512928426265716553e-02,6.520944833755493164e-02,6.466276198625564575e-02,2.361518330872058868e-02,-2.687528915703296661e-02,2.827983535826206207e-02,9.415693581104278564e-02,-4.347113147377967834e-02,-6.132165715098381042e-02,-9.254056960344314575e-03,3.859959915280342102e-02,1.016892269253730774e-01,6.301858276128768921e-02,4.196246340870857239e-02,-4.806002601981163025e-02,-9.231485426425933838e-02,-9.153516590595245361e-02,-3.075378388166427612e-02,7.065071165561676025e-02,-2.319100126624107361e-02,9.773071855306625366e-02,-7.235498726367950439e-02,-5.414358153939247131e-02,-6.978844106197357178e-02,3.668589517474174500e-02,5.862070247530937195e-03,4.006703197956085205e-02,-1.103482469916343689e-01,9.576439857482910156e-02,-4.347387235611677170e-03,7.794566452503204346e-03,-9.672871977090835571e-02
-3.250015899538993835e-02,4.741578921675682068e-02,1.553756278008222580e-02,4.949857294559478760e-02,1.527640689164400101e-02,8.999295532703399658e-03,-6.805825978517532349e-02,-4.762314632534980774e-02,-8.417072892189025879e-02,-2.256419695913791656e-02,1.157175898551940918e-01,-5.763303124695084989e-05,-7.348902523517608643e-02,-5.125418305397033691e-02,-6.286281347274780273e-02,5.417218431830406189e-02,3.297957777976989746e-02,-8.857551729306578636e-04,-2.775295451283454895e-02,3.059814125299453735e-02,2.631800621747970581e-02,6.657008081674575806e-03,3.335421532392501831e-02,-6.521400809288024902e-02,3.548895195126533508e-02,3.669854626059532166e-02,-6.551646441221237183e-02,-6.180753186345100403e-02,5.704791098833084106e-02,-7.963064312934875488e-02,-7.992429286241531372e-02,-1.033550798892974854e-01,-1.248510647565126419e-02,-3.127265721559524536e-02,-9.848581999540328979e-02,1.779967918992042542e-02,-7.358933985233306885e-02,3.084863908588886261e-02,6.286535412073135376e-02,-1.027687788009643555e-01,8.096226304769515991e-02,9.098308533430099487e-02,9.358986280858516693e-03,6.980056315660476685e-02,6.736784428358078003e-02,3.410829929634928703e-03,-6.487459689378738403e-02,-7.186760753393173218e-02,3.146906569600105286e-02,1.032008603215217590e-02,5.468260124325752258e-02,-1.155013144016265869e-01,5.056349188089370728e-02,3.265589475631713867e-04,8.936294913291931152e-02,5.243971478193998337e-03,-6.278090924024581909e-02,2.734035998582839966e-02,-4.001428559422492981e-02,-5.157813802361488342e-02,8.961179852485656738e-02,7.413735240697860718e-02,-6.496122479438781738e-02,-5.396955832839012146e-02,-6.811437010765075684e-02,2.869745343923568726e-02,-2.752364985644817352e-02,-1.135594621300697327e-01,-7.552782446146011353e-02,-8.004766702651977539e-02
5.916896462440490723e-02,-4.690241441130638123e-02,-4.993301630020141602e-02,-7.671752572059631348e-02,4.050055518746376038e-02,-8.065907657146453857e-02,-1.299491524696350098e-01,1.018282622098922729e-01,-7.306934148073196411e-02,6.402461230754852295e-02,9.607908129692077637e-02,-8.087135851383209229e-02,-4.573714733123779297e-02,-1.712670200504362583e-03,-4.951852932572364807e-02,1.689152233302593231e-02,5.108479410409927368e-02,2.297788485884666443e-02,2.180276438593864441e-02,5.796731263399124146e-02,1.054119318723678589e-02,-2.262771315872669220e-02,-5.522549524903297424e-02,-6.357796490192413330e-02,-6.081860512495040894e-02,-1.087777391076087952e-01,6.586612015962600708e-02,-7.281241565942764282e-02,-3.304662182927131653e-02,4.921856150031089783e-02,4.348833486437797546e-02,6.296802312135696411e-02,5.694954097270965576e-02,5.307742208242416382e-02,9.426178410649299622e-03,8.921199291944503784e-02,-7.653556764125823975e-02,1.007794141769409180e-01,-7.681667059659957886e-02,-9.860814362764358521e-02,-4.924024641513824463e-02,6.627944856882095337e-02,-4.315942153334617615e-02,2.687743108253926039e-04,6.250711530447006226e-02,-1.198877617716789246e-01,-5.486737191677093506e-02,-7.869309186935424805e-02,-3.839002922177314758e-03,2.624837867915630341e-02,-3.657095134258270264e-02,-6.394790112972259521e-02,7.358922809362411499e-02,9.733662754297256470e-02,4.229994118213653564e-02,6.570243835449218750e-02,3.693162649869918823e-02,-3.645858541131019592e-02,-2.311719581484794617e-02,3.454320505261421204e-02,5.774524435400962830e-02,2.192788571119308472e-02,8.869633823633193970e-02,1.791312731802463531e-02,-1.073097214102745056e-01,-2.754382975399494171e-02,-4.871048033237457275e-03,-1.592203415930271149e-02,-9.906288981437683105e-02,1.123164594173431396e-01
4.329938814043998718e-02,2.308255806565284729e-02,7.923310995101928711e-02,-8.339297026395797729e-02,-4.965106025338172913e-02,8.989159017801284790e-02,-4.095925018191337585e-02,9.655103087425231934e-02,1.143357995897531509e-02,-6.754563748836517334e-02,9.474516659975051880e-02,1.115379258990287781e-01,8.298649638891220093e-02,-8.344919979572296143e-02,4.073501378297805786e-02,7.099594920873641968e-02,7.605048269033432007e-02,-7.165342569351196289e-02,-3.032130748033523560e-02,1.864621229469776154e-02,9.862627834081649780e-02,4.246130958199501038e-02,9.280882030725479126e-02,-1.758207380771636963e-02,1.927912980318069458e-02,1.959328074008226395e-03,-3.892572969198226929e-02,-2.086919546127319336e-02,7.236163318157196045e-02,-1.282934844493865967e-02,8.672322146594524384e-03,-1.485831290483474731e-02,-9.031287580728530884e-02,-2.454530820250511169e-02,-2.122639119625091553e-02,5.886563658714294434e-02,-2.776491455733776093e-02,-9.418630972504615784e-03,2.860695123672485352e-03,8.300089091062545776e-02,3.973459452390670776e-02,-8.090198040008544922e-02,4.537460580468177795e-02,-9.682040661573410034e-03,7.138107717037200928e-02,-6.999738514423370361e-02,1.160306506790220737e-03,1.681526936590671539e-02,8.490044623613357544e-02,-6.480341404676437378e-02,7.152301818132400513e-02,-1.074052155017852783e-01,-3.396487981081008911e-02,-3.495305031538009644e-02,7.604715973138809204e-02,8.522269129753112793e-02,3.863469883799552917e-02,-4.427062347531318665e-02,-7.024142891168594360e-03,-5.105616524815559387e-02,6.763433665037155151e-02,-1.028969362378120422e-01,5.000691860914230347e-03,-6.812050193548202515e-02,6.999504566192626953e-02,5.338463559746742249e-02,-3.874902054667472839e-02,-3.460688516497612000e-02,-5.581736564636230469e-03,3.569725900888442993e-02
8.907128125429153442e-02,2.530146762728691101e-02,-4.893592745065689087e-02,-2.012924477458000183e-02,-3.942532464861869812e-02,-9.068700671195983887e-02,-8.167843520641326904e-02,-7.217948138713836670e-02,-7.658253610134124756e-02,4.138968884944915771e-02,-3.037312813103199005e-02,2.176917623728513718e-03,-4.051425680518150330e-02,7.164804637432098389e-02,8.839774876832962036e-02,1.240048408508300781e-01,-5.286992713809013367e-02,5.901113897562026978e-02,-4.063061252236366272e-02,5.066342651844024658e-02,-3.459598124027252197e-02,5.139056220650672913e-02,-2.600990235805511475e-03,-7.810169458389282227e-02,-6.557437032461166382e-02,2.521350234746932983e-02,1.932401582598686218e-02,2.241329103708267212e-02,-4.001395031809806824e-02,-1.805086503736674786e-03,8.550112694501876831e-02,-8.976824581623077393e-02,2.104650996625423431e-02,1.042109951376914978e-01,4.319855198264122009e-02,2.073369733989238739e-02,1.493366528302431107e-02,-1.900227740406990051e-02,-6.427772343158721924e-02,6.557242013514041901e-03,9.564346820116043091e-02,8.550262427888810635e-04,-2.687951736152172089e-02,-9.705682843923568726e-02,-5.637435708194971085e-03,2.062951587140560150e-02,-8.554042433388531208e-04,4.737832024693489075e-02,-1.044908240437507629e-01,5.469265952706336975e-02,-7.043755799531936646e-02,-4.796276241540908813e-02,-1.141912769526243210e-02,3.104374557733535767e-02,6.673610210418701172e-02,-3.862314671277999878e-02,5.504890158772468567e-02,9.059964795596897602e-04,1.515617221593856812e-02,1.105052232742309570e-01,-6.620907038450241089e-02,-5.768549442291259766e-02,2.662504278123378754e-02,1.011145040392875671e-01,6.375525146722793579e-02,-1.218628510832786560e-01,6.404548883438110352e-02,8.583527803421020508e-02,6.304090470075607300e-02,6.379623711109161377e-02
4.366798698902130127e-02,-9.215113520622253418e-02,-1.086272485554218292e-02,1.224603690207004547e-02,6.726199388504028320e-02,1.921609044075012207e-03,-2.117717452347278595e-02,1.029086709022521973e-01,1.005620509386062622e-01,-5.561439692974090576e-02,-3.890693560242652893e-02,-1.623128168284893036e-02,-7.489231973886489868e-02,5.495963990688323975e-02,-7.815048098564147949e-03,2.990725636482238770e-02,-6.879177689552307129e-02,2.492056973278522491e-02,4.127161204814910889e-02,4.861013218760490417e-02,8.670640736818313599e-02,7.545827329158782959e-02,-1.361897587776184082e-02,-6.850278377532958984e-02,-7.910600304603576660e-02,6.858643144369125366e-02,-1.015055030584335327e-01,-5.090500414371490479e-02,-4.581909254193305969e-02,-9.486198425292968750e-02,-4.097545053809881210e-03,-8.544996380805969238e-03,-3.611761331558227539e-02,9.856332093477249146e-02,1.125863054767251015e-03,3.026680089533329010e-02,-5.849830806255340576e-02,2.217538421973586082e-04,5.615370720624923706e-02,-4.424242768436670303e-03,7.431844621896743774e-02,6.499293446540832520e-02,-5.898945033550262451e-02,-1.077815443277359009e-01,-6.406929343938827515e-02,1.678702421486377716e-02,7.029216736555099487e-02,-9.760826081037521362e-02,1.382293645292520523e-02,-4.675894975662231445e-02,-8.314787596464157104e-02,-1.224413663148880005e-01,4.118726123124361038e-03,5.173120647668838501e-02,1.147642284631729126e-01,6.249543651938438416e-02,6.395217031240463257e-02,-4.345536604523658752e-02,1.443307101726531982e-02,-9.289460256695747375e-03,-1.615963317453861237e-02,4.672164469957351685e-02,-4.452275857329368591e-02,2.111501619219779968e-02,1.113863009959459305e-02,4.959266632795333862e-03,1.978363841772079468e-02,-6.820218265056610107e-02,-7.926683872938156128e-02,2.827219665050506592e-02
1.472903043031692505e-02,3.787807002663612366e-02,4.415588080883026123e-02,-1.152785345911979675e-01,-2.049971371889114380e-02,-9.347110241651535034e-02,1.841092295944690704e-02,-7.586141675710678101e-02,1.449109520763158798e-02,9.272363036870956421e-02,-9.328538551926612854e-03,-5.261433869600296021e-02,-8.034867048263549805e-02,5.269344151020050049e-02,-6.093412637710571289e-03,6.929342169314622879e-03,4.135094210505485535e-02,9.150533378124237061e-02,1.252392381429672241e-01,-6.970869004726409912e-02,8.344071358442306519e-02,8.495886623859405518e-02,-8.035840094089508057e-02,3.183634579181671143e-02,3.978947922587394714e-02,-6.590194255113601685e-02,3.275508433580398560e-02,-4.338552430272102356e-02,1.203993149101734161e-02,7.448832690715789795e-02,-9.615156799554824829e-02,-8.398275077342987061e-02,-3.104153834283351898e-02,1.688223564997315407e-04,-3.871052712202072144e-02,-2.326070703566074371e-02,-1.756886392831802368e-02,4.319477826356887817e-02,1.029445305466651917e-01,-3.171533718705177307e-02,-5.921037495136260986e-02,-1.380253303796052933e-02,8.997227996587753296e-02,5.085005611181259155e-02,7.741416990756988525e-02,-1.065572425723075867e-01,6.215583533048629761e-02,8.582941256463527679e-03,1.281873602420091629e-02,9.954927116632461548e-02,1.000805851072072983e-02,4.411710798740386963e-02,8.667912334203720093e-02,2.514014393091201782e-02,1.219673361629247665e-02,6.542664021253585815e-02,9.325745701789855957e-02,3.650033473968505859e-02,-4.117680713534355164e-02,-7.287886738777160645e-02,-6.403539329767227173e-02,-2.668017894029617310e-02,-1.068409234285354614e-01,1.176470890641212463e-02,-3.081231936812400818e-02,7.806281000375747681e-02,6.845128373242914677e-04,9.077880531549453735e-02,-9.953312575817108154e-03,-7.072504609823226929e-02
-2.418618678348138928e-04,-6.006539240479469299e-02,9.707520902156829834e-02,-9.385874122381210327e-02,7.332081347703933716e-02,1.395701617002487183e-02,-8.963536471128463745e-02,3.127492964267730713e-02,3.297499567270278931e-02,-7.862056046724319458e-02,1.173594444990158081e-01,9.756609052419662476e-02,2.977673895657062531e-02,2.994649298489093781e-02,-9.943360835313796997e-02,-6.268744915723800659e-02,-3.171647712588310242e-02,3.305153548717498779e-02,2.254320867359638214e-02,-9.900014847517013550e-03,-5.259342119097709656e-02,-8.051634579896926880e-02,-7.729195803403854370e-02,-8.254516124725341797e-02,-3.718442469835281372e-02,-7.945798337459564209e-02,6.324352324008941650e-02,-8.543211966753005981e-02,9.305385500192642212e-02,-1.605346053838729858e-02,2.434295229613780975e-02,-4.169853031635284424e-02,5.700384825468063354e-02,3.685437887907028198e-02,8.458483219146728516e-02,-2.336703985929489136e-02,-8.809642493724822998e-02,1.015866547822952271e-01,-8.281521499156951904e-02,1.035989597439765930e-01,-5.792618170380592346e-02,9.943109005689620972e-02,3.377517452463507652e-03,5.939984694123268127e-03,4.972643032670021057e-02,-1.104718968272209167e-01,1.026901528239250183e-01,-7.130245678126811981e-03,9.963868185877799988e-03,-1.951457187533378601e-02,-9.419037401676177979e-02,-7.951005548238754272e-02,-1.003233045339584351e-01,4.161135107278823853e-02,-9.222523868083953857e-02,2.740961499512195587e-02,-1.124332249164581299e-01,-9.489426016807556152e-02,7.356104254722595215e-02,3.835533931851387024e-02,-1.377466018311679363e-03,1.590093970298767090e-02,-2.530536800622940063e-02,-4.838529974222183228e-02,-5.722425878047943115e-02,5.893218517303466797e-02,1.023765727877616882e-01,-6.620834767818450928e-02,4.400429874658584595e-02,-5.519893020391464233e-03
-6.783738732337951660e-02,2.138180658221244812e-02,3.988992422819137573e-02,-2.522621490061283112e-02,8.113449811935424805e-02,-9.477572888135910034e-02,-4.944794625043869019e-02,5.535912886261940002e-02,-2.015136554837226868e-02,1.007432118058204651e-01,-3.499057143926620483e-02,-1.339602284133434296e-03,-6.154133006930351257e-02,-8.584112673997879028e-02,2.710487693548202515e-02,3.014244139194488525e-03,2.924321219325065613e-02,8.152292668819427490e-02,5.361241847276687622e-02,1.794312265701591969e-03,-3.897831588983535767e-02,8.601635694503784180e-02,7.453141361474990845e-02,-8.342313021421432495e-02,-6.117705628275871277e-02,7.441229373216629028e-02,8.368517272174358368e-03,2.689848281443119049e-02,-5.939226597547531128e-02,-5.913492292165756226e-02,-7.953296601772308350e-02,7.400298863649368286e-02,9.706363826990127563e-02,-2.684124000370502472e-02,9.911889210343360901e-03,7.266025990247726440e-02,4.387637972831726074e-02,1.339652854949235916e-02,5.258572846651077271e-02,6.671338528394699097e-02,5.113212019205093384e-02,-3.783168271183967590e-02,4.568051081150770187e-03,-4.119537398219108582e-02,4.948609508574008942e-03,-1.171006783843040466e-01,3.497416526079177856e-02,-1.021512746810913086e-01,3.119178488850593567e-02,5.713979899883270264e-02,-6.373044103384017944e-02,7.323381304740905762e-02,-4.122287407517433167e-02,2.293684333562850952e-02,-4.770552273839712143e-03,-6.102372705936431885e-02,7.015839219093322754e-02,-7.507909089326858521e-02,-1.827528327703475952e-02,4.614725708961486816e-02,-5.040360614657402039e-02,1.007288172841072083e-01,8.483768254518508911e-02,1.281150709837675095e-02,-9.716576337814331055e-02,7.151499390602111816e-02,-1.013737320899963379e-01,6.510490924119949341e-02,9.499525278806686401e-02,-1.289671193808317184e-02
2.426874637603759766e-02,7.213591784238815308e-02,4.134493321180343628e-02,-7.869899272918701172e-02,-2.184779755771160126e-02,-3.858282417058944702e-02,2.161982096731662750e-02,1.070577576756477356e-01,-1.272989250719547272e-02,-2.215115353465080261e-02,1.649873703718185425e-02,4.227623343467712402e-02,3.877861797809600830e-02,-8.855687826871871948e-02,7.957103103399276733e-02,2.446281537413597107e-02,-7.153806835412979126e-02,-4.733176156878471375e-02,4.454002156853675842e-02,-2.383196912705898285e-02,3.204777091741561890e-02,1.582089997828006744e-02,7.041250914335250854e-02,-1.000717803835868835e-01,-3.147517889738082886e-02,-3.449509292840957642e-02,-6.154359504580497742e-02,-4.541634768247604370e-02,-7.068109698593616486e-03,2.231727726757526398e-02,5.523211136460304260e-02,4.662353545427322388e-02,2.845260873436927795e-02,-6.245762854814529419e-02,4.132103919982910156e-02,-5.371414124965667725e-02,-8.868706971406936646e-02,-1.062327101826667786e-01,-3.658232837915420532e-02,-8.902437239885330200e-02,2.815590053796768188e-02,4.516804218292236328e-02,1.027987226843833923e-01,-6.451726704835891724e-02,2.734357118606567383e-02,5.913333222270011902e-02,9.078559279441833496e-02,-4.302413389086723328e-02,1.153665222227573395e-02,-4.696461185812950134e-02,1.993539184331893921e-02,-2.488876879215240479e-02,8.533047884702682495e-02,-7.961488515138626099e-02,-3.356174379587173462e-02,9.946092963218688965e-02,-2.402427233755588531e-02,-3.289127722382545471e-02,1.060260236263275146e-01,5.563661083579063416e-02,-3.893652558326721191e-02,2.080782502889633179e-02,-2.218421362340450287e-02,-5.489896866492927074e-04,3.738879039883613586e-02,-1.037471517920494080e-01,-5.139298737049102783e-02,7.220114022493362427e-02,-6.703361868858337402e-04,-8.904640376567840576e-02
-2.056294307112693787e-02,1.085852924734354019e-02,9.644570946693420410e-02,1.698637753725051880e-02,7.620450109243392944e-02,-9.828992187976837158e-02,4.275173321366310120e-02,-9.103778004646301270e-02,1.872656121850013733e-02,-7.996708154678344727e-02,9.833995252847671509e-02,-6.686998903751373291e-02,8.447363227605819702e-02,-3.552870079874992371e-02,-1.937115192413330078e-02,6.006379425525665283e-02,-5.725925415754318237e-02,4.150193929672241211e-02,-2.415085583925247192e-02,-1.181553862988948822e-02,1.030074879527091980e-01,-6.115771085023880005e-02,-6.447389721870422363e-03,3.178157284855842590e-02,7.594915479421615601e-02,-3.765855729579925537e-02,4.428813606500625610e-02,-6.626620888710021973e-02,-3.057707846164703369e-02,8.116734027862548828e-02,-4.903821274638175964e-02,-5.429083108901977539e-02,7.203305512666702271e-02,-1.030798554420471191e-01,-5.585806816816329956e-02,8.230710029602050781e-02,6.875872611999511719e-02,-9.476241655647754669e-03,9.261126071214675903e-02,9.891367703676223755e-02,-6.775416433811187744e-02,9.503141045570373535e-02,6.440789997577667236e-02,-7.269335538148880005e-02,-7.029065489768981934e-02,4.331733658909797668e-02,-9.100911021232604980e-02,-9.434406459331512451e-02,2.886073477566242218e-02,5.260179936885833740e-02,6.849338766187429428e-03,8.124534040689468384e-02,-7.634673267602920532e-02,-1.920224726200103760e-02,2.767087705433368683e-02,-2.562673762440681458e-02,-7.596215605735778809e-02,2.136483602225780487e-02,-2.025202289223670959e-02,5.869879201054573059e-02,-1.404633279889822006e-02,-2.767430990934371948e-02,-2.169746160507202148e-02,-7.207802683115005493e-02,8.911363780498504639e-03,-2.145792543888092041e-02,-2.379001863300800323e-02,-3.317464888095855713e-02,4.361277073621749878e-02,-9.596392512321472168e-02
-2.243846282362937927e-02,6.580317020416259766e-02,9.308496117591857910e-02,-2.495823241770267487e-02,-1.200180780142545700e-02,3.128007799386978149e-02,-2.186396345496177673e-02,-1.095874458551406860e-01,9.119231998920440674e-02,-2.589719183743000031e-02,-2.462423592805862427e-02,2.788267284631729126e-02,9.584261476993560791e-02,-7.081213593482971191e-02,-1.519577950239181519e-02,-3.361173346638679504e-02,2.712797932326793671e-02,-2.042179554700851440e-02,7.531660795211791992e-02,-6.802685558795928955e-02,-2.951303124427795410e-02,5.856861919164657593e-02,-5.454128980636596680e-02,5.941166728734970093e-02,-9.418120235204696655e-02,-9.735719114542007446e-02,-4.414186254143714905e-02,5.044245719909667969e-02,-6.940136849880218506e-02,5.035850405693054199e-02,2.202140167355537415e-02,8.615861088037490845e-02,-1.076715961098670959e-01,-7.031103223562240601e-02,-5.141813308000564575e-03,1.848477497696876526e-02,7.817867211997509003e-03,-4.585995897650718689e-02,1.774373650550842285e-02,-7.645013974979519844e-04,-8.845173567533493042e-02,6.612555682659149170e-02,3.127653151750564575e-02,-1.354293338954448700e-02,3.714103251695632935e-02,-8.688502758741378784e-02,-6.156779825687408447e-02,2.390953712165355682e-02,-1.802615821361541748e-02,-5.159923061728477478e-02,-1.016573607921600342e-02,1.045477241277694702e-01,-1.007477417588233948e-01,-7.214059680700302124e-02,-1.695844926871359348e-03,-2.251251228153705597e-02,9.180998057126998901e-02,-3.447766881436109543e-03,-5.321574211120605469e-02,1.006252989172935486e-01,-2.593232505023479462e-02,1.038160398602485657e-01,9.652704745531082153e-02,1.080245748162269592e-01,-1.055638492107391357e-01,-4.133814573287963867e-02,5.725580081343650818e-02,2.414819039404392242e-02,1.563944667577743530e-02,-4.274306818842887878e-02
-1.009916514158248901e-01,-1.439881045371294022e-02,-6.385325640439987183e-02,-8.695874363183975220e-02,1.017469987273216248e-01,-7.341738045215606689e-02,-3.805070742964744568e-02,7.182500790804624557e-03,-8.663356304168701172e-02,-8.919957093894481659e-03,4.756758734583854675e-02,7.101924717426300049e-02,7.901167869567871094e-02,1.050774008035659790e-02,-3.859920799732208252e-02,-7.598432898521423340e-02,3.477944806218147278e-02,-1.004794239997863770e-02,-3.805965930223464966e-02,9.714368730783462524e-02,2.923075109720230103e-02,-6.005563959479331970e-02,-5.806737020611763000e-02,1.559067610651254654e-02,-9.733895212411880493e-02,6.575766950845718384e-02,4.038123041391372681e-02,2.739578671753406525e-02,-3.985445201396942139e-02,7.816713303327560425e-02,5.761951953172683716e-02,2.196273952722549438e-02,5.674445256590843201e-02,-2.972543612122535706e-02,2.915204502642154694e-02,9.856587648391723633e-02,3.826723247766494751e-02,-2.350694872438907623e-02,5.995234102010726929e-02,5.012891069054603577e-02,-1.703612506389617920e-03,-3.325600549578666687e-02,9.376480430364608765e-02,-4.116497561335563660e-02,1.083446200937032700e-02,5.528955161571502686e-02,-5.064992234110832214e-02,-7.555010914802551270e-02,-4.684472456574440002e-03,-6.493439525365829468e-02,2.443039976060390472e-02,-8.493448048830032349e-02,9.210412204265594482e-02,-5.971496552228927612e-02,6.904521957039833069e-03,-8.201268315315246582e-02,2.831168286502361298e-02,3.761118650436401367e-02,-6.423627026379108429e-03,1.452599931508302689e-02,-6.669875234365463257e-02,5.327010899782180786e-02,1.008683219552040100e-01,-9.507264941930770874e-02,-8.306182175874710083e-02,8.627581596374511719e-02,4.550763114821165800e-04,1.660217344760894775e-02,2.036497741937637329e-02,-5.105886980891227722e-02
-8.967187255620956421e-02,-1.456209551542997360e-02,8.477278053760528564e-02,1.365206390619277954e-02,-2.209231629967689514e-02,4.258840531110763550e-02,9.171989746391773224e-03,3.015543334186077118e-02,-2.496781526133418083e-03,-3.397824987769126892e-02,-1.195769757032394409e-01,-8.002632856369018555e-02,8.004570007324218750e-02,9.188932180404663086e-02,-8.707739412784576416e-02,-3.215780481696128845e-02,7.043191790580749512e-02,-2.556486986577510834e-02,7.542049139738082886e-02,1.730279438197612762e-02,4.220671206712722778e-02,-3.505002008751034737e-03,5.027162283658981323e-02,-3.458424657583236694e-02,-5.968302860856056213e-02,4.772802069783210754e-02,-8.294561505317687988e-02,8.075883984565734863e-02,-6.561280041933059692e-02,7.697206735610961914e-02,-9.098297357559204102e-02,4.917972534894943237e-02,-7.644440233707427979e-02,8.198943734169006348e-02,-8.184353820979595184e-03,-5.483074113726615906e-03,1.000075936317443848e-01,4.271483793854713440e-02,-1.840889453887939453e-02,7.083851844072341919e-02,7.658111304044723511e-02,-9.038455784320831299e-02,4.629557952284812927e-02,-7.388646900653839111e-02,8.883862942457199097e-02,1.172531116753816605e-02,3.789584711194038391e-02,9.791566431522369385e-02,9.521014988422393799e-02,-6.293108314275741577e-02,-2.506967168301343918e-03,-5.383357778191566467e-02,9.596991539001464844e-02,-2.052298188209533691e-02,-8.314923197031021118e-02,-2.163774333894252777e-02,-2.926788758486509323e-03,5.173117294907569885e-02,-1.995809376239776611e-02,-5.719177052378654480e-02,-5.576512590050697327e-02,2.711088210344314575e-02,2.360150031745433807e-02,-2.987235039472579956e-02,9.711509943008422852e-02,4.953163489699363708e-02,2.803377062082290649e-02,-8.613707870244979858e-02,9.859137982130050659e-02,1.106147933751344681e-02
-2.478099241852760315e-02,-1.886766403913497925e-02,-3.377301618456840515e-02,-8.157239295542240143e-03,9.168644249439239502e-02,-1.451885700225830078e-02,-5.322857946157455444e-02,-9.742274880409240723e-02,2.868228219449520111e-02,-8.995553851127624512e-02,-6.228152289986610413e-02,-4.510364681482315063e-02,2.950354292988777161e-02,4.798443522304296494e-03,7.123468071222305298e-02,5.330464243888854980e-02,8.117997646331787109e-02,8.570126444101333618e-02,6.749305129051208496e-02,-7.391899079084396362e-02,1.031935960054397583e-02,-5.257327854633331299e-02,8.930132538080215454e-02,7.139189541339874268e-02,2.856917865574359894e-02,7.506826519966125488e-02,1.090133711695671082e-01,8.728333562612533569e-02,-1.028753146529197693e-01,-6.426206976175308228e-02,-1.657444238662719727e-02,9.298237413167953491e-02,-7.020806521177291870e-02,5.670048296451568604e-02,6.204903125762939453e-02,-1.532442518509924412e-03,1.621016487479209900e-02,-1.063864678144454956e-02,6.828911602497100830e-03,-3.138019889593124390e-02,-2.991983294486999512e-02,3.483258560299873352e-02,-6.601769477128982544e-02,-5.043419077992439270e-02,-1.036114469170570374e-01,1.496530976146459579e-02,3.068277426064014435e-02,1.025669500231742859e-01,7.109533995389938354e-02,7.697283476591110229e-02,-2.527567557990550995e-02,1.042886823415756226e-01,1.005659401416778564e-01,-4.814192652702331543e-02,2.676775120198726654e-02,-7.389577478170394897e-02,-1.823553629219532013e-02,4.271213710308074951e-02,-5.478641390800476074e-02,-6.474292278289794922e-02,1.010163426399230957e-01,-5.762960389256477356e-02,4.897876828908920288e-02,8.154793083667755127e-02,-6.065721809864044189e-02,1.049194931983947754e-01,3.564591985195875168e-03,-6.376269459724426270e-02,4.815720766782760620e-02,7.825123518705368042e-02
1.271700300276279449e-02,4.824112728238105774e-02,6.665232777595520020e-02,6.059160456061363220e-02,-5.392652377486228943e-02,9.590273350477218628e-02,6.143628433346748352e-02,-1.090847775340080261e-01,-1.202206965535879135e-02,6.205075979232788086e-02,2.538865990936756134e-02,4.514599591493606567e-02,-3.304823115468025208e-02,2.845239639282226562e-02,3.327716141939163208e-02,-2.138165012001991272e-02,-5.526477843523025513e-02,-4.240652546286582947e-02,-8.022046089172363281e-02,1.246885880827903748e-01,-1.374415308237075806e-02,9.243326634168624878e-02,1.191191375255584717e-02,3.423728048801422119e-02,7.475556433200836182e-02,-7.011584937572479248e-02,1.145359948277473450e-01,3.920793905854225159e-02,9.688483923673629761e-02,4.273059219121932983e-02,-8.441418409347534180e-03,-6.325379014015197754e-03,1.815221831202507019e-02,-1.188803240656852722e-01,-5.624517798423767090e-02,-3.698195517063140869e-02,4.115564748644828796e-02,7.313548028469085693e-02,4.874729365110397339e-02,6.406750530004501343e-02,4.374571889638900757e-02,4.526925832033157349e-02,-6.124410778284072876e-02,-1.042689755558967590e-01,-6.357815861701965332e-02,4.413966089487075806e-02,-1.283442378044128418e-01,-3.994759172201156616e-02,6.492722779512405396e-03,-2.668858505785465240e-02,1.238146573305130005e-01,-5.751967430114746094e-03,-4.482060298323631287e-02,6.860940903425216675e-02,-1.081378683447837830e-01,8.962377160787582397e-02,7.294654101133346558e-02,-8.931726217269897461e-02,7.299601286649703979e-02,-7.007528096437454224e-02,3.751846030354499817e-02,6.509896367788314819e-02,-9.161993861198425293e-02,6.254512071609497070e-02,1.607882045209407806e-02,-4.426039755344390869e-02,6.482956558465957642e-02,-8.350218832492828369e-02,-2.561422437429428101e-02,-5.012632161378860474e-02
3.515262529253959656e-02,-5.610441789031028748e-02,-2.575379982590675354e-02,7.172551751136779785e-02,6.720983982086181641e-02,-9.386092424392700195e-04,1.250089854001998901e-01,-9.083344787359237671e-02,-1.001208648085594177e-01,-1.892244443297386169e-02,-9.729106724262237549e-02,-5.727130919694900513e-02,9.086778759956359863e-02,-8.214057981967926025e-02,7.868275046348571777e-03,3.446086868643760681e-02,4.737419541925191879e-03,-1.660740375518798828e-02,-1.127370968461036682e-01,1.873385719954967499e-02,7.308303564786911011e-02,4.990179091691970825e-02,6.095819920301437378e-02,-4.646809026598930359e-02,-7.347443699836730957e-02,-1.059334054589271545e-01,1.526018138974905014e-02,1.858200691640377045e-02,8.278918266296386719e-02,3.361998125910758972e-02,5.758745130151510239e-03,-1.029047966003417969e-01,6.613575667142868042e-02,3.438384458422660828e-02,-9.476633369922637939e-02,4.976769536733627319e-02,8.223208039999008179e-02,1.496216841042041779e-02,-4.483403638005256653e-02,-3.996935114264488220e-02,-5.693084746599197388e-02,-8.058371394872665405e-02,7.777363806962966919e-02,-9.813158959150314331e-02,5.538447946310043335e-02,1.048946976661682129e-01,-9.281598776578903198e-02,-4.993474856019020081e-02,-1.019789502024650574e-01,-3.116575442254543304e-02,5.021057650446891785e-02,2.353683672845363617e-02,1.026466041803359985e-01,6.480047851800918579e-02,3.996917977929115295e-02,4.328636452555656433e-02,3.635650873184204102e-02,4.706643894314765930e-02,-9.454053640365600586e-02,-2.319491840898990631e-02,4.535330086946487427e-02,2.812177687883377075e-02,-6.275637447834014893e-02,-7.644110918045043945e-02,-2.478003989381249994e-05,8.895900100469589233e-02,6.698077172040939331e-02,5.577871948480606079e-02,6.393789499998092651e-02,-2.265918441116809845e-02
2.875799871981143951e-02,1.092464197427034378e-02,3.194855898618698120e-02,-9.577867388725280762e-02,-7.691347599029541016e-02,8.952236920595169067e-02,-8.363095670938491821e-02,4.639090970158576965e-02,-1.966894045472145081e-02,-6.055273860692977905e-02,7.220137119293212891e-02,2.782086469233036041e-02,-7.898179441690444946e-02,8.736344426870346069e-02,-9.803061932325363159e-02,9.314233902841806412e-04,9.120288491249084473e-02,1.088562458753585815e-01,2.208980917930603027e-02,-2.178752236068248749e-02,-9.455063194036483765e-02,-4.839594662189483643e-02,7.136709243059158325e-02,-1.619053632020950317e-02,5.001896247267723083e-02,8.074858039617538452e-02,4.939687624573707581e-02,-6.248567253351211548e-02,8.247610926628112793e-02,-6.819057464599609375e-02,-3.061285708099603653e-03,6.276487559080123901e-02,7.870131731033325195e-02,-6.157124415040016174e-02,6.441515684127807617e-02,-8.780948072671890259e-02,1.049997285008430481e-03,-4.845881462097167969e-02,-3.199338912963867188e-02,7.555427402257919312e-02,-4.378635436296463013e-02,-7.465367764234542847e-02,-9.950906783342361450e-02,-5.348866106942296028e-04,3.928124159574508667e-02,-5.394343659281730652e-02,1.311070099472999573e-02,-9.528531879186630249e-02,5.269093438982963562e-02,-6.430064141750335693e-02,-7.330409437417984009e-02,-5.671769380569458008e-02,-9.020731598138809204e-02,-1.013332009315490723e-01,8.270657062530517578e-02,-6.127377972006797791e-02,-5.741439387202262878e-02,2.677431702613830566e-02,-4.184535145759582520e-02,7.610714435577392578e-02,5.985393375158309937e-02,-3.561405837535858154e-02,-4.229845851659774780e-02,4.356050863862037659e-02,5.382368341088294983e-02,-8.163791894912719727e-02,-4.015202820301055908e-02,4.228548705577850342e-02,2.102830260992050171e-02,8.156914263963699341e-02
-7.918605208396911621e-02,-6.332014501094818115e-02,7.967522740364074707e-02,3.909469395875930786e-02,-8.274541050195693970e-02,4.824093729257583618e-02,2.242974564433097839e-02,9.114865958690643311e-02,-6.357726454734802246e-02,-2.551566250622272491e-02,7.884477823972702026e-02,-8.575446158647537231e-02,9.845624864101409912e-02,-2.246642671525478363e-02,-3.807920962572097778e-02,2.264873310923576355e-02,6.479471176862716675e-02,-3.527085483074188232e-02,9.593237936496734619e-02,1.310819643549621105e-03,-1.777406781911849976e-02,-7.733666896820068359e-02,2.578834444284439087e-02,-4.039007425308227539e-02,6.906393170356750488e-02,-9.179557859897613525e-02,-3.626791387796401978e-02,7.405206561088562012e-02,1.011662185192108154e-01,4.293651878833770752e-02,8.954144269227981567e-02,4.654992371797561646e-02,-4.890618473291397095e-02,8.305596560239791870e-02,3.028610954061150551e-03,9.684001654386520386e-02,5.201562121510505676e-02,-5.088250036351382732e-04,6.165755540132522583e-02,8.902024477720260620e-02,-8.667702227830886841e-02,-9.886178374290466309e-02,-2.493567764759063721e-02,-4.860063642263412476e-02,8.430323749780654907e-02,-1.237736642360687256e-02,-9.479942172765731812e-02,9.240227937698364258e-02,5.700572580099105835e-02,9.074945747852325439e-02,-1.634801179170608521e-02,8.603122085332870483e-03,-1.186234876513481140e-02,-4.138868302106857300e-02,3.138493746519088745e-02,-8.656182140111923218e-02,2.884251251816749573e-02,-4.289240390062332153e-02,7.346482574939727783e-02,-6.037444248795509338e-02,-8.346575312316417694e-03,3.543104976415634155e-02,7.336302101612091064e-02,-9.906883537769317627e-02,-3.365127369761466980e-02,9.273082762956619263e-02,2.614739164710044861e-02,-1.930399797856807709e-02,-1.017641797661781311e-01,1.623206585645675659e-02
-6.804904341697692871e-02,-7.239075750112533569e-02,7.313501555472612381e-03,-7.528099417686462402e-02,6.546258926391601562e-02,1.301310956478118896e-03,-3.459516540169715881e-02,9.245554357767105103e-02,-9.008582681417465210e-02,-1.508954912424087524e-02,3.966917097568511963e-02,1.200219169259071350e-01,7.485501468181610107e-02,1.038520690053701401e-02,4.637844860553741455e-03,-6.256572157144546509e-02,1.016388237476348877e-01,9.173315018415451050e-02,-4.742138832807540894e-02,-1.879182830452919006e-02,4.514635354280471802e-02,-3.645746037364006042e-02,5.625357478857040405e-02,-8.559985458850860596e-02,-2.950751688331365585e-03,-5.229359865188598633e-02,-1.232805848121643066e-01,-7.065716385841369629e-02,2.058004960417747498e-02,4.902118444442749023e-02,-8.034371584653854370e-02,-8.362142741680145264e-02,4.834781959652900696e-02,-8.394094556570053101e-02,-2.066459506750106812e-02,1.854457892477512360e-02,5.448624491691589355e-02,-1.020061038434505463e-02,7.871405035257339478e-02,5.908307433128356934e-02,-2.510763704776763916e-03,3.267395123839378357e-02,2.914635837078094482e-02,-1.145454272627830505e-01,7.857670076191425323e-03,2.579889819025993347e-02,-3.363431990146636963e-02,6.737279891967773438e-02,4.309035465121269226e-02,5.475445091724395752e-02,6.152889225631952286e-03,-3.803632408380508423e-02,-3.663404658436775208e-02,-6.056323647499084473e-03,-6.628764420747756958e-02,2.179137431085109711e-02,3.298826515674591064e-02,-8.089135587215423584e-02,5.824283696711063385e-03,1.093117594718933105e-01,7.095421105623245239e-02,-1.424331963062286377e-02,3.425887227058410645e-02,9.294708818197250366e-02,-3.180766105651855469e-02,-5.271640419960021973e-02,-2.631414914503693581e-03,-4.843321163207292557e-03,-8.291538804769515991e-02,-3.481302037835121155e-02
-3.295459598302841187e-02,-4.928030073642730713e-02,-9.758529812097549438e-02,1.012264005839824677e-02,-1.363046001642942429e-02,3.543408960103988647e-02,2.373567223548889160e-02,1.128840446472167969e-01,1.275527756661176682e-02,7.362139970064163208e-02,-5.657570902258157730e-03,2.594784274697303772e-02,2.468591183423995972e-02,1.139111816883087158e-01,3.083033114671707153e-02,6.080841645598411560e-02,8.417398482561111450e-02,5.322547629475593567e-02,-1.160314492881298065e-02,-6.995147466659545898e-02,-5.117731168866157532e-02,-1.127213463187217712e-01,4.640126973390579224e-02,-6.147796660661697388e-02,-2.484202012419700623e-02,7.446988672018051147e-02,8.506525307893753052e-03,1.246057357639074326e-02,1.008669957518577576e-01,-3.225648775696754456e-02,-7.860140502452850342e-02,-9.094388037919998169e-02,3.501839190721511841e-02,2.922946959733963013e-02,-9.154456108808517456e-02,-1.137558370828628540e-02,-5.361854285001754761e-02,1.059976685792207718e-02,6.704395264387130737e-02,-1.093476042151451111e-01,1.002624630928039551e-02,4.477695748209953308e-02,-3.659506142139434814e-02,3.486034646630287170e-02,9.783709049224853516e-02,-6.958002597093582153e-02,5.112451314926147461e-02,-8.062258362770080566e-02,8.328280597925186157e-02,5.362300947308540344e-02,-6.922227144241333008e-02,-9.409903734922409058e-02,-6.263966858386993408e-02,-8.617836236953735352e-02,-6.774196773767471313e-02,-1.019140854477882385e-01,3.476144373416900635e-02,1.007608398795127869e-01,6.086669396609067917e-03,-2.062023989856243134e-02,2.535986155271530151e-02,8.305270224809646606e-02,5.633097514510154724e-02,6.670235842466354370e-02,-7.644495461136102676e-03,-4.789111763238906860e-02,3.346045687794685364e-02,-1.064741984009742737e-01,-3.553800284862518311e-03,-6.236158683896064758e-02
-8.758966624736785889e-02,-7.035870850086212158e-02,-2.988248318433761597e-02,-7.247822731733322144e-02,4.466063529253005981e-02,1.943308115005493164e-02,-1.388971060514450073e-01,4.365946631878614426e-03,7.350593805313110352e-02,-6.941825896501541138e-02,1.135482341051101685e-01,1.442479491233825684e-01,-9.117086231708526611e-02,1.263676118105649948e-02,-2.020830661058425903e-02,4.573159292340278625e-02,-1.126468554139137268e-01,-1.519699767231941223e-02,2.452707663178443909e-02,7.303345203399658203e-02,1.012305095791816711e-01,9.012722969055175781e-02,6.262166053056716919e-02,-8.103259652853012085e-02,6.074044853448867798e-03,8.833862096071243286e-02,3.468081727623939514e-02,-2.923186309635639191e-02,-5.138479545712471008e-02,6.835694611072540283e-02,-8.873695135116577148e-02,-1.978114992380142212e-02,4.625419899821281433e-02,-3.087233938276767731e-02,-6.740368902683258057e-02,1.093359105288982391e-02,-6.765963137149810791e-02,4.887147992849349976e-02,3.138466924428939819e-02,2.939484082162380219e-02,8.284715563058853149e-02,4.834864661097526550e-02,-1.795407570898532867e-02,9.169591590762138367e-03,5.753819271922111511e-02,-1.062199920415878296e-01,3.994518145918846130e-02,-4.575423151254653931e-02,-2.206304296851158142e-02,-3.518112376332283020e-02,-1.255173701792955399e-02,-7.371289283037185669e-02,-7.264523208141326904e-02,-5.583712086081504822e-02,9.284715354442596436e-02,-8.275643736124038696e-02,7.273234426975250244e-02,-2.085932763293385506e-03,7.499318569898605347e-03,-3.441161662340164185e-02,8.401827514171600342e-02,-5.603561177849769592e-02,-1.132536400109529495e-02,-9.566298127174377441e-02,4.539247229695320129e-02,2.058324776589870453e-02,4.368231073021888733e-02,-5.660446733236312866e-02,5.993870645761489868e-02,-8.214893192052841187e-02
-7.498654723167419434e-02,5.491841211915016174e-02,-3.064941801130771637e-02,-6.309518963098526001e-02,-7.800597697496414185e-02,9.299241006374359131e-03,-1.550911366939544678e-01,3.359847515821456909e-02,1.893377676606178284e-02,-8.094623684883117676e-02,6.672004610300064087e-02,-2.835697494447231293e-02,6.088909879326820374e-02,-1.525057479739189148e-03,4.023250192403793335e-02,-4.619349911808967590e-02,-3.369523584842681885e-02,-1.306408941745758057e-01,1.198714077472686768e-01,4.412669315934181213e-02,-7.525052130222320557e-02,-1.071038246154785156e-01,-1.575671136379241943e-02,-1.486321985721588135e-01,8.737422525882720947e-02,6.574279814958572388e-02,-1.330263465642929077e-01,8.419778943061828613e-02,-1.985790021717548370e-02,5.275824293494224548e-02,8.643975108861923218e-02,5.503486841917037964e-02,2.005105279386043549e-02,-5.215426906943321228e-02,-9.754768013954162598e-02,3.612234070897102356e-02,-5.827362649142742157e-03,7.424126565456390381e-02,-3.668177127838134766e-02,7.051824592053890228e-03,3.493093699216842651e-02,5.136404652148485184e-03,1.024074777960777283e-01,-2.059144899249076843e-02,8.713192492723464966e-02,-4.594803974032402039e-02,1.440584659576416016e-01,1.453555934131145477e-02,3.727261209860444069e-03,-1.002290546894073486e-01,-2.160806581377983093e-02,-6.974707543849945068e-02,-7.410976290702819824e-02,5.448497086763381958e-02,-3.824348747730255127e-02,7.313763350248336792e-02,-1.193778961896896362e-01,3.802207857370376587e-02,7.851336896419525146e-02,3.126484900712966919e-02,-2.829115279018878937e-02,-5.045616254210472107e-02,-4.044393450021743774e-02,-7.445674389600753784e-02,1.058122888207435608e-01,-7.278047502040863037e-02,-7.906775176525115967e-02,-1.030335947871208191e-01,-6.113954633474349976e-02,-7.685022056102752686e-02
-5.029650777578353882e-02,-5.827047303318977356e-02,4.648971185088157654e-02,-5.695842951536178589e-02,-8.206162601709365845e-02,-5.374967306852340698e-02,-2.194963842630386353e-01,9.941444545984268188e-02,3.652822226285934448e-02,-1.050485596060752869e-01,2.024873644113540649e-01,-2.899006195366382599e-02,-7.802671194076538086e-02,8.863473683595657349e-02,-8.934571593999862671e-02,6.015110388398170471e-02,-1.256503909826278687e-01,3.383938455954194069e-04,1.285363286733627319e-01,3.508114442229270935e-02,4.890710860490798950e-02,-1.073163673281669617e-01,2.807409316301345825e-02,-8.053874969482421875e-02,7.503745704889297485e-02,2.799802832305431366e-02,-1.366614848375320435e-01,-9.890940785408020020e-02,3.909447789192199707e-02,-2.431713277474045753e-03,-2.919908612966537476e-02,-1.794167608022689819e-02,1.132139712572097778e-01,6.802310794591903687e-02,1.752890273928642273e-02,-1.463443040847778320e-02,-6.456231325864791870e-02,1.082431003451347351e-01,1.267422735691070557e-02,-4.139278084039688110e-02,9.542181342840194702e-02,-1.934370212256908417e-02,-2.709289081394672394e-03,7.681360840797424316e-02,-1.310345530509948730e-02,-3.216600790619850159e-02,1.092673316597938538e-01,-1.249910704791545868e-02,9.884040057659149170e-02,5.985167622566223145e-02,-1.156774237751960754e-01,-1.433838754892349243e-01,-1.274900734424591064e-01,-9.477201104164123535e-02,1.287388652563095093e-01,8.823633939027786255e-02,1.561696641147136688e-02,-1.032443866133689880e-01,-4.304229095578193665e-02,4.298987984657287598e-02,-9.678389877080917358e-03,1.168704032897949219e-02,7.734783738851547241e-02,2.130166068673133850e-02,-9.395499527454376221e-02,-2.902762219309806824e-02,3.992658481001853943e-02,-3.380649536848068237e-02,9.822830557823181152e-03,7.966094464063644409e-02
7.360928505659103394e-02,6.053319573402404785e-02,9.269117563962936401e-02,-1.082892715930938721e-01,-5.624211207032203674e-02,1.609671860933303833e-02,-2.180717885494232178e-01,1.009127944707870483e-01,3.259807452559471130e-02,-1.046179980039596558e-01,1.965234875679016113e-01,8.759094029664993286e-02,-7.183970510959625244e-02,6.059178337454795837e-02,-7.131195813417434692e-02,1.341081261634826660e-01,1.850042492151260376e-02,6.196352478582412004e-05,-1.325743086636066437e-02,-1.347570866346359253e-01,6.200731545686721802e-02,4.441277682781219482e-02,2.315234392881393433e-02,-3.764876723289489746e-02,-4.964627698063850403e-02,-7.074598688632249832e-04,-1.749801188707351685e-01,-7.988919317722320557e-02,7.206105440855026245e-02,-2.321863360702991486e-02,1.185539271682500839e-02,1.009028181433677673e-01,2.798733999952673912e-03,5.436351150274276733e-02,-4.027469828724861145e-02,1.501706149429082870e-02,-6.286364793777465820e-02,7.309968769550323486e-02,5.368590354919433594e-04,-1.684372499585151672e-02,7.516703754663467407e-02,4.548241943120956421e-02,-5.794878117740154266e-03,-1.532879937440156937e-02,8.664318919181823730e-02,-4.997862875461578369e-02,1.750796735286712646e-01,6.618580222129821777e-02,-1.008514538407325745e-01,9.818769246339797974e-02,-1.379623729735612869e-02,-1.548684109002351761e-02,2.503602579236030579e-02,5.889592319726943970e-02,3.973133116960525513e-02,-2.026955410838127136e-02,-4.847983270883560181e-02,7.883527129888534546e-02,1.254542917013168335e-01,1.122183725237846375e-01,-4.095984622836112976e-04,-5.557231232523918152e-02,6.493821740150451660e-02,-5.158596206456422806e-03,6.882739812135696411e-02,-4.328393563628196716e-02,-1.278208345174789429e-01,-9.246826171875000000e-02,-4.055592417716979980e-02,9.522347152233123779e-02
7.469795644283294678e-02,7.047650218009948730e-02,3.977552056312561035e-02,-4.877611994743347168e-02,-6.223483383655548096e-02,-8.593273162841796875e-02,-1.968145966529846191e-01,9.973540902137756348e-02,8.206786215305328369e-02,-1.102486345916986465e-02,1.084070429205894470e-01,-3.104059025645256042e-03,-3.242144733667373657e-02,9.389019012451171875e-02,-2.734807878732681274e-02,6.999110430479049683e-02,2.193701267242431641e-02,-1.534164510667324066e-02,8.696529269218444824e-02,-6.364344060420989990e-02,8.030477911233901978e-02,-7.670469582080841064e-03,-2.316790074110031128e-02,-4.010481014847755432e-02,-2.938286028802394867e-02,7.839979976415634155e-02,-1.033530086278915405e-01,-8.549506217241287231e-02,-7.254787534475326538e-02,-2.856079861521720886e-02,-8.862882852554321289e-02,3.431456536054611206e-02,3.886525332927703857e-02,1.673353277146816254e-02,5.869001895189285278e-02,1.011008620262145996e-01,-1.837629228830337524e-01,8.088195323944091797e-02,3.036346286535263062e-02,-2.825781330466270447e-02,9.186088293790817261e-02,-6.876969337463378906e-02,4.264560341835021973e-02,-4.700563848018646240e-02,-7.416254281997680664e-02,2.400778420269489288e-02,1.408517956733703613e-01,-5.518736317753791809e-02,2.389698848128318787e-02,-7.971766591072082520e-02,-1.268781423568725586e-01,-9.388590604066848755e-02,-1.156598627567291260e-01,9.184328466653823853e-02,1.622561551630496979e-02,-1.767367124557495117e-02,1.202074438333511353e-02,5.423502996563911438e-02,4.454604163765907288e-02,9.376101195812225342e-02,-7.942020148038864136e-02,-2.248273789882659912e-02,3.900619968771934509e-02,-2.277206815779209137e-02,4.149045050144195557e-02,1.673597097396850586e-02,-1.022385880351066589e-01,-8.413116633892059326e-02,-8.141981065273284912e-02,1.254438422620296478e-02
1.079435050487518311e-01,2.701427228748798370e-02,-5.819259583950042725e-02,-9.551399946212768555e-02,-1.631405786611139774e-03,-9.852057695388793945e-02,-1.623540520668029785e-01,1.988833025097846985e-02,8.944526314735412598e-02,-4.209757223725318909e-02,1.933482885360717773e-01,3.395465388894081116e-02,-1.638778485357761383e-02,6.258670706301927567e-03,-9.433776140213012695e-02,-5.330599471926689148e-02,1.486812531948089600e-02,-1.470630615949630737e-01,7.743680477142333984e-02,4.403030872344970703e-02,7.872972637414932251e-02,-8.544336073100566864e-03,7.838376611471176147e-02,-9.872322529554367065e-02,2.971498668193817139e-02,7.815097272396087646e-02,-3.994637355208396912e-02,-2.547120675444602966e-02,-7.553317397832870483e-02,3.863463178277015686e-02,6.707528978586196899e-02,-1.537778228521347046e-02,-2.849527634680271149e-02,-5.994392093271017075e-03,1.407882105559110641e-02,-8.322272449731826782e-03,-3.836306557059288025e-02,1.085042878985404968e-01,9.797465056180953979e-02,-9.129553101956844330e-03,1.360617578029632568e-03,-2.252245135605335236e-02,8.528905361890792847e-02,-2.914203144609928131e-02,-2.523254044353961945e-02,-6.880889832973480225e-02,1.739993542432785034e-01,8.458874374628067017e-02,4.383613914251327515e-02,9.522674232721328735e-02,-8.576156944036483765e-02,-1.476493030786514282e-01,-8.901956677436828613e-02,-9.242586046457290649e-02,9.322691708803176880e-02,-4.883443564176559448e-02,-7.815586403012275696e-03,-2.805080451071262360e-02,-2.361376769840717316e-02,1.361888796091079712e-01,1.415016595274209976e-02,9.697543829679489136e-02,-1.156304106116294861e-01,-6.986915320158004761e-02,8.358830213546752930e-02,3.554669674485921860e-03,-9.601967036724090576e-02,1.131680794060230255e-02,-8.544203639030456543e-02,5.332190543413162231e-02
-2.564031258225440979e-02,-2.628874219954013824e-02,-1.738622412085533142e-02,2.460337243974208832e-02,1.964208111166954041e-02,6.652530282735824585e-02,-9.075696021318435669e-02,3.283222019672393799e-02,9.232411533594131470e-02,-3.502717241644859314e-03,1.335564162582159042e-02,1.390073001384735107e-01,8.407517522573471069e-02,-4.658548161387443542e-02,-6.613004207611083984e-02,-1.395072042942047119e-02,-8.119392395019531250e-02,-6.755427457392215729e-03,2.484021149575710297e-02,-1.217486709356307983e-01,6.388104707002639771e-02,9.569299221038818359e-02,5.355479568243026733e-02,-1.278055459260940552e-01,3.838760405778884888e-02,5.575723480433225632e-04,2.206016704440116882e-02,6.745677441358566284e-02,8.037126809358596802e-02,9.425141662359237671e-02,-2.544675208628177643e-02,1.138015836477279663e-02,4.688590764999389648e-02,-1.055871881544589996e-02,4.519346728920936584e-02,-8.894655108451843262e-02,-8.415510505437850952e-02,3.210352361202239990e-02,-5.846158415079116821e-02,2.417655102908611298e-02,7.285045832395553589e-02,1.224659234285354614e-01,-2.592561300843954086e-03,6.188552454113960266e-02,-6.674693524837493896e-02,-1.380717009305953979e-01,-9.222520515322685242e-03,-1.027033776044845581e-01,1.461227238178253174e-02,2.127217873930931091e-02,-4.866285994648933411e-02,3.963264450430870056e-02,3.910288214683532715e-02,-3.325182199478149414e-02,1.114194318652153015e-01,1.129809184931218624e-03,-1.251266747713088989e-01,5.780265107750892639e-02,1.088588759303092957e-01,-3.497054055333137512e-02,8.087705075740814209e-02,-1.839119940996170044e-02,7.284754514694213867e-02,-1.289941463619470596e-02,2.842734009027481079e-02,-3.452664241194725037e-02,-2.112517878413200378e-02,-7.227864861488342285e-02,8.120132237672805786e-02,3.828486800193786621e-02
1.121762022376060486e-01,9.192874655127525330e-03,-2.621333673596382141e-02,-9.885154664516448975e-02,-5.089213326573371887e-02,3.432229906320571899e-02,-7.930241525173187256e-02,-4.436909407377243042e-02,8.539705723524093628e-02,-3.062966093420982361e-02,1.811173111200332642e-01,-7.318625692278146744e-03,3.723760694265365601e-02,8.541598170995712280e-02,-6.925813853740692139e-02,1.121491938829421997e-01,2.345523051917552948e-02,-1.225627437233924866e-01,6.245250254869461060e-02,-7.856337726116180420e-02,6.004492193460464478e-02,-4.241783171892166138e-03,1.001524403691291809e-01,1.603057049214839935e-02,-9.389114379882812500e-02,5.058007314801216125e-02,-1.257144808769226074e-01,8.366073668003082275e-02,-9.097529202699661255e-02,-5.809710919857025146e-02,5.989408120512962341e-02,-1.009680107235908508e-01,-3.799658641219139099e-02,6.027063354849815369e-02,-8.463551849126815796e-02,5.100999027490615845e-02,4.400846362113952637e-02,1.336086541414260864e-01,-9.869730472564697266e-02,8.393270522356033325e-02,-5.775243043899536133e-04,8.545863628387451172e-02,6.285977549850940704e-03,6.826895475387573242e-02,-6.417674571275711060e-02,-8.376384526491165161e-02,1.091927479137666523e-04,-7.238014787435531616e-02,-2.921885438263416290e-02,1.946898736059665680e-02,-3.315362706780433655e-02,-3.443197533488273621e-02,2.979361638426780701e-02,1.226202398538589478e-02,1.156928166747093201e-01,-3.356651961803436279e-02,-1.052801907062530518e-01,-9.320802986621856689e-02,4.392969235777854919e-02,2.152972854673862457e-02,-9.170942008495330811e-02,-8.605220168828964233e-02,4.817506298422813416e-02,-5.810266733169555664e-02,-4.433355852961540222e-02,-1.231615915894508362e-01,-1.556040812283754349e-02,-8.957508020102977753e-03,-7.229942828416824341e-02,-1.148539874702692032e-02
-7.437101099640130997e-03,6.266566459089517593e-03,8.263070881366729736e-02,3.198216110467910767e-02,-8.982550352811813354e-03,-4.538366571068763733e-02,-8.259686827659606934e-02,2.064403332769870758e-02,-2.535805851221084595e-02,-1.035749912261962891e-01,1.211379915475845337e-01,-7.562415301799774170e-02,-1.851734332740306854e-02,-1.293900236487388611e-02,7.124561816453933716e-02,-3.800133615732192993e-02,-6.324426829814910889e-02,3.564809635281562805e-02,1.208822242915630341e-02,-6.996250897645950317e-02,4.848252981901168823e-02,-2.444270625710487366e-02,-8.695731312036514282e-02,3.499070927500724792e-02,-1.601712591946125031e-02,9.794894605875015259e-02,-4.195018671452999115e-03,6.186719611287117004e-02,-3.946805372834205627e-02,4.308720678091049194e-02,8.836390823125839233e-02,1.774732768535614014e-02,-2.126560918986797333e-02,1.136210858821868896e-01,4.291976988315582275e-02,-5.847986415028572083e-02,1.359969098120927811e-02,7.416957616806030273e-02,8.497204631567001343e-02,-4.863070324063301086e-02,-2.780047059059143066e-02,-8.666666597127914429e-02,6.003313884139060974e-02,-3.943876549601554871e-02,4.847785085439682007e-02,-6.377370655536651611e-02,1.157285943627357483e-01,-2.528012357652187347e-02,-3.150553628802299500e-02,4.873099923133850098e-02,1.025033183395862579e-02,-6.720086187124252319e-02,7.213804125785827637e-02,1.261164993047714233e-02,5.045992881059646606e-02,3.156437352299690247e-02,-5.775497481226921082e-02,6.039239838719367981e-02,1.355838403105735779e-02,6.794654577970504761e-02,6.979175657033920288e-02,-1.009996533393859863e-01,4.358147457242012024e-02,-5.364451184868812561e-02,-6.701602041721343994e-02,7.473173737525939941e-02,4.286791756749153137e-02,3.340508416295051575e-02,3.029432147741317749e-02,6.907982379198074341e-02
7.007487863302230835e-02,5.901222582906484604e-03,-8.097529411315917969e-02,7.635582238435745239e-02,8.252621442079544067e-02,-6.611571460962295532e-02,-1.587963849306106567e-02,7.586698979139328003e-02,-9.102711826562881470e-02,-5.456171464174985886e-03,8.239439874887466431e-02,-6.032595410943031311e-02,-9.764634817838668823e-02,2.027372084558010101e-02,6.945740431547164917e-02,-5.076314508914947510e-02,-2.658955380320549011e-02,1.679526455700397491e-02,-7.781103253364562988e-02,-9.917870908975601196e-02,7.397409528493881226e-02,6.747354567050933838e-02,-4.041302204132080078e-02,5.967023968696594238e-02,-5.159408226609230042e-02,5.796603485941886902e-02,8.525253832340240479e-02,-4.257158562541007996e-02,-4.975405987352132797e-03,5.139346048235893250e-02,8.899810910224914551e-02,4.414054006338119507e-02,9.021262079477310181e-02,-2.468387037515640259e-02,-4.454995319247245789e-02,3.890188876539468765e-03,1.058669537305831909e-01,7.073641568422317505e-02,-4.845363274216651917e-02,-9.757661819458007812e-02,-6.367124617099761963e-02,-7.852373272180557251e-02,8.090080320835113525e-02,-2.668304368853569031e-02,1.021200865507125854e-01,2.764034084975719452e-02,4.576983302831649780e-02,-2.813428267836570740e-02,-1.005509421229362488e-01,1.002227962017059326e-01,7.793870568275451660e-02,-6.975899636745452881e-02,-9.566066414117813110e-02,-1.033348739147186279e-01,5.688255280256271362e-02,-1.910029165446758270e-02,7.562495023012161255e-02,1.133125741034746170e-02,-9.601296484470367432e-02,-5.817382782697677612e-02,-1.028942689299583435e-01,-3.027744591236114502e-03,8.517123013734817505e-02,-3.982554748654365540e-02,-1.919709518551826477e-02,3.281700983643531799e-02,9.162230789661407471e-02,9.928276389837265015e-02,9.436390548944473267e-02,6.753482669591903687e-02
-7.997272908687591553e-02,1.148989330977201462e-02,6.766197085380554199e-02,-3.699171543121337891e-02,-6.715485453605651855e-02,5.653358995914459229e-03,-5.700880195945501328e-03,-5.724763870239257812e-02,4.138924181461334229e-03,1.866902597248554230e-02,-1.256176829338073730e-01,2.394780702888965607e-02,-6.569048389792442322e-03,-8.346545696258544922e-02,-4.916508123278617859e-02,-6.457362323999404907e-02,-6.097380071878433228e-02,7.401245832443237305e-02,-6.747260689735412598e-02,-8.238277584314346313e-02,-1.102605462074279785e-02,6.177034694701433182e-03,-4.113412648439407349e-02,8.689750730991363525e-02,5.278900638222694397e-02,9.053602814674377441e-02,9.580758213996887207e-02,-1.920358091592788696e-02,-7.685392349958419800e-02,6.635475158691406250e-02,-5.249704793095588684e-02,-8.493988215923309326e-02,7.277433574199676514e-02,-8.285953104496002197e-02,4.160895571112632751e-02,2.760863117873668671e-02,-3.438432142138481140e-02,-4.482844471931457520e-02,2.230023592710494995e-02,5.842544138431549072e-02,5.258768796920776367e-03,3.419119864702224731e-03,-4.640082642436027527e-02,-2.040490508079528809e-02,-8.921979926526546478e-03,1.176494881510734558e-01,-1.033474802970886230e-01,-9.896074980497360229e-02,-6.953484565019607544e-02,2.910076268017292023e-02,-1.736127398908138275e-02,-6.961420923471450806e-02,2.804467640817165375e-02,9.898305684328079224e-02,-2.527225762605667114e-02,1.472456194460391998e-02,-4.711778089404106140e-02,-4.620544984936714172e-02,-1.136777698993682861e-01,3.180716186761856079e-02,7.680092751979827881e-02,9.024035185575485229e-02,1.141737028956413269e-01,5.658873706124722958e-04,-7.654629647731781006e-02,1.226593703031539917e-01,-6.295482069253921509e-02,7.927831262350082397e-02,3.928188234567642212e-02,4.573298990726470947e-02
4.549349471926689148e-02,2.351434342563152313e-02,-5.247091129422187805e-02,9.084758907556533813e-02,-1.699659600853919983e-02,-6.641523540019989014e-02,7.501886039972305298e-02,-1.304495930671691895e-01,3.770388662815093994e-02,-9.431999921798706055e-02,-5.013016983866691589e-02,-8.555134385824203491e-02,3.324038535356521606e-02,-9.358394891023635864e-04,7.157132029533386230e-03,4.582580924034118652e-02,6.885848194360733032e-02,9.199348837137222290e-02,-1.189748272299766541e-01,-1.164240017533302307e-02,-2.904905378818511963e-02,2.677511237561702728e-02,5.389118939638137817e-02,-7.182078063488006592e-02,3.799863532185554504e-02,4.813429433852434158e-03,2.935628220438957214e-02,-7.263460010290145874e-02,9.237408638000488281e-02,6.498485058546066284e-02,1.005468983203172684e-02,-4.536814987659454346e-03,4.020212800242006779e-04,-6.985515356063842773e-02,6.668279320001602173e-02,-6.910791993141174316e-02,7.691385596990585327e-02,-4.808302968740463257e-02,-9.844154119491577148e-02,-3.631592495366930962e-03,7.270515710115432739e-02,6.255677342414855957e-02,2.971936203539371490e-02,9.616890549659729004e-02,-4.981674253940582275e-03,1.168109402060508728e-01,-1.460580229759216309e-01,-8.017631620168685913e-02,7.460590451955795288e-02,-6.252054125070571899e-02,6.559615582227706909e-02,-3.112664259970188141e-02,-4.797011613845825195e-02,-7.878861576318740845e-02,-6.208775565028190613e-02,8.521278947591781616e-02,1.397579461336135864e-01,-3.017072938382625580e-02,-1.393270492553710938e-02,-4.138926416635513306e-02,-5.320369452238082886e-02,2.931783348321914673e-02,3.679286688566207886e-03,-2.042735181748867035e-02,-8.067902177572250366e-02,7.997136563062667847e-02,-6.307203322649002075e-02,1.389154195785522461e-01,5.796020478010177612e-02,-5.593306571245193481e-02
5.077658221125602722e-02,1.068638265132904053e-01,8.930121362209320068e-02,-4.918479919433593750e-02,7.541172206401824951e-02,-9.326698631048202515e-02,2.428903616964817047e-02,-1.302408277988433838e-01,8.962067961692810059e-02,4.673366248607635498e-02,-6.079792231321334839e-02,-1.489993184804916382e-01,-1.626082137227058411e-02,-8.267850428819656372e-02,6.969384104013442993e-02,-1.054130420088768005e-01,3.624035790562629700e-02,-5.667319521307945251e-02,-1.037553399801254272e-01,7.060374319553375244e-02,-8.926295489072799683e-02,1.078249365091323853e-01,-7.373054325580596924e-02,8.189161121845245361e-02,-2.685017883777618408e-02,-9.049903601408004761e-03,1.221311762928962708e-01,6.430362164974212646e-02,9.031528234481811523e-02,-6.225631386041641235e-02,6.094117835164070129e-02,4.030618816614151001e-02,-9.985159337520599365e-02,-4.390643909573554993e-02,6.225489452481269836e-02,1.491166930645704269e-02,1.430507004261016846e-01,4.541255161166191101e-02,5.619613081216812134e-02,-6.072579696774482727e-02,-8.269465714693069458e-02,-1.187492045573890209e-03,6.745846569538116455e-02,8.309891819953918457e-02,3.020683303475379944e-02,1.251542419195175171e-01,-1.158455237746238708e-01,2.834053337574005127e-02,5.605169385671615601e-02,-3.643752261996269226e-02,-6.946623325347900391e-02,6.235979497432708740e-02,1.209794729948043823e-01,-3.740674257278442383e-02,-3.554420545697212219e-02,1.121526509523391724e-01,5.416889209300279617e-03,-7.912754267454147339e-02,2.762886323034763336e-02,1.877447939477860928e-04,-2.950290963053703308e-02,-2.141698449850082397e-02,1.281694918870925903e-01,6.528215110301971436e-02,-6.870996206998825073e-02,1.222407370805740356e-01,1.085864305496215820e-01,7.484492659568786621e-02,-1.375548541545867920e-02,4.629488289356231689e-02
2.169417217373847961e-02,-7.160165905952453613e-02,8.107428997755050659e-02,1.118710543960332870e-02,2.637391537427902222e-02,-4.904289171099662781e-02,3.365094587206840515e-02,-8.632655255496501923e-03,-6.664858013391494751e-02,-6.909566372632980347e-02,-1.632657945156097412e-01,-5.361794680356979370e-02,-7.865919172763824463e-02,-4.113855585455894470e-02,-2.803386747837066650e-02,-3.141525015234947205e-02,-5.315767135471105576e-03,6.699479371309280396e-02,4.106518253684043884e-02,1.049895137548446655e-01,-9.452675282955169678e-02,-4.087172448635101318e-02,-5.709239095449447632e-02,8.042078465223312378e-02,-9.091709554195404053e-02,3.790319710969924927e-02,4.192456975579261780e-02,-3.068288601934909821e-02,3.214101120829582214e-02,7.296901941299438477e-02,-5.804027616977691650e-02,1.030571535229682922e-01,-5.569662526249885559e-02,3.655245155096054077e-02,-9.458511322736740112e-02,1.129457447677850723e-02,1.762952841818332672e-02,-4.729405790567398071e-02,-4.580268263816833496e-02,1.098306700587272644e-01,5.061344057321548462e-02,1.958386600017547607e-02,-8.732443302869796753e-02,2.462613768875598907e-02,2.960934303700923920e-02,2.282448485493659973e-02,5.250501260161399841e-02,-2.345053106546401978e-02,5.593722686171531677e-02,-1.027944125235080719e-02,-5.088954791426658630e-02,3.455480188131332397e-02,1.136666387319564819e-01,2.828376740217208862e-02,-1.257809698581695557e-01,-4.488879814743995667e-02,-4.286336712539196014e-03,-2.929721586406230927e-02,-1.114281713962554932e-01,-9.434956312179565430e-02,-8.081917464733123779e-02,6.353991478681564331e-02,1.225806698203086853e-01,-7.311570644378662109e-02,-3.629577532410621643e-02,4.567205160856246948e-02,-6.464079767465591431e-02,7.617391645908355713e-02,-9.694483131170272827e-02,-3.823797404766082764e-02
