5.871406197547912598e-02,3.067804500460624695e-02,1.016140170395374298e-02,5.840588733553886414e-02,-2.431171014904975891e-03,-2.685190178453922272e-02,3.015616536140441895e-02,-4.059414379298686981e-03,1.789620518684387207e-02,9.799348481465131044e-05,6.568284332752227783e-02,9.644315391778945923e-02,8.676121942698955536e-03,4.630378633737564087e-02,-3.789106011390686035e-02,1.136519387364387512e-02,-2.555014216341078281e-04,-4.313309211283922195e-03,0.000000000000000000e+00,-1.729502528905868530e-02,6.832030415534973145e-02,4.260066524147987366e-02,-1.784467324614524841e-02,3.517428040504455566e-02,1.291760010644793510e-03,6.957641988992691040e-02,3.032680833712220192e-03,-1.152633782476186752e-02,-2.136202994734048843e-03,5.888389050960540771e-02,4.591614473611116409e-03,-1.634377427399158478e-02,-2.413051947951316833e-02,4.036134108901023865e-02,5.929690971970558167e-02,-2.592160180211067200e-02,-3.678138181567192078e-02,7.793072611093521118e-02,-1.629463210701942444e-02,2.846737578511238098e-02,7.087288796901702881e-02,-3.727967292070388794e-02,5.290956422686576843e-02,-1.585282944142818451e-02,2.975150570273399353e-02,3.679731453303247690e-04,6.942353397607803345e-02,1.593623682856559753e-02,4.159083619015291333e-05,1.450993679463863373e-02
-1.830813586711883545e-01,-5.170436948537826538e-02,1.665214002132415771e-01,-1.366353593766689301e-02,-1.810907125473022461e-01,-2.115769386291503906e-01,1.993196904659271240e-01,2.254525199532508850e-02,6.892641633749008179e-02,-1.777122020721435547e-01,6.554378569126129150e-02,1.503341794013977051e-01,-6.196736171841621399e-02,1.183681786060333252e-01,-1.318047940731048584e-01,9.646330773830413818e-02,-1.833186149597167969e-01,1.627895385026931763e-01,1.090806871652603149e-01,4.376823455095291138e-02,1.773781776428222656e-01,7.074648141860961914e-02,-6.275799125432968140e-02,1.383417844772338867e-01,9.541937708854675293e-02,-4.485576972365379333e-02,2.585578523576259613e-02,4.609439149498939514e-02,-1.729000359773635864e-01,-1.648036986589431763e-01,-1.728662103414535522e-01,1.256424747407436371e-02,-1.125037148594856262e-01,1.447220891714096069e-01,7.770781964063644409e-02,-1.780381202697753906e-01,-1.888674870133399963e-02,-5.841169506311416626e-02,-8.887800574302673340e-02,1.678415983915328979e-01,-1.047815978527069092e-01,-1.726170070469379425e-02,-1.051561683416366577e-01,-2.867523580789566040e-02,1.521016955375671387e-01,6.318226456642150879e-02,-7.968668639659881592e-02,-1.465233713388442993e-01,-1.310426890850067139e-01,1.228916719555854797e-01
-4.625552147626876831e-02,-1.056061610579490662e-01,-2.127079758793115616e-03,2.052647471427917480e-01,7.914496958255767822e-02,1.857198178768157959e-01,-1.483918726444244385e-01,-4.615931585431098938e-02,-2.038662880659103394e-01,-5.706344544887542725e-02,-2.117085270583629608e-02,1.590995490550994873e-01,-1.677129566669464111e-01,4.381373152136802673e-02,-5.484387278556823730e-02,-1.565227098762989044e-02,-1.363393664360046387e-01,2.052791714668273926e-01,-1.991878449916839600e-01,-1.510096192359924316e-01,-1.150687560439109802e-01,7.024695724248886108e-02,-1.140494346618652344e-01,-2.936449460685253143e-02,5.212421715259552002e-02,-4.803407937288284302e-02,1.268155872821807861e-01,-1.656896919012069702e-01,1.307045668363571167e-01,6.229670718312263489e-03,1.297326833009719849e-01,-1.497597545385360718e-01,-5.036872252821922302e-02,-1.591362953186035156e-01,8.372871577739715576e-02,1.709521561861038208e-01,1.538246031850576401e-02,-1.071949768811464310e-02,3.803494945168495178e-02,7.770153135061264038e-02,2.265114337205886841e-02,1.068206503987312317e-01,9.446545690298080444e-02,-1.850974559783935547e-01,8.389344811439514160e-02,9.170120209455490112e-02,1.410130560398101807e-01,-8.005741238594055176e-02,-4.356145113706588745e-02,1.913709640502929688e-01
-1.321382969617843628e-01,1.716712266206741333e-01,1.280851662158966064e-01,-6.552346795797348022e-02,1.643301248550415039e-01,-6.227850168943405151e-02,1.627838760614395142e-01,-9.046642482280731201e-02,-1.237491965293884277e-01,-4.492105916142463684e-02,4.499497637152671814e-02,1.146328821778297424e-02,-1.800747960805892944e-01,-2.014811187982559204e-01,-1.234840303659439087e-01,-9.473899751901626587e-02,9.978768229484558105e-02,-5.947816371917724609e-02,1.492488831281661987e-01,1.932786852121353149e-01,-6.388256698846817017e-02,8.736076951026916504e-02,-1.687085330486297607e-01,-1.042524948716163635e-01,-1.477931439876556396e-01,-1.681143939495086670e-01,-1.427496671676635742e-01,1.397114247083663940e-01,4.369563236832618713e-02,-4.503407701849937439e-02,1.945184320211410522e-01,-1.978245079517364502e-01,-2.887067198753356934e-02,-4.917655885219573975e-02,3.015947528183460236e-02,6.922575831413269043e-02,8.513974398374557495e-02,-1.090308427810668945e-01,1.806673705577850342e-01,-8.430141024291515350e-04,-4.854274541139602661e-02,-4.774932190775871277e-02,1.283412128686904907e-01,6.037619337439537048e-02,8.662879467010498047e-02,9.023671597242355347e-02,3.330219164490699768e-02,9.329798817634582520e-02,1.786265671253204346e-01,-1.089499294757843018e-01
1.318854931741952896e-02,1.214464902877807617e-01,1.837412081658840179e-02,1.614256799221038818e-01,-1.917557604610919952e-02,1.815732941031455994e-02,-1.342898607254028320e-01,1.666418164968490601e-01,1.455066651105880737e-01,-1.717385053634643555e-01,-6.570231169462203979e-02,1.994845271110534668e-01,-1.283954679965972900e-01,1.039567589759826660e-01,2.696213312447071075e-02,5.602294206619262695e-02,2.010472305119037628e-02,-1.847837865352630615e-01,-2.422942221164703369e-02,-1.297454088926315308e-01,-2.025700658559799194e-01,-9.284973144531250000e-02,3.868712484836578369e-02,1.553909480571746826e-01,-5.815064162015914917e-02,-1.608009100891649723e-03,-5.959165841341018677e-02,-1.608054712414741516e-02,-6.864834111183881760e-03,9.019029140472412109e-02,-5.657198280096054077e-02,-1.252835839986801147e-01,-7.878486812114715576e-02,-3.969721496105194092e-02,-1.225844919681549072e-01,1.818326562643051147e-01,4.021587222814559937e-02,2.048368006944656372e-01,-1.399379223585128784e-01,5.678780749440193176e-02,8.216206729412078857e-02,-1.592426896095275879e-01,1.306258440017700195e-01,2.613883279263973236e-02,-1.520452499389648438e-01,1.492445766925811768e-01,1.794821321964263916e-01,1.874811798334121704e-01,-7.322708517313003540e-02,-1.891198009252548218e-01
2.310083992779254913e-02,-1.032933816313743591e-01,-6.007332727313041687e-02,-8.348401635885238647e-02,-8.956754952669143677e-02,-7.837699353694915771e-02,2.000615447759628296e-01,2.350594662129878998e-02,-5.078891292214393616e-02,-5.713284015655517578e-02,-8.865663409233093262e-02,2.461601793766021729e-01,9.771569073200225830e-02,-8.691812865436077118e-03,1.674838513135910034e-01,2.696220204234123230e-02,5.672306194901466370e-02,9.319877624511718750e-02,-1.567358970642089844e-01,1.841118633747100830e-01,-9.041719883680343628e-02,1.745654642581939697e-01,3.571484237909317017e-02,8.279022574424743652e-02,-1.463193595409393311e-01,1.495768129825592041e-01,-8.380239456892013550e-02,1.980900615453720093e-01,2.721263840794563293e-02,9.233144670724868774e-02,8.694381266832351685e-02,-1.378695666790008545e-01,-3.640123456716537476e-02,1.358260959386825562e-01,-1.024256944656372070e-01,-1.974455416202545166e-01,1.532098799943923950e-01,2.179247289896011353e-01,1.950166374444961548e-01,-1.387064158916473389e-01,8.368013054132461548e-02,4.701079800724983215e-02,2.018476426601409912e-01,-1.816267520189285278e-01,4.482460394501686096e-02,-1.252820342779159546e-01,-7.254946231842041016e-02,-1.281735450029373169e-01,1.550563890486955643e-02,7.597671449184417725e-02
-1.124400570988655090e-01,1.150180548429489136e-01,1.619097590446472168e-02,-1.848008781671524048e-01,-3.550082445144653320e-03,-4.981517791748046875e-02,-1.587478071451187134e-01,-8.065605163574218750e-02,7.772196829319000244e-02,-1.122404113411903381e-01,1.717482656240463257e-01,9.329617023468017578e-03,8.577884733676910400e-02,-1.697202026844024658e-02,-7.748755812644958496e-02,-6.381320953369140625e-02,1.851027458906173706e-01,1.059202402830123901e-01,9.580717980861663818e-02,5.754671990871429443e-02,5.533589422702789307e-02,-1.405949592590332031e-01,-8.537708222866058350e-02,-2.038682103157043457e-01,1.299388557672500610e-01,2.481755614280700684e-02,7.516886293888092041e-02,6.484761834144592285e-03,1.956397444009780884e-01,-1.032498702406883240e-01,9.441210329532623291e-02,1.650289148092269897e-01,1.357355862855911255e-01,1.958885937929153442e-01,-2.764475345611572266e-02,-5.353084206581115723e-02,-1.195792481303215027e-01,8.971954882144927979e-02,3.312218189239501953e-02,-4.379530251026153564e-02,-1.464942991733551025e-01,2.051818370819091797e-02,-9.071720391511917114e-02,-1.859002113342285156e-01,-9.376955777406692505e-02,-1.711411774158477783e-02,-1.431441605091094971e-01,1.794712096452713013e-01,-1.087855920195579529e-01,1.654139012098312378e-01
2.612569034099578857e-01,1.841472275555133820e-02,5.450176820158958435e-02,-1.241760402917861938e-01,3.947624564170837402e-02,-1.526885628700256348e-01,7.663973420858383179e-02,-2.029588371515274048e-01,-1.479357928037643433e-01,-1.407186686992645264e-01,1.464883387088775635e-01,2.678656578063964844e-01,5.634586513042449951e-02,-6.578955054283142090e-02,-1.434511393308639526e-01,2.749407850205898285e-02,-1.526503860950469971e-01,1.011901870369911194e-01,-1.502906680107116699e-01,5.893306806683540344e-02,-2.777468562126159668e-01,-4.072931036353111267e-02,1.030725613236427307e-02,1.678887605667114258e-01,-1.214068606495857239e-01,1.097899451851844788e-01,4.926731437444686890e-02,-2.464789152145385742e-02,-1.466220915317535400e-01,2.795546352863311768e-01,-1.731347143650054932e-01,-1.425366550683975220e-01,-8.693440258502960205e-02,-1.368414163589477539e-01,2.210033535957336426e-01,-1.656233817338943481e-01,1.629392802715301514e-01,2.938646674156188965e-01,-7.352765649557113647e-02,6.433474272489547729e-02,-9.448777139186859131e-02,3.384014219045639038e-02,2.258763164281845093e-01,-6.231600791215896606e-02,6.179923936724662781e-02,-9.528011828660964966e-02,2.358836829662322998e-01,1.057326644659042358e-01,1.005274429917335510e-01,7.116031646728515625e-02
-1.976387389004230499e-02,1.723442226648330688e-01,1.750427335500717163e-01,-2.339951135218143463e-02,-1.835891455411911011e-01,1.169477775692939758e-01,7.580140233039855957e-02,3.523432463407516479e-02,3.535363078117370605e-02,3.972754627466201782e-02,-1.527505517005920410e-01,5.185176059603691101e-02,-2.027616947889328003e-01,4.944417998194694519e-02,1.835119538009166718e-02,8.672901988029479980e-02,-1.813805997371673584e-01,-1.629125475883483887e-01,1.073211580514907837e-01,1.235252171754837036e-01,2.749887108802795410e-01,-2.951944991946220398e-02,1.198942493647336960e-02,6.320726871490478516e-02,-1.428233534097671509e-01,8.455079793930053711e-02,7.778300344944000244e-02,-1.538162678480148315e-01,-8.307161927223205566e-02,-1.929986663162708282e-02,1.082452833652496338e-01,1.804042458534240723e-01,1.955101042985916138e-01,1.116216182708740234e-01,-1.564619541168212891e-01,-1.988445818424224854e-01,-9.983727335929870605e-02,5.633351206779479980e-02,1.911046914756298065e-02,-1.465243995189666748e-01,3.009611740708351135e-02,-1.208048015832901001e-01,-1.820425540208816528e-01,4.672231525182723999e-02,6.668210495263338089e-03,2.227489091455936432e-02,-1.829216331243515015e-01,-1.886859387159347534e-01,1.085589319700375199e-04,-1.262998674064874649e-03
-1.734986007213592529e-01,-1.184667050838470459e-01,2.667948836460709572e-03,9.856116771697998047e-02,-5.846200510859489441e-03,-5.878234654664993286e-02,8.587492257356643677e-02,8.835150301456451416e-02,1.793717220425605774e-02,8.825941383838653564e-02,-7.098913192749023438e-02,1.056226491928100586e-01,1.189729720354080200e-01,-6.061371415853500366e-02,-6.877197325229644775e-02,-1.861745417118072510e-01,1.360133141279220581e-01,1.894579976797103882e-01,-1.335887312889099121e-01,-5.107654631137847900e-02,-2.018302530050277710e-01,-4.945378750562667847e-02,-1.174833532422780991e-02,8.964904397726058960e-02,7.527019083499908447e-02,1.280493587255477905e-01,1.613626033067703247e-01,-1.271315477788448334e-02,6.598512828350067139e-02,8.613748848438262939e-02,-8.845994621515274048e-02,-1.663963198661804199e-01,5.290593206882476807e-02,-1.535092145204544067e-01,-1.837118715047836304e-01,1.281590014696121216e-01,-9.969139844179153442e-02,5.550388619303703308e-02,-1.760333031415939331e-01,1.864066347479820251e-02,6.388459354639053345e-02,-3.150567039847373962e-02,8.018857240676879883e-02,-4.822863638401031494e-02,1.512412447482347488e-02,-3.076113760471343994e-02,4.103544354438781738e-02,1.384705752134323120e-01,-5.497819185256958008e-02,-1.118575260043144226e-01
-2.004337757825851440e-01,5.582394078373908997e-02,-3.299935907125473022e-02,7.323841005563735962e-02,-7.641463540494441986e-03,5.673007294535636902e-02,-1.152742728590965271e-01,1.211774647235870361e-01,-5.506009608507156372e-02,1.051067858934402466e-01,-2.628416009247303009e-02,-1.965959966182708740e-01,-6.956729292869567871e-02,-1.214227080345153809e-01,-9.086243808269500732e-02,1.916729658842086792e-01,3.434327244758605957e-02,-3.175380080938339233e-02,-5.032414197921752930e-02,1.928720623254776001e-01,-9.357003867626190186e-02,1.814927905797958374e-02,7.356171309947967529e-02,9.597384184598922729e-02,8.212334662675857544e-02,-3.197845444083213806e-02,2.750964649021625519e-02,-2.066739201545715332e-01,-4.415178298950195312e-02,1.195218935608863831e-01,-2.449322491884231567e-02,2.192081883549690247e-03,-2.005654573440551758e-01,1.640433669090270996e-01,1.083073019981384277e-01,1.610823869705200195e-01,-1.589929014444351196e-01,1.808166354894638062e-01,-1.487252116203308105e-01,6.434301612898707390e-04,1.718593835830688477e-01,1.321861147880554199e-01,1.638491600751876831e-01,2.021445780992507935e-01,-4.216283559799194336e-02,9.455560892820358276e-02,1.348349899053573608e-01,-1.303904689848423004e-02,-2.797647193074226379e-02,1.806429028511047363e-02
-1.730980426073074341e-01,3.793172538280487061e-01,1.265903264284133911e-01,2.689396739006042480e-01,-1.412131339311599731e-01,-1.685360521078109741e-01,7.796692103147506714e-02,1.471802741289138794e-01,-1.364026814699172974e-01,6.454765051603317261e-02,-1.662569344043731689e-01,-1.151824072003364563e-01,-6.543995440006256104e-02,-4.221891053020954132e-03,-2.338425256311893463e-02,-5.511227250099182129e-02,1.697567664086818695e-02,-1.002501845359802246e-01,1.190829277038574219e-02,-2.121839486062526703e-02,3.062064647674560547e-01,-2.578567154705524445e-02,2.712469175457954407e-02,-1.671200245618820190e-02,-1.813273429870605469e-01,-9.343690238893032074e-03,-9.010340273380279541e-02,1.691555082798004150e-01,1.875754892826080322e-01,1.810622401535511017e-02,3.902702778577804565e-02,1.125463768839836121e-01,-9.340167045593261719e-02,-1.789933443069458008e-01,-1.222040876746177673e-01,-1.856604218482971191e-01,1.782110929489135742e-01,-2.518040239810943604e-01,-6.807272136211395264e-02,9.671366214752197266e-02,-4.026945680379867554e-02,-1.034157164394855499e-02,-1.751799136400222778e-01,2.667792141437530518e-02,-1.318444907665252686e-01,9.009460359811782837e-02,-1.628473401069641113e-01,-3.985668346285820007e-02,-4.628164321184158325e-02,4.348952695727348328e-02
1.842149645090103149e-01,1.849128752946853638e-01,4.754958301782608032e-02,1.267788261175155640e-01,1.218238994479179382e-01,-1.310579925775527954e-01,-6.013345345854759216e-02,9.910245239734649658e-02,-1.587955951690673828e-01,-1.768757104873657227e-01,-8.927688002586364746e-02,-1.207443103194236755e-01,8.394173532724380493e-02,-2.582562156021595001e-02,1.567557901144027710e-01,-9.494209289550781250e-02,1.084657460451126099e-01,3.141717985272407532e-02,-4.240436851978302002e-02,8.729071170091629028e-02,9.256611019372940063e-02,-2.195522934198379517e-01,-1.391337066888809204e-01,-5.089089740067720413e-03,4.488664120435714722e-02,2.057981863617897034e-02,1.022571101784706116e-01,-1.652043163776397705e-01,-5.241983756422996521e-02,-2.310718037188053131e-02,-1.072239652276039124e-01,1.587532758712768555e-01,-7.106968015432357788e-02,-1.799419373273849487e-01,-9.977730363607406616e-02,-7.540806382894515991e-02,-7.675761729478836060e-02,1.708284318447113037e-01,-1.800791174173355103e-01,-1.210852991789579391e-02,3.913697972893714905e-02,6.000454351305961609e-02,-2.098032683134078979e-01,1.387235224246978760e-01,4.506122320890426636e-02,-1.660805344581604004e-01,-1.838472634553909302e-01,-1.640829145908355713e-01,-9.488261491060256958e-02,-8.930004388093948364e-02
-1.366276741027832031e-01,-1.847983896732330322e-01,-1.340629905462265015e-02,-9.350538253784179688e-02,7.202908862382173538e-03,1.746786683797836304e-01,6.286480277776718140e-02,1.256890594959259033e-01,3.673976287245750427e-02,-8.713089674711227417e-02,-1.157165020704269409e-01,9.854117035865783691e-02,-1.742601394653320312e-02,1.640095412731170654e-01,1.222296338528394699e-02,-1.356303393840789795e-01,1.333074122667312622e-01,3.592137247323989868e-02,1.020990461111068726e-01,-1.432654559612274170e-01,-5.832014605402946472e-02,-1.280049830675125122e-01,-1.289563030004501343e-01,-6.210697442293167114e-02,-1.179093122482299805e-02,-1.559258103370666504e-01,2.621523290872573853e-02,-2.053246200084686279e-01,-1.355091333389282227e-01,7.951036840677261353e-02,1.043398529291152954e-01,7.311468571424484253e-02,9.146137535572052002e-02,6.831231713294982910e-02,-4.882125183939933777e-02,6.175020709633827209e-02,5.870430171489715576e-02,-9.291267395019531250e-02,-8.755564689636230469e-02,1.439433917403221130e-02,1.346711814403533936e-01,-3.115204861387610435e-03,1.793719828128814697e-01,-7.861059159040451050e-02,-1.540664136409759521e-01,-1.670343726873397827e-01,1.005900427699089050e-01,-9.497280418872833252e-02,-9.462716430425643921e-02,1.530015608295798302e-03
-2.601196244359016418e-02,1.550813615322113037e-01,1.050592288374900818e-01,2.721957862377166748e-02,1.249284148216247559e-01,-6.151655316352844238e-02,3.885054728016257286e-03,-7.590135931968688965e-02,-1.442542672157287598e-01,-1.219046935439109802e-01,1.251756846904754639e-01,4.645799472928047180e-02,-1.940245032310485840e-01,-1.315117776393890381e-01,9.900794923305511475e-02,1.577720791101455688e-01,1.279019415378570557e-01,9.964917600154876709e-02,-5.937159061431884766e-02,-2.135410606861114502e-01,5.440945178270339966e-02,3.607841441407799721e-03,-3.791383653879165649e-02,-1.404624581336975098e-01,3.365420177578926086e-02,-2.516572549939155579e-02,2.013576030731201172e-01,1.753743886947631836e-01,8.872935920953750610e-02,-1.979044079780578613e-02,-6.456530839204788208e-02,-1.072570309042930603e-01,-1.813358999788761139e-02,-1.160158962011337280e-01,1.185226161032915115e-02,2.546481788158416748e-02,-1.749835312366485596e-01,3.830013424158096313e-02,-1.806453615427017212e-01,-8.414733409881591797e-02,1.752231717109680176e-01,-2.578734047710895538e-02,-7.331732660531997681e-03,-1.635773777961730957e-01,4.758567735552787781e-02,-9.253499656915664673e-02,-1.753975898027420044e-01,1.544704288244247437e-01,-1.839138567447662354e-01,-8.365649729967117310e-02
-1.507131159305572510e-01,1.716274470090866089e-01,3.195960819721221924e-02,-1.273576915264129639e-02,-1.143683046102523804e-01,1.926949471235275269e-01,7.930390536785125732e-02,7.329703867435455322e-02,-4.382960498332977295e-02,1.469561010599136353e-01,9.728248417377471924e-02,5.260927975177764893e-02,-6.710539758205413818e-02,8.901743590831756592e-02,1.582890897989273071e-01,-5.417066812515258789e-02,-1.275798678398132324e-01,-1.899465322494506836e-01,1.084840148687362671e-01,1.434903591871261597e-01,1.131077557802200317e-01,-4.219223558902740479e-02,-6.272453069686889648e-02,1.291507333517074585e-01,7.189483940601348877e-02,-1.480976194143295288e-01,-1.226140856742858887e-01,-1.256400346755981445e-02,1.190562546253204346e-02,1.322355121374130249e-01,1.173668950796127319e-01,-1.149733215570449829e-01,1.138227134943008423e-01,-1.345421373844146729e-02,1.167902797460556030e-01,4.643557965755462646e-02,7.330535352230072021e-02,7.210515439510345459e-02,1.077058464288711548e-01,-1.045219600200653076e-01,-2.579931914806365967e-02,1.703243106603622437e-01,-1.975034773349761963e-01,-1.622036099433898926e-03,-5.332206189632415771e-02,5.936343967914581299e-02,7.341504096984863281e-03,-1.709487438201904297e-01,-1.585216522216796875e-01,1.936108022928237915e-01
-6.571357697248458862e-02,7.003951072692871094e-02,-1.034467294812202454e-01,2.026398330926895142e-01,5.451020598411560059e-02,1.912076920270919800e-01,2.112393230199813843e-01,7.728473842144012451e-02,-1.651746481657028198e-01,7.906850427389144897e-02,-2.092390507459640503e-01,7.382131367921829224e-02,-4.316511750221252441e-02,-4.962227493524551392e-02,1.897210329771041870e-01,1.630098074674606323e-01,-1.310299634933471680e-01,3.374964743852615356e-02,-9.476623684167861938e-02,1.644634902477264404e-01,2.130398899316787720e-01,-9.709214419126510620e-02,1.412699967622756958e-01,1.022244021296501160e-01,1.439517736434936523e-01,4.984842240810394287e-02,-1.772835403680801392e-01,-7.152172736823558807e-03,-1.656416654586791992e-01,3.919709101319313049e-02,1.040996164083480835e-01,-7.012200076133012772e-03,1.554092764854431152e-01,8.151204138994216919e-02,1.578472256660461426e-01,3.147301450371742249e-02,-2.988848090171813965e-02,-1.951511800289154053e-01,-2.571842819452285767e-02,-1.562549471855163574e-01,-8.209870010614395142e-02,4.910723492503166199e-02,-4.104629904031753540e-02,-1.944170594215393066e-01,1.072582751512527466e-01,5.510501936078071594e-02,-4.289758205413818359e-02,8.235300332307815552e-02,-1.234049722552299500e-01,-6.507079303264617920e-02
-1.039442420005798340e-01,-1.386932581663131714e-01,5.584455654025077820e-02,1.515092104673385620e-01,6.013423949480056763e-02,-4.690833389759063721e-02,2.918467484414577484e-02,-1.271554678678512573e-01,-4.997862502932548523e-02,-6.634727120399475098e-02,1.559339463710784912e-02,1.774958968162536621e-01,8.665075898170471191e-02,1.710940003395080566e-01,4.670976474881172180e-02,2.030930221080780029e-01,1.588917374610900879e-01,3.489731624722480774e-02,-1.470601558685302734e-02,-6.854207720607519150e-03,2.464952878654003143e-02,-1.870653033256530762e-01,-9.851096197962760925e-03,1.081245616078376770e-01,1.111695095896720886e-01,-2.498778142035007477e-02,6.871607154607772827e-03,-1.228895857930183411e-01,1.306542754173278809e-01,1.735114902257919312e-01,7.866910099983215332e-02,1.089843660593032837e-01,-2.393252588808536530e-02,-1.114320680499076843e-01,-1.118943560868501663e-02,2.528814971446990967e-02,-1.364556849002838135e-01,-6.535578519105911255e-02,-1.372334659099578857e-01,-1.706182211637496948e-02,-9.071210026741027832e-02,7.216199487447738647e-02,1.694162338972091675e-01,1.276223659515380859e-01,-2.018260061740875244e-01,-1.979197263717651367e-01,2.278613895177841187e-01,-1.911908015608787537e-02,1.740979254245758057e-01,1.518667191267013550e-01
2.155535370111465454e-01,-1.633879840373992920e-01,1.878845542669296265e-01,6.210765242576599121e-02,7.892943918704986572e-02,1.329405456781387329e-01,-1.249531880021095276e-01,1.923848986625671387e-01,1.744741201400756836e-01,-5.832488089799880981e-02,4.768029600381851196e-02,-2.462512254714965820e-02,-5.394904315471649170e-02,1.871673204004764557e-02,1.839592158794403076e-01,-2.962473779916763306e-02,1.822243332862854004e-01,7.122486084699630737e-02,-4.744967818260192871e-02,-5.980733782052993774e-02,-7.538694888353347778e-02,-5.648280307650566101e-02,1.248281374573707581e-01,-1.751092076301574707e-01,-1.066394150257110596e-02,2.148690074682235718e-01,-1.726458817720413208e-01,1.411859989166259766e-01,5.377967283129692078e-02,1.895063221454620361e-01,-9.808380156755447388e-02,-1.895658671855926514e-01,1.015127003192901611e-01,9.621395170688629150e-02,2.153887748718261719e-01,1.348360925912857056e-01,-7.309877127408981323e-02,-1.735335141420364380e-01,4.955539479851722717e-02,6.361328065395355225e-02,-9.541100263595581055e-02,7.604932039976119995e-02,1.003823876380920410e-01,1.957176625728607178e-01,-1.495483070611953735e-01,5.860756337642669678e-02,2.213645279407501221e-01,5.435763671994209290e-02,-4.143992438912391663e-02,1.312991678714752197e-01
6.962661445140838623e-02,2.264139950275421143e-01,9.635908901691436768e-02,2.082142829895019531e-01,-5.303692445158958435e-02,-1.792852282524108887e-01,8.776436746120452881e-02,-4.354534298181533813e-02,5.669242888689041138e-02,1.700794845819473267e-01,2.111910283565521240e-02,-2.442370541393756866e-02,-1.563672274351119995e-01,-1.111507937312126160e-01,1.303217262029647827e-01,1.491967439651489258e-01,-7.651793211698532104e-02,1.238573044538497925e-01,1.738864928483963013e-01,-8.046718686819076538e-02,4.064653068780899048e-02,-1.450684070587158203e-01,1.638926118612289429e-01,-7.232780754566192627e-02,-7.687100768089294434e-02,-1.708460599184036255e-01,3.840153664350509644e-02,9.059156477451324463e-02,2.008453458547592163e-01,-1.061932668089866638e-01,-8.444194495677947998e-02,-6.781186908483505249e-02,1.231141537427902222e-01,-1.901488751173019409e-01,-1.526126861572265625e-01,-4.856253415346145630e-02,-1.829187422990798950e-01,-2.291791290044784546e-01,7.029876857995986938e-02,9.678037464618682861e-02,-6.040120497345924377e-02,2.006921023130416870e-01,1.776429824531078339e-02,3.643573075532913208e-02,7.364606112241744995e-02,-1.207549571990966797e-01,5.368501693010330200e-02,-1.824934482574462891e-01,1.453161519020795822e-02,-1.808926463127136230e-01
-5.519652739167213440e-03,-2.398081123828887939e-02,-1.088111661374568939e-02,-6.607116013765335083e-02,-6.120257079601287842e-03,1.141989752650260925e-01,7.533520460128784180e-02,-5.309079587459564209e-02,5.220862478017807007e-02,-7.114757597446441650e-02,2.162914723157882690e-01,1.967540681362152100e-01,-2.049367688596248627e-02,2.168726921081542969e-01,-5.278257280588150024e-02,2.442490309476852417e-02,1.677297428250312805e-02,-9.576707333326339722e-02,1.044154167175292969e-02,-5.455103237181901932e-04,-3.130530938506126404e-02,-3.933456912636756897e-02,4.618607461452484131e-02,-8.514660596847534180e-02,-4.082052782177925110e-02,1.675970405340194702e-01,1.658782064914703369e-01,-1.238654479384422302e-01,1.773128211498260498e-01,1.639686524868011475e-01,8.597164601087570190e-02,-1.802629083395004272e-01,-2.045192010700702667e-02,-6.021238863468170166e-03,-1.205632984638214111e-01,-7.237961143255233765e-02,-2.988773770630359650e-02,4.739640653133392334e-02,4.118606739211827517e-04,7.230048626661300659e-02,-1.031640321016311646e-01,1.468427013605833054e-02,-1.445152014493942261e-01,2.194181643426418304e-02,1.630486547946929932e-01,7.024864107370376587e-02,7.622260600328445435e-02,5.704094469547271729e-02,-1.436397805809974670e-02,-7.945742108859121799e-04
-1.619859933853149414e-01,1.256212592124938965e-02,-9.977556020021438599e-02,-3.864610195159912109e-02,1.452772468328475952e-01,-1.928046643733978271e-01,1.868031471967697144e-01,-1.039934381842613220e-01,1.443594843149185181e-01,-1.521809995174407959e-01,-1.353337168693542480e-01,-4.848681390285491943e-02,-6.315720081329345703e-02,-1.993104815483093262e-03,4.785691201686859131e-02,8.050382137298583984e-03,3.503946959972381592e-02,1.434239894151687622e-01,-1.501186192035675049e-01,1.076585203409194946e-01,-4.813075065612792969e-02,-1.695328205823898315e-01,6.304697692394256592e-02,1.960787326097488403e-01,-5.484251677989959717e-02,7.069565355777740479e-02,-1.596854925155639648e-01,1.706184893846511841e-01,1.317398697137832642e-01,-1.271269321441650391e-01,2.762836217880249023e-02,1.784879118204116821e-01,-1.704326570034027100e-01,-2.692832052707672119e-02,6.267489492893218994e-02,1.640062779188156128e-01,-1.532496511936187744e-02,1.788103729486465454e-01,-1.630054712295532227e-01,-1.788052916526794434e-02,7.026816904544830322e-02,-1.452422440052032471e-01,1.263194531202316284e-01,-1.515068113803863525e-02,8.439733088016510010e-02,1.868436783552169800e-01,-1.983277499675750732e-01,-3.175161778926849365e-02,-1.879917234182357788e-01,-1.740445345640182495e-01
2.038530409336090088e-01,-4.310197755694389343e-02,-1.693844981491565704e-02,-1.726906299591064453e-01,-7.254678755998611450e-02,1.230281293392181396e-01,-8.170741796493530273e-02,2.158904448151588440e-02,2.346067875623703003e-02,1.674582362174987793e-01,3.070158697664737701e-02,1.949902772903442383e-01,-6.061344966292381287e-02,5.511067062616348267e-02,4.817803949117660522e-02,-9.300519526004791260e-02,9.639285504817962646e-02,1.502780318260192871e-01,-1.467640846967697144e-01,1.394074410200119019e-01,-2.496868371963500977e-02,1.197506561875343323e-01,-1.969713568687438965e-01,-5.251469835638999939e-02,-1.034661531448364258e-01,-1.471974700689315796e-01,-3.510115668177604675e-02,1.941412570886313915e-03,1.766539663076400757e-01,-1.892913505434989929e-02,6.427162140607833862e-02,-1.514819562435150146e-01,-1.822442561388015747e-01,-1.889825910329818726e-01,1.994494646787643433e-01,1.717855632305145264e-01,1.097951605916023254e-01,1.738904714584350586e-01,-1.344584077596664429e-01,1.079071387648582458e-01,-5.134445056319236755e-02,1.322150379419326782e-01,1.913431473076343536e-02,-1.404660940170288086e-01,1.598680168390274048e-01,1.281055361032485962e-01,-6.490400433540344238e-02,5.157477781176567078e-02,-3.753883764147758484e-02,-7.754202932119369507e-02
1.647651940584182739e-01,-1.436573863029479980e-01,7.482413947582244873e-02,5.525450408458709717e-02,-3.824058175086975098e-02,6.719963252544403076e-02,1.833309084177017212e-01,1.923933178186416626e-01,8.084504306316375732e-02,-5.575992166996002197e-02,1.934061795473098755e-01,7.826788723468780518e-02,-1.897870004177093506e-01,-1.368375867605209351e-01,-1.260013282299041748e-01,-4.586461186408996582e-02,-1.280214786529541016e-01,-1.308946609497070312e-01,-1.240841448307037354e-01,3.710269927978515625e-02,1.783987432718276978e-01,2.235189080238342285e-03,-1.122178509831428528e-01,-6.880865991115570068e-02,1.953839808702468872e-01,-5.953787267208099365e-02,-6.141123175621032715e-02,1.880462616682052612e-01,6.354139745235443115e-02,1.856735497713088989e-01,1.911817938089370728e-01,1.727274805307388306e-01,1.383315473794937134e-01,-1.764394491910934448e-01,1.907028406858444214e-01,-1.214574947953224182e-01,1.397837847471237183e-01,-8.287920802831649780e-02,1.814000308513641357e-02,-4.566437005996704102e-02,1.966276317834854126e-01,-9.034120291471481323e-02,-5.802068114280700684e-02,-1.744153946638107300e-01,-1.918567568063735962e-01,-1.532595604658126831e-01,1.686259955167770386e-01,-1.847702711820602417e-01,1.317931562662124634e-01,1.987261623144149780e-01
7.187524437904357910e-02,-1.332266479730606079e-01,4.521661624312400818e-02,-1.785895973443984985e-01,7.107505947351455688e-02,1.815458834171295166e-01,1.444614231586456299e-01,-1.390144228935241699e-01,-1.586732268333435059e-01,-6.784956157207489014e-02,9.038452990353107452e-03,-7.718435674905776978e-02,-1.026892140507698059e-01,9.614906460046768188e-02,-1.492815911769866943e-01,-1.111556813120841980e-01,2.600769512355327606e-02,2.017071396112442017e-01,1.237224489450454712e-01,5.861025676131248474e-02,-2.298732548952102661e-01,1.350525915622711182e-01,-2.584856376051902771e-02,1.749232411384582520e-01,-1.135595813393592834e-01,1.166235655546188354e-01,1.256176619790494442e-03,5.608863383531570435e-02,-5.384432896971702576e-02,1.965922713279724121e-01,1.580229103565216064e-01,-2.543526515364646912e-02,-2.531952038407325745e-02,-1.220022141933441162e-01,2.003816515207290649e-01,-1.150762382894754410e-02,-1.855250447988510132e-01,6.735761463642120361e-02,-1.932806223630905151e-01,-2.014212310314178467e-01,8.681321144104003906e-02,-2.951979823410511017e-02,1.088410336524248123e-02,1.806232482194900513e-01,-5.334809888154268265e-03,2.505877427756786346e-02,1.101671718060970306e-02,1.315329074859619141e-01,1.305153965950012207e-02,8.975202217698097229e-03
8.276201784610748291e-03,-2.361279353499412537e-02,1.648711226880550385e-02,-1.236216947436332703e-01,2.421049214899539948e-02,1.834498047828674316e-01,-1.444070339202880859e-01,1.702778935432434082e-01,-9.322459250688552856e-02,-1.225132495164871216e-01,2.362142689526081085e-02,9.242014586925506592e-02,1.876516081392765045e-02,7.362928241491317749e-02,1.798748224973678589e-01,1.297986060380935669e-01,8.953629434108734131e-02,1.308709383010864258e-03,-2.905711531639099121e-03,2.012746408581733704e-02,-4.418038204312324524e-02,3.950770944356918335e-02,1.616159379482269287e-01,1.360749900341033936e-01,-5.434813722968101501e-02,1.418671309947967529e-01,-2.000668048858642578e-01,1.706572026014328003e-01,1.720609068870544434e-01,-3.152786055579781532e-03,9.025479108095169067e-02,1.699341833591461182e-01,-4.778461530804634094e-02,-2.045517414808273315e-01,-2.553915604948997498e-02,-5.000458564609289169e-03,1.036010030657052994e-02,-6.786211580038070679e-02,-1.512586604803800583e-02,-1.669603027403354645e-02,-1.919874995946884155e-01,2.080633305013179779e-02,-1.275298297405242920e-01,-1.805275529623031616e-01,-1.869149655103683472e-01,5.336938425898551941e-02,1.312300860881805420e-01,2.760451287031173706e-02,1.380754560232162476e-01,-1.286199130117893219e-02
4.006783664226531982e-02,-2.357055693864822388e-01,-1.081330031156539917e-01,1.345605701208114624e-01,-3.662799298763275146e-02,-6.349618732929229736e-02,1.809579133987426758e-01,3.282924741506576538e-02,3.651165962219238281e-02,-4.135880991816520691e-02,4.888356849551200867e-02,-1.631426066160202026e-01,-4.013707861304283142e-02,1.972134113311767578e-01,-2.627384848892688751e-02,1.985795646905899048e-01,-1.825608909130096436e-01,-4.221272096037864685e-02,-1.724114418029785156e-01,1.484846696257591248e-02,-1.445895135402679443e-01,7.780171185731887817e-02,1.638626307249069214e-01,1.344441026449203491e-01,1.750038936734199524e-02,7.282272726297378540e-02,1.407111287117004395e-01,1.075758878141641617e-02,-1.869411617517471313e-01,6.427219510078430176e-02,1.555832624435424805e-01,-1.985840052366256714e-01,-3.233221918344497681e-02,-1.213218201883137226e-03,-1.265363246202468872e-01,1.662121564149856567e-01,-1.845345050096511841e-01,1.385847777128219604e-01,4.038370773196220398e-02,-1.329929083585739136e-01,2.058945000171661377e-01,1.236410140991210938e-01,-1.376380026340484619e-01,-2.002480030059814453e-01,1.727837920188903809e-01,1.155947744846343994e-01,-7.468851655721664429e-02,-9.585780650377273560e-02,-2.929431572556495667e-02,-3.335228189826011658e-02
1.322902143001556396e-01,1.197000313550233841e-02,-1.476863399147987366e-02,-8.348435163497924805e-02,1.273171752691268921e-01,-3.424647822976112366e-02,-1.844585090875625610e-01,1.125837564468383789e-01,1.951632201671600342e-01,2.598285442218184471e-03,-4.128041490912437439e-02,1.755990236997604370e-01,1.633812338113784790e-01,2.213894128799438477e-01,-1.341126263141632080e-01,3.302478045225143433e-02,-1.911649256944656372e-01,-1.796108335256576538e-01,1.345451921224594116e-01,-8.064910024404525757e-02,-1.958204805850982666e-01,9.281861037015914917e-02,2.031924128532409668e-01,1.312581598758697510e-01,4.692653566598892212e-02,1.708804666996002197e-01,-6.086942180991172791e-02,7.352552562952041626e-02,-1.119119375944137573e-01,-3.044300712645053864e-02,1.649228781461715698e-01,1.780727356672286987e-01,-7.132671773433685303e-02,1.659158803522586823e-02,2.152813374996185303e-01,-9.010382741689682007e-02,8.583766967058181763e-02,2.452459186315536499e-01,1.643221229314804077e-01,-3.756774822250008583e-03,4.637147486209869385e-02,-2.101552188396453857e-01,1.603936031460762024e-02,-9.070451557636260986e-02,1.835785955190658569e-01,-2.943540178239345551e-02,1.901240795850753784e-01,-1.557077914476394653e-01,-2.895504608750343323e-02,1.405501067638397217e-01
-3.962621837854385376e-02,-7.120421528816223145e-02,1.581535488367080688e-01,7.766061276197433472e-02,4.413919150829315186e-02,-8.178801089525222778e-02,-1.886620372533798218e-01,1.603217422962188721e-01,1.592531800270080566e-01,1.049497127532958984e-01,-1.120302453637123108e-01,1.370850354433059692e-01,-1.227965131402015686e-01,2.207183651626110077e-02,-1.666815727949142456e-01,-1.385196149349212646e-01,-8.849641680717468262e-02,6.466531008481979370e-02,1.614995151758193970e-01,1.151828020811080933e-01,-1.870414055883884430e-02,-1.010760217905044556e-01,1.666568219661712646e-01,-3.869716078042984009e-02,-1.541404873132705688e-01,1.973541826009750366e-01,1.856353431940078735e-01,-1.741206645965576172e-01,1.441634166985750198e-02,3.317457437515258789e-02,6.442856788635253906e-02,3.263559564948081970e-02,8.465991914272308350e-02,-1.126981526613235474e-01,7.763931155204772949e-02,1.652104556560516357e-01,5.599142611026763916e-02,1.330059487372636795e-03,2.013700827956199646e-02,1.812678575515747070e-01,-1.535111665725708008e-01,6.764495372772216797e-02,8.983348309993743896e-02,-3.877960890531539917e-02,1.806418448686599731e-01,1.615206152200698853e-01,1.057818382978439331e-01,-7.764536887407302856e-02,4.131366685032844543e-02,1.202172487974166870e-01
-1.404020190238952637e-01,1.901009976863861084e-01,1.277163997292518616e-02,-1.303235590457916260e-01,2.058494389057159424e-01,-7.787970453500747681e-02,5.631179735064506531e-02,6.296473741531372070e-02,1.843821704387664795e-01,-1.342800408601760864e-01,3.894508257508277893e-02,1.654535382986068726e-01,-1.351514160633087158e-01,5.491040274500846863e-02,2.277575433254241943e-03,-1.238126829266548157e-01,1.063722278922796249e-02,-2.040094733238220215e-01,5.985869467258453369e-02,5.940692126750946045e-02,1.190368384122848511e-01,-8.666254580020904541e-02,1.155316084623336792e-02,-2.239576727151870728e-02,-1.136303097009658813e-01,6.229916587471961975e-02,-1.901019066572189331e-01,1.477594375610351562e-01,2.078235149383544922e-03,2.461949549615383148e-02,-1.486931145191192627e-01,2.572183310985565186e-02,-1.325465589761734009e-01,9.469374269247055054e-02,2.384106256067752838e-02,1.186844035983085632e-01,-1.436405330896377563e-01,-1.786122769117355347e-01,-1.109878197312355042e-01,6.105529144406318665e-02,1.312285512685775757e-01,1.645563989877700806e-01,-1.570740342140197754e-01,-1.932158619165420532e-01,-2.579937875270843506e-02,-1.905671656131744385e-01,9.296930581331253052e-02,5.039867479354143143e-03,1.522721797227859497e-01,1.508095301687717438e-02
-1.753582209348678589e-01,-1.439529806375503540e-01,1.477151177823543549e-02,-9.746129065752029419e-02,7.349805440753698349e-03,-1.844640821218490601e-01,1.197536066174507141e-01,1.662929952144622803e-01,-2.610545232892036438e-02,-1.243312805891036987e-01,1.156958099454641342e-02,-1.835702508687973022e-01,1.116631645709276199e-02,-7.068499922752380371e-02,-5.145175755023956299e-02,-1.104326024651527405e-01,-7.450096309185028076e-02,1.329866498708724976e-01,7.647870481014251709e-02,2.056945562362670898e-01,2.217318713665008545e-01,2.395861595869064331e-02,-4.808973148465156555e-02,-5.886542052030563354e-02,5.149337276816368103e-02,7.345610857009887695e-02,-3.957409784197807312e-02,1.961750090122222900e-01,-1.208797171711921692e-01,9.165127575397491455e-02,-1.941195130348205566e-01,2.045374810695648193e-01,-1.398848555982112885e-02,-4.209257196635007858e-03,1.508626937866210938e-01,-1.035953611135482788e-01,-1.622461229562759399e-01,9.061507880687713623e-02,1.135152131319046021e-01,1.528879851102828979e-01,-5.445773899555206299e-02,-1.740859001874923706e-01,4.513350129127502441e-02,1.942955851554870605e-01,1.342173963785171509e-01,1.586447954177856445e-01,-1.020900681614875793e-01,7.659665495157241821e-02,1.298193633556365967e-01,9.700325876474380493e-02
1.585330814123153687e-01,-1.201629042625427246e-01,9.581203758716583252e-02,-1.732290089130401611e-01,-1.402378231287002563e-01,8.325586467981338501e-02,7.235250622034072876e-02,-1.585378795862197876e-01,5.180339887738227844e-02,-9.574746340513229370e-02,2.064919620752334595e-01,-1.497758668847382069e-03,-1.083546597510576248e-02,1.781243085861206055e-01,5.862562451511621475e-03,-6.899680197238922119e-02,-1.492933034896850586e-01,1.475424785166978836e-02,1.827361136674880981e-01,-1.151409465819597244e-02,-1.838149875402450562e-01,-1.479118466377258301e-01,1.779331862926483154e-01,-5.394189059734344482e-02,-1.985757946968078613e-01,-9.348190575838088989e-02,-1.011119186878204346e-01,-1.431006193161010742e-01,-1.249198913574218750e-01,1.302480138838291168e-02,-1.048298627138137817e-01,2.792874723672866821e-02,1.594746857881546021e-01,4.149549826979637146e-02,1.193613409996032715e-01,-8.705968409776687622e-02,1.039041951298713684e-02,-1.141927763819694519e-01,1.641283780336380005e-01,-5.064503755420446396e-03,1.931222975254058838e-01,1.958007067441940308e-01,-1.878688782453536987e-01,1.026935502886772156e-01,7.986090332269668579e-02,6.200895085930824280e-02,1.263800114393234253e-01,-6.694032996892929077e-02,-8.132809400558471680e-02,1.862962543964385986e-02
9.670601785182952881e-02,2.007652670145034790e-01,-1.835950314998626709e-01,-1.364291012287139893e-01,1.249016970396041870e-01,1.428973823785781860e-01,-4.195803403854370117e-02,-3.454308211803436279e-02,2.197255194187164307e-02,2.958562970161437988e-02,1.468445509672164917e-01,7.914759218692779541e-02,-1.273021399974822998e-01,1.336359232664108276e-01,-9.588047862052917480e-02,9.906758368015289307e-02,-1.551197469234466553e-01,7.793875038623809814e-02,1.634908467531204224e-01,-2.032438367605209351e-01,-6.781697273254394531e-02,3.022786974906921387e-02,3.210206329822540283e-02,-3.319138288497924805e-02,1.089509278535842896e-01,-1.342881917953491211e-01,4.487469792366027832e-03,-2.049910426139831543e-01,7.714428007602691650e-02,-1.795469820499420166e-01,-8.333147317171096802e-02,3.129921853542327881e-02,2.053084522485733032e-01,1.655712574720382690e-01,-5.817838013172149658e-02,-1.952760815620422363e-01,-3.721542656421661377e-02,1.110695451498031616e-01,-7.276658713817596436e-02,1.336586326360702515e-01,-1.291188895702362061e-01,5.527250468730926514e-02,-4.601979255676269531e-02,-6.738282740116119385e-02,-4.445762932300567627e-02,1.607374399900436401e-01,-1.471514403820037842e-01,2.833703160285949707e-02,-3.656001389026641846e-02,1.336102038621902466e-01
-1.633618623018264771e-01,1.573191434144973755e-01,-1.259765475988388062e-01,2.142468392848968506e-01,5.721687898039817810e-02,8.487653732299804688e-02,-6.679156422615051270e-02,1.273344904184341431e-01,-2.057540863752365112e-01,-1.743602305650711060e-01,9.342468529939651489e-02,4.699873551726341248e-02,-1.377657204866409302e-01,9.001605212688446045e-02,9.227257966995239258e-02,1.155795305967330933e-01,-5.125019326806068420e-02,3.480478748679161072e-02,-1.639045178890228271e-01,-1.702418923377990723e-01,7.358651608228683472e-02,1.657965183258056641e-01,1.197010129690170288e-01,1.060786619782447815e-01,4.980491846799850464e-02,-2.015998661518096924e-01,3.109713271260261536e-02,5.125223472714424133e-02,-1.186445355415344238e-01,-1.846127659082412720e-01,3.015977330505847931e-02,-1.699835509061813354e-01,-6.631094217300415039e-02,8.736412972211837769e-02,-1.026126369833946228e-02,1.787663102149963379e-01,-9.616635739803314209e-02,3.556555882096290588e-02,-5.237879976630210876e-02,-1.640190929174423218e-01,1.341096609830856323e-01,7.420416176319122314e-02,-1.519758552312850952e-01,-7.298063486814498901e-02,1.499141901731491089e-01,-1.171300932765007019e-01,-3.778584674000740051e-02,1.173690557479858398e-01,4.518149793148040771e-02,1.750117540359497070e-02
2.018127739429473877e-01,2.324164211750030518e-01,-1.207866612821817398e-02,2.159147709608078003e-01,1.659114956855773926e-01,-1.320065110921859741e-01,-1.309226900339126587e-01,-1.044743210077285767e-01,1.674477159976959229e-01,-1.858552992343902588e-01,1.610241085290908813e-01,-3.318844828754663467e-03,-1.255676001310348511e-01,-1.281102001667022705e-01,2.373134903609752655e-02,-1.826416254043579102e-01,-2.001017183065414429e-01,4.519806802272796631e-02,-1.035298258066177368e-01,4.032347723841667175e-02,2.208541780710220337e-01,-3.877950459718704224e-02,7.265158742666244507e-02,1.343753933906555176e-01,1.887692362070083618e-01,-1.902656257152557373e-01,-1.659828871488571167e-01,-1.297706514596939087e-01,-2.731155976653099060e-02,9.949691593647003174e-02,9.778636693954467773e-02,-5.991760641336441040e-02,-1.776848137378692627e-01,-1.191595420241355896e-01,-1.514342129230499268e-01,1.532927006483078003e-01,-1.821311190724372864e-02,-1.362524777650833130e-01,1.601506173610687256e-01,-1.983370929956436157e-01,9.437000751495361328e-02,1.659194082021713257e-01,-1.895889192819595337e-01,3.298665210604667664e-02,1.326953321695327759e-01,-1.395906507968902588e-01,7.939019799232482910e-02,-1.425557434558868408e-01,8.112999796867370605e-02,-1.663399338722229004e-01
-1.477747112512588501e-01,-2.178166210651397705e-01,6.568154692649841309e-02,-6.979206949472427368e-02,5.728737264871597290e-02,-1.921418905258178711e-01,1.706673353910446167e-01,-2.386683784425258636e-02,-1.897939294576644897e-01,1.660445481538772583e-01,-4.342891275882720947e-02,1.840551644563674927e-01,1.811555027961730957e-01,3.877581283450126648e-02,-1.233504489064216614e-01,-4.526093229651451111e-02,6.692568957805633545e-02,-1.984757632017135620e-01,1.825444549322128296e-01,-8.287714421749114990e-02,-1.301914155483245850e-01,-7.178592681884765625e-02,1.138025820255279541e-01,-1.327615827322006226e-01,1.812775880098342896e-01,-1.851223707199096680e-01,6.718803942203521729e-02,2.577930688858032227e-03,1.733875423669815063e-01,-1.206763833761215210e-01,-1.231628432869911194e-01,1.624194979667663574e-01,1.118127852678298950e-01,-1.026516109704971313e-01,4.444634076207876205e-03,1.702322363853454590e-01,-1.062191575765609741e-01,1.522624790668487549e-01,5.372358858585357666e-02,4.128219932317733765e-02,3.873469680547714233e-02,1.906324326992034912e-01,-9.589073061943054199e-02,6.998977065086364746e-02,1.583792269229888916e-02,-2.394181117415428162e-02,-8.574614673852920532e-02,-1.525759547948837280e-01,9.355721622705459595e-02,-1.982230544090270996e-01
1.111689284443855286e-01,1.749198585748672485e-01,2.413131482899188995e-02,-1.218671724200248718e-01,-1.228753030300140381e-01,-9.712129086256027222e-02,-1.616355329751968384e-01,8.798523247241973877e-02,1.189240887761116028e-01,-4.240393638610839844e-02,-1.986350119113922119e-01,-1.329086124897003174e-01,-1.681732237339019775e-01,-7.480795029550790787e-03,1.531585901975631714e-01,-1.255750507116317749e-01,8.824374526739120483e-03,1.287575513124465942e-01,-1.841517239809036255e-01,-1.754050850868225098e-01,-5.930818244814872742e-02,-1.966694742441177368e-01,-3.805588930845260620e-02,-1.153485998511314392e-01,-4.076699912548065186e-02,4.431887343525886536e-02,1.813198924064636230e-01,-6.624807137995958328e-03,4.546626657247543335e-02,-9.944599587470293045e-04,1.323071569204330444e-01,-8.074712008237838745e-02,-1.473564356565475464e-01,1.529183983802795410e-01,2.158529311418533325e-02,1.042417366988956928e-03,3.679785877466201782e-02,6.253962963819503784e-02,7.452379912137985229e-02,-1.972097903490066528e-01,1.047340929508209229e-01,-2.831707149744033813e-02,6.775096803903579712e-02,1.771536022424697876e-01,1.134047135710716248e-01,-1.064059287309646606e-01,1.222327426075935364e-01,-8.896607160568237305e-02,-1.079627946019172668e-01,2.055438160896301270e-01
-1.029231697320938110e-01,-1.466303616762161255e-01,8.559107035398483276e-02,6.121101975440979004e-02,1.769956052303314209e-01,8.376204222440719604e-02,1.417580693960189819e-01,-1.669980138540267944e-01,1.598080396652221680e-01,-1.476835608482360840e-01,1.983200907707214355e-01,1.981523931026458740e-01,1.476324498653411865e-01,2.234081923961639404e-01,-2.072220295667648315e-01,-1.910061240196228027e-01,-1.313700806349515915e-02,-1.704163402318954468e-01,-5.595009028911590576e-02,-9.770422428846359253e-02,1.396823227405548096e-01,2.219594568014144897e-01,-5.220537632703781128e-02,2.325574457645416260e-01,-5.682646855711936951e-02,2.280434221029281616e-01,-2.007527835667133331e-02,-2.658768557012081146e-02,-8.695777505636215210e-02,7.881632447242736816e-02,-8.860682696104049683e-02,-1.951159089803695679e-01,-1.854005157947540283e-01,1.277966648340225220e-01,1.312648504972457886e-01,9.433121234178543091e-02,1.534166932106018066e-02,9.323051571846008301e-02,-1.440418064594268799e-01,1.006875187158584595e-01,-1.157813053578138351e-02,9.548480808734893799e-02,4.769079387187957764e-02,-1.413295418024063110e-01,-1.528126746416091919e-01,-2.347279526293277740e-02,2.183237522840499878e-01,1.216040551662445068e-01,-4.595324769616127014e-02,-2.990341372787952423e-02
-1.044123247265815735e-01,-3.743259981274604797e-02,2.253490388393402100e-01,3.122942708432674408e-02,9.801736474037170410e-02,1.487055122852325439e-01,2.091556787490844727e-01,2.164574526250362396e-02,-2.146987244486808777e-03,1.990792155265808105e-01,1.459430344402790070e-02,-1.547103375196456909e-01,-1.567644649185240269e-03,-1.703371256589889526e-01,2.138079553842544556e-01,1.429767310619354248e-01,1.134945899248123169e-01,-4.341840744018554688e-02,-1.122187376022338867e-01,-2.488277852535247803e-02,-8.237255364656448364e-02,-6.688185781240463257e-02,-1.170912608504295349e-01,-5.237836018204689026e-02,-1.819167435169219971e-01,-2.017179876565933228e-01,-1.465673297643661499e-01,-1.218547695316374302e-04,8.346998691558837891e-02,-1.447155606001615524e-02,-8.008856326341629028e-02,-1.600469201803207397e-01,1.426366567611694336e-01,5.123330652713775635e-02,-1.253004670143127441e-01,-1.168999895453453064e-01,2.020130306482315063e-01,-2.545866370201110840e-01,4.395423084497451782e-02,1.099671199917793274e-01,-1.082020699977874756e-01,9.313670545816421509e-02,7.628349214792251587e-02,1.285331696271896362e-01,2.068380713462829590e-01,5.467589199542999268e-02,4.495030641555786133e-02,-5.201095715165138245e-03,-4.687201976776123047e-02,1.958215981721878052e-01
-1.301769912242889404e-02,-7.756333053112030029e-02,-9.776789695024490356e-02,7.187177240848541260e-02,-5.399243533611297607e-02,6.001399457454681396e-02,1.863058358430862427e-01,8.520556986331939697e-02,1.653672754764556885e-02,7.054497301578521729e-02,-1.801254004240036011e-01,1.139037460088729858e-01,-4.431143403053283691e-02,9.956149756908416748e-02,-2.464652061462402344e-03,-6.881251931190490723e-03,8.723124861717224121e-03,-1.512601375579833984e-01,-1.145094633102416992e-03,3.990054130554199219e-03,2.015232294797897339e-01,-1.160609126091003418e-01,-3.141811490058898926e-02,-4.589042067527770996e-02,-1.271274089813232422e-01,-4.916247725486755371e-02,-6.411910057067871094e-03,-1.931299269199371338e-01,8.076508343219757080e-02,1.463790088891983032e-01,1.180656105279922485e-01,1.484096050262451172e-02,2.259731292724609375e-03,-6.075413525104522705e-02,-2.068911492824554443e-02,-1.308085918426513672e-01,-1.832260787487030029e-01,4.992784559726715088e-02,1.831536144018173218e-01,-1.087061762809753418e-01,1.271150261163711548e-01,-1.415893137454986572e-01,-9.119266271591186523e-02,6.792472302913665771e-02,-1.913752257823944092e-01,-1.978339254856109619e-01,-5.063584446907043457e-02,-1.836188733577728271e-01,-1.006886214017868042e-01,1.446545571088790894e-01
1.853177547454833984e-01,3.785882890224456787e-02,6.647987174801528454e-04,-1.925708055496215820e-01,-1.962064057588577271e-01,-8.822675049304962158e-02,-5.422709137201309204e-02,-1.851367652416229248e-01,1.877093873918056488e-02,1.515540331602096558e-01,-9.863331168889999390e-02,7.467316929250955582e-03,1.030138358473777771e-01,-3.555198013782501221e-02,5.555792246013879776e-03,1.692726835608482361e-02,-5.018321052193641663e-02,1.503667831420898438e-01,-1.183900833129882812e-01,5.148356407880783081e-02,-6.009187921881675720e-02,-1.177663877606391907e-01,-1.581214964389801025e-01,-1.621912606060504913e-02,-1.623103618621826172e-01,-1.508657820522785187e-02,1.104330942034721375e-01,1.719697713851928711e-01,2.966715022921562195e-02,1.091308146715164185e-01,-3.402942419052124023e-02,1.530154347419738770e-01,6.447494029998779297e-02,1.279162149876356125e-02,1.610235683619976044e-02,-1.487696021795272827e-01,-1.916007250547409058e-01,-1.103460714221000671e-01,3.200921416282653809e-02,1.736810207366943359e-01,-1.639252007007598877e-01,-3.772303462028503418e-02,9.759169071912765503e-03,-1.103807017207145691e-01,-2.939101494848728180e-02,-3.923668712377548218e-02,-1.439650892280042171e-03,-3.415707126259803772e-02,8.390381187200546265e-02,1.221380159258842468e-01
-1.955661475658416748e-01,9.717191755771636963e-02,-1.663537174463272095e-01,-7.397203147411346436e-02,-2.316847443580627441e-02,9.014432132244110107e-02,-9.874477982521057129e-03,-4.276403784751892090e-02,-7.162879407405853271e-02,5.702897906303405762e-03,1.292511075735092163e-01,-1.953725814819335938e-01,-1.960792243480682373e-01,3.952737152576446533e-02,-1.162227541208267212e-01,-7.298399507999420166e-02,-1.849476099014282227e-01,2.173997461795806885e-02,3.291785717010498047e-03,1.450099200010299683e-01,1.366173475980758667e-01,-2.023664116859436035e-01,-1.662208437919616699e-01,-1.808606237173080444e-01,-1.821512281894683838e-01,1.833111047744750977e-02,-1.814306527376174927e-01,7.795365154743194580e-02,-1.838777959346771240e-02,1.439517587423324585e-01,-3.394585847854614258e-02,1.816562265157699585e-01,1.831571906805038452e-01,-5.657589435577392578e-02,9.155781567096710205e-02,-8.942448347806930542e-02,-3.444638848304748535e-02,1.568011492490768433e-01,-1.626182049512863159e-01,-1.531093716621398926e-01,-1.041100695729255676e-01,1.334101706743240356e-01,9.083043038845062256e-02,-1.781305223703384399e-01,1.509528011083602905e-01,-1.774732768535614014e-01,-1.072086244821548462e-01,-2.175354957580566406e-02,-4.610024392604827881e-02,-1.485282629728317261e-01
1.222788318991661072e-01,2.618079185485839844e-01,2.299000024795532227e-01,-8.765216171741485596e-02,-1.790926605463027954e-01,3.727785497903823853e-02,-3.381653502583503723e-02,1.061454787850379944e-02,1.848880387842655182e-02,2.458688616752624512e-02,-1.206405907869338989e-01,-1.356971114873886108e-01,-2.857875311747193336e-03,1.396236848086118698e-02,-4.465926066040992737e-02,9.595395065844058990e-03,5.989436432719230652e-02,-2.104024589061737061e-02,-3.535771369934082031e-02,-1.431126296520233154e-01,2.055331766605377197e-01,1.144819632172584534e-01,-1.220597885549068451e-02,-5.822997540235519409e-02,-1.369379013776779175e-01,-9.581206738948822021e-02,-1.695340573787689209e-01,-4.304441437125205994e-02,-6.245053932070732117e-02,1.197113320231437683e-01,1.221897304058074951e-01,-2.069481909275054932e-01,1.307027190923690796e-01,1.921939551830291748e-01,1.994363814592361450e-01,-1.872807927429676056e-02,3.005729801952838898e-02,1.622300148010253906e-01,1.508154869079589844e-01,1.748619228601455688e-01,1.834611594676971436e-01,-6.933233886957168579e-02,-4.125599749386310577e-03,-2.542690373957157135e-02,1.664345413446426392e-01,-8.373063802719116211e-02,4.190865904092788696e-02,1.468463689088821411e-01,1.949120759963989258e-01,-1.940677613019943237e-01
-1.184641048312187195e-01,5.461098253726959229e-02,2.033858560025691986e-02,1.278737038373947144e-01,1.377983093261718750e-01,-1.245915517210960388e-01,-1.594724059104919434e-01,3.568594902753829956e-02,-9.931886196136474609e-02,1.670865863561630249e-01,-1.885819286108016968e-01,-9.240954369306564331e-02,1.851666569709777832e-01,4.409058019518852234e-02,-2.068252712488174438e-01,-3.838470578193664551e-02,-1.092796102166175842e-01,-3.712056577205657959e-02,1.197903603315353394e-01,1.641062945127487183e-01,1.237470805644989014e-01,-1.343226283788681030e-01,6.774047762155532837e-02,1.904241889715194702e-01,1.698990911245346069e-01,-1.604151129722595215e-01,-5.404993891716003418e-02,-2.297596074640750885e-02,-1.549396812915802002e-01,-5.525201931595802307e-02,4.007671028375625610e-03,1.018840521574020386e-01,-1.968005746603012085e-01,1.854831874370574951e-01,1.158901024609804153e-02,-1.136556789278984070e-01,-1.475023776292800903e-01,1.850552558898925781e-01,1.916785389184951782e-01,-1.651005446910858154e-01,1.119627133011817932e-01,-5.473925173282623291e-02,-2.089091390371322632e-02,1.984167844057083130e-01,-1.682777702808380127e-02,-2.318191528320312500e-02,8.385644108057022095e-02,2.674503065645694733e-02,-1.828909367322921753e-01,1.684735119342803955e-01
-1.233196482062339783e-01,-4.425948858261108398e-02,-1.078837886452674866e-01,-6.527633406221866608e-03,-6.846156436949968338e-03,-1.359670311212539673e-01,8.316762745380401611e-02,8.023680001497268677e-02,2.072077840566635132e-01,-1.760498732328414917e-01,-4.288677498698234558e-02,3.507099114358425140e-03,1.656365841627120972e-01,1.974370330572128296e-01,1.832211613655090332e-01,1.328035295009613037e-01,-1.043940037488937378e-01,-6.259901821613311768e-02,-4.308144748210906982e-02,1.200599297881126404e-01,1.219663694500923157e-01,1.630302667617797852e-01,-1.471655666828155518e-01,-2.035282552242279053e-01,1.184403076767921448e-01,6.952042132616043091e-02,2.767167240381240845e-02,-1.879890263080596924e-01,7.231418788433074951e-02,1.749979704618453979e-01,-2.697808109223842621e-02,1.149643510580062866e-01,-1.130696013569831848e-01,-5.207945033907890320e-02,1.617122590541839600e-01,9.520702064037322998e-02,-1.781877726316452026e-01,1.327233389019966125e-02,1.971253752708435059e-02,-8.319903165102005005e-03,1.142021045088768005e-01,-1.701988130807876587e-01,2.089182883501052856e-01,1.670028865337371826e-01,-9.000464342534542084e-03,1.680366247892379761e-01,1.402819156646728516e-01,-1.216800138354301453e-01,-4.230259358882904053e-02,1.563854664564132690e-01
3.792677447199821472e-02,8.834438025951385498e-02,-1.851296871900558472e-01,1.748921424150466919e-01,-3.348635882139205933e-02,-8.589563518762588501e-02,-1.278920471668243408e-01,9.902275353670120239e-02,-1.335656195878982544e-01,-7.338127493858337402e-02,1.925964504480361938e-01,-1.558745056390762329e-01,1.458563189953565598e-02,1.494861096143722534e-01,-1.011405289173126221e-01,1.475809067487716675e-01,-1.179575249552726746e-01,-1.813500523567199707e-01,2.586477994918823242e-02,-5.392377078533172607e-02,-1.041058972477912903e-01,1.721785664558410645e-01,-4.961802065372467041e-02,-1.350996941328048706e-01,-1.921090185642242432e-01,-1.716298758983612061e-01,-6.872884184122085571e-02,-8.225673437118530273e-02,-5.344361066818237305e-03,-1.709683686494827271e-01,1.140972524881362915e-01,-8.317318558692932129e-02,7.110461592674255371e-03,-7.575442641973495483e-02,1.170315295457839966e-01,1.280690431594848633e-01,1.314283460378646851e-01,5.349709093570709229e-02,-9.957625716924667358e-02,-9.454867243766784668e-02,-2.542267367243766785e-02,-8.244522847235202789e-03,-1.722202599048614502e-01,-1.295413970947265625e-01,-1.391729712486267090e-01,-1.053103953599929810e-01,4.248255491256713867e-02,3.005813620984554291e-02,-2.000886201858520508e-01,-1.334339678287506104e-01
3.478783369064331055e-02,-6.941087543964385986e-02,-1.900396309792995453e-02,1.125980913639068604e-01,4.445465654134750366e-02,-1.849134862422943115e-01,6.595843471586704254e-03,1.499473750591278076e-01,-1.187953948974609375e-01,-1.654300540685653687e-01,2.212114781141281128e-01,8.311212807893753052e-02,-9.292925894260406494e-02,4.943455010652542114e-02,1.602480262517929077e-01,-8.072540909051895142e-02,1.386533230543136597e-01,-1.291852742433547974e-01,2.625104784965515137e-02,8.024872094392776489e-02,-1.842360496520996094e-01,2.102832347154617310e-01,-1.949011981487274170e-01,-1.861922889947891235e-01,5.936660990118980408e-02,1.991804391145706177e-01,6.671621929854154587e-03,-4.741813987493515015e-02,-8.956359326839447021e-02,1.737732291221618652e-01,-1.210202202200889587e-01,-7.409562915563583374e-02,-2.535913139581680298e-03,2.133765965700149536e-01,-1.220290586352348328e-01,1.701380163431167603e-01,-2.181622087955474854e-01,2.166802436113357544e-01,-8.064120193012058735e-04,-1.827115863561630249e-01,1.795892603695392609e-02,-8.394424617290496826e-02,1.038047671318054199e-01,-2.529262751340866089e-02,-1.406320929527282715e-01,-7.171948254108428955e-02,1.135954111814498901e-01,-1.472368240356445312e-01,6.733407080173492432e-02,4.223350062966346741e-02
-1.304732263088226318e-01,3.823042288422584534e-02,4.446022585034370422e-02,-7.665500789880752563e-02,3.669270873069763184e-02,-6.256795674562454224e-02,-5.814395472407341003e-02,1.219030320644378662e-01,8.676658570766448975e-02,-1.332929730415344238e-01,-2.051232010126113892e-02,-1.932303905487060547e-01,-2.042182981967926025e-01,-2.279119193553924561e-01,9.863006323575973511e-02,-1.110539957880973816e-02,-1.822482496500015259e-01,1.498230397701263428e-01,-1.774875521659851074e-01,9.933524578809738159e-02,-6.835224479436874390e-02,-1.090535521507263184e-01,-1.670916378498077393e-01,1.824718266725540161e-01,1.168302372097969055e-01,-1.548009067773818970e-01,8.415057323873043060e-03,-2.049440592527389526e-01,9.194045513868331909e-02,7.199140638113021851e-02,-7.517380267381668091e-02,1.973033398389816284e-01,-8.979177474975585938e-02,9.266842156648635864e-02,-1.262808442115783691e-01,9.164686501026153564e-02,-1.158781424164772034e-01,-2.438060492277145386e-01,1.835502982139587402e-01,-1.394046247005462646e-01,1.228201761841773987e-01,9.849282354116439819e-02,9.703592956066131592e-02,4.531439021229743958e-02,4.910038039088249207e-02,1.514450013637542725e-01,-2.325704395771026611e-01,1.432185918092727661e-01,-3.481914848089218140e-02,-1.269074529409408569e-01
-1.499265581369400024e-01,1.521041095256805420e-01,1.954226791858673096e-01,-1.860631853342056274e-01,7.695156615227460861e-03,1.844459921121597290e-01,1.862174719572067261e-01,-1.222139745950698853e-01,-8.115378767251968384e-02,7.387007772922515869e-02,1.596959829330444336e-01,4.141736403107643127e-02,-8.846634626388549805e-02,-7.040020078420639038e-02,1.513009704649448395e-02,2.042025476694107056e-01,9.344708919525146484e-02,8.979095518589019775e-02,1.037363857030868530e-01,-9.429773688316345215e-02,7.065390050411224365e-02,-1.092371046543121338e-01,8.135254681110382080e-02,-3.536532074213027954e-02,-1.598638743162155151e-01,-7.419086247682571411e-02,-7.671087980270385742e-02,1.514372825622558594e-01,-8.183924853801727295e-02,1.887492090463638306e-01,1.054416298866271973e-01,1.920136064291000366e-01,-1.801206618547439575e-01,-1.878041774034500122e-01,-6.747752428054809570e-02,1.029025316238403320e-01,1.774122714996337891e-01,-3.878497704863548279e-02,1.079442054033279419e-01,-1.671926677227020264e-01,9.112630039453506470e-02,-3.486876562237739563e-02,-1.670630276203155518e-01,-1.919324696063995361e-02,1.355430930852890015e-01,-1.592025160789489746e-03,8.324631303548812866e-02,6.890393793582916260e-02,-1.359713673591613770e-01,1.656483560800552368e-01
6.829570978879928589e-02,-1.513591855764389038e-01,1.557760685682296753e-01,-1.850199997425079346e-01,-5.368039011955261230e-02,1.853752434253692627e-01,-3.049837425351142883e-02,1.461881548166275024e-01,-8.326584938913583755e-04,-3.354251384735107422e-04,1.298676133155822754e-01,2.006505280733108521e-01,8.237747848033905029e-02,-9.143505990505218506e-02,8.095484226942062378e-02,2.569281205069273710e-04,8.341250568628311157e-02,9.751746803522109985e-02,-2.119547128677368164e-02,-6.626250594854354858e-02,5.754728242754936218e-02,-6.650890409946441650e-02,-2.042957395315170288e-01,-1.584929078817367554e-01,1.707901619374752045e-02,1.226353347301483154e-01,2.991298679262399673e-03,2.000660598278045654e-01,-1.599760502576828003e-01,-1.992526054382324219e-01,1.976770162582397461e-01,-1.981079727411270142e-01,1.673405170440673828e-01,1.788265258073806763e-01,-1.758649796247482300e-01,1.231983676552772522e-01,-4.530895501375198364e-03,-1.632679104804992676e-01,-1.334717571735382080e-01,-6.159024313092231750e-02,-1.781807541847229004e-01,-8.793876320123672485e-02,9.491294622421264648e-02,-1.234862729907035828e-01,-8.794236183166503906e-02,1.018535941839218140e-01,1.913527995347976685e-01,1.931013613939285278e-01,-1.407117396593093872e-01,1.793231256306171417e-02
-8.076523989439010620e-02,9.981552511453628540e-02,-1.345222890377044678e-01,1.620523035526275635e-01,-1.289106160402297974e-01,8.240374922752380371e-02,1.480167210102081299e-01,-4.176035523414611816e-02,1.904420256614685059e-01,-1.897131651639938354e-01,-1.249584332108497620e-01,1.062351837754249573e-01,-1.199642494320869446e-01,-6.707166880369186401e-02,-7.531940937042236328e-02,1.484193801879882812e-01,-1.449897736310958862e-01,-4.252782836556434631e-02,-7.763840258121490479e-02,-9.864335879683494568e-03,-2.033824026584625244e-01,-4.396843910217285156e-02,1.856086999177932739e-01,1.388123780488967896e-01,-9.329476952552795410e-02,-1.583950817584991455e-01,8.685805834829807281e-03,-1.821155101060867310e-01,-1.999139189720153809e-01,1.167868226766586304e-01,-1.988198459148406982e-01,-9.950239956378936768e-02,-3.257590904831886292e-02,-1.780298054218292236e-01,-1.698213219642639160e-01,-1.942523382604122162e-02,1.529125776141881943e-02,5.851316824555397034e-02,-1.254894286394119263e-01,1.434685289859771729e-01,1.135735884308815002e-01,-2.866080403327941895e-02,-4.489014297723770142e-02,1.790917962789535522e-01,1.426712870597839355e-01,9.418492764234542847e-02,1.721568405628204346e-01,1.135649457573890686e-01,-1.947895437479019165e-01,4.610971361398696899e-02
2.788447774946689606e-02,-1.151684597134590149e-01,-2.132317423820495605e-01,1.566928774118423462e-01,-6.275052577257156372e-02,1.545998081564903259e-02,-8.852397440932691097e-04,9.278286248445510864e-02,8.775822073221206665e-02,-4.394233599305152893e-02,8.093917369842529297e-02,1.155146136879920959e-01,-5.976231023669242859e-02,1.461104750633239746e-01,-2.443714626133441925e-02,-5.918744951486587524e-02,1.770798265933990479e-01,1.247642263770103455e-01,4.276645183563232422e-02,5.572538357228040695e-03,1.660197377204895020e-01,-8.649433963000774384e-03,-1.555847376585006714e-01,1.995843946933746338e-01,-8.794079720973968506e-02,7.093728333711624146e-02,1.057858169078826904e-01,4.130502790212631226e-02,1.707357615232467651e-01,3.895281255245208740e-02,-6.247961148619651794e-02,6.165551021695137024e-02,1.934313625097274780e-01,-1.442566514015197754e-01,1.543567478656768799e-01,-8.212203159928321838e-03,4.253142699599266052e-02,1.336318701505661011e-01,-2.450728230178356171e-02,-7.454544305801391602e-02,1.399391144514083862e-01,1.186425834894180298e-01,2.155717313289642334e-01,-1.149248033761978149e-01,-9.909820556640625000e-02,8.126202225685119629e-02,1.781884133815765381e-01,-1.025482341647148132e-01,-6.042765453457832336e-02,-1.366720944643020630e-01
-4.033472388982772827e-02,-2.342460006475448608e-01,-1.561446487903594971e-01,-2.080056816339492798e-02,1.125968545675277710e-01,7.821423560380935669e-02,7.244699448347091675e-02,-1.852477490901947021e-01,8.477485924959182739e-02,-1.653384231030941010e-02,1.550418585538864136e-01,1.058663800358772278e-01,1.954341828823089600e-01,-4.051393270492553711e-02,6.106209754943847656e-02,-4.001057520508766174e-02,-1.479197293519973755e-01,1.951121091842651367e-01,-4.635784029960632324e-02,-1.980121433734893799e-02,-8.943840861320495605e-02,-1.746709942817687988e-01,-4.377878829836845398e-02,-1.641020029783248901e-01,-1.824532598257064819e-01,1.140743121504783630e-01,1.876447647809982300e-01,9.501513838768005371e-02,1.811003983020782471e-01,-1.229150779545307159e-02,2.769802138209342957e-02,-1.726268976926803589e-01,-5.904457345604896545e-02,1.512711793184280396e-01,-6.788456439971923828e-02,-1.827533096075057983e-01,-1.438418924808502197e-01,1.526377946138381958e-01,-1.368246525526046753e-01,4.923528060317039490e-02,3.238729014992713928e-02,-4.741500597447156906e-03,1.785672605037689209e-01,-1.060467287898063660e-01,1.491913944482803345e-01,1.435968279838562012e-01,8.935521543025970459e-02,1.804399639368057251e-01,7.300443947315216064e-02,-1.880851387977600098e-02
1.857255250215530396e-01,1.039652004837989807e-01,-1.898234933614730835e-01,-1.529461443424224854e-01,1.351656317710876465e-01,1.852103322744369507e-01,-1.531153768301010132e-01,-1.486506611108779907e-01,-1.723152697086334229e-01,1.177909746766090393e-01,8.565305918455123901e-02,7.350368797779083252e-02,1.446508467197418213e-01,1.569045335054397583e-01,1.217630878090858459e-01,3.257861733436584473e-02,-1.353479474782943726e-01,-9.586114436388015747e-02,-1.954458206892013550e-01,-1.595289818942546844e-02,1.882956773042678833e-01,-8.715931326150894165e-02,-3.032641485333442688e-02,7.692196872085332870e-03,-4.462651535868644714e-02,2.075363248586654663e-01,-3.475067391991615295e-02,1.714956015348434448e-02,-2.053832411766052246e-01,-9.541138261556625366e-02,-5.573698505759239197e-02,-3.048303723335266113e-02,-1.149106696248054504e-01,-1.035556420683860779e-01,3.732935339212417603e-02,1.889337748289108276e-01,1.281414628028869629e-01,-5.110125988721847534e-02,-2.031936347484588623e-01,-3.350607305765151978e-02,-8.014934509992599487e-02,-4.410854354500770569e-02,-2.449413761496543884e-02,-9.902848303318023682e-02,-1.922180056571960449e-01,-3.686201199889183044e-02,1.747328639030456543e-01,1.394308060407638550e-01,-1.577336341142654419e-01,2.454080618917942047e-02
-1.243570446968078613e-01,7.464148104190826416e-02,-2.013708651065826416e-01,-1.632578819990158081e-01,-6.042028963565826416e-02,1.759683936834335327e-01,1.306285709142684937e-01,-1.138219237327575684e-02,-5.460649728775024414e-03,8.473694324493408203e-04,-1.018402278423309326e-01,1.297587603330612183e-01,1.590899080038070679e-01,-1.901627182960510254e-01,-3.974542021751403809e-03,-3.165009617805480957e-02,1.315407902002334595e-01,-1.345211565494537354e-01,-8.021426200866699219e-02,3.776107728481292725e-02,-1.971031874418258667e-01,-5.617882311344146729e-02,-8.673031628131866455e-02,-1.224575266242027283e-01,-2.004654556512832642e-01,1.783517003059387207e-02,-1.702919602394104004e-03,1.373422294855117798e-01,1.662184447050094604e-01,6.456245481967926025e-02,1.516648679971694946e-01,-1.449096351861953735e-01,4.668608307838439941e-03,-1.454768925905227661e-01,-1.658226251602172852e-01,-1.366403698921203613e-02,-5.509902536869049072e-02,-1.557622253894805908e-01,4.131451249122619629e-02,1.994463354349136353e-01,-1.718662381172180176e-01,1.809981316328048706e-01,1.370144337415695190e-01,-4.700832068920135498e-02,4.811371862888336182e-02,6.810118257999420166e-02,-1.589585542678833008e-01,-4.218547046184539795e-02,-8.015507459640502930e-02,-1.776601076126098633e-01
-2.216417193412780762e-01,-2.302340976893901825e-02,1.281566023826599121e-01,6.065089628100395203e-02,-1.402536928653717041e-01,-1.619254052639007568e-01,2.067118138074874878e-01,6.007895991206169128e-02,-1.219038851559162140e-02,6.933973729610443115e-02,6.477344781160354614e-02,6.025356426835060120e-02,1.923619806766510010e-01,1.672741174697875977e-01,-1.399700790643692017e-01,-4.366052523255348206e-02,-1.078651025891304016e-01,9.172104299068450928e-02,-1.551797688007354736e-01,7.154978811740875244e-02,2.335568219423294067e-01,1.824597641825675964e-02,-1.345075070858001709e-01,-6.252546608448028564e-02,4.472915828227996826e-02,-1.801948547363281250e-01,-1.576042920351028442e-01,6.535506993532180786e-02,-1.162848919630050659e-01,-1.904229521751403809e-01,-1.526456773281097412e-01,-1.337073892354965210e-01,1.462337523698806763e-01,-1.370568424463272095e-01,1.370623111724853516e-01,5.225958675146102905e-02,5.606074258685112000e-02,-5.735741928219795227e-02,1.713827252388000488e-02,-3.107790835201740265e-03,1.223722621798515320e-01,-1.942382454872131348e-01,-1.500623226165771484e-01,-1.159213110804557800e-01,8.412124961614608765e-02,-2.017842531204223633e-01,-1.903516948223114014e-01,-1.498193591833114624e-01,1.847903728485107422e-01,1.105486676096916199e-01
-7.553716003894805908e-02,-1.749171316623687744e-01,6.038036569952964783e-02,-6.037160381674766541e-02,-5.793975666165351868e-02,1.345388442277908325e-01,-6.605723500251770020e-02,-9.550810605287551880e-02,2.145982682704925537e-01,-1.292794495820999146e-01,3.227496519684791565e-02,2.357461154460906982e-01,-1.515408903360366821e-01,2.160549722611904144e-02,5.210641771554946899e-02,5.946123227477073669e-02,-1.822012662887573242e-01,3.442489355802536011e-02,1.240852922201156616e-01,1.590698026120662689e-02,-1.494897902011871338e-01,1.932268589735031128e-01,3.531835228204727173e-02,-4.174013808369636536e-02,4.778127744793891907e-02,1.943197697401046753e-01,-1.584090888500213623e-01,-7.747350633144378662e-02,-1.911917477846145630e-01,-6.458534300327301025e-02,-3.344579366967082024e-03,6.667590886354446411e-02,-2.038210481405258179e-01,-2.650712989270687103e-02,-1.698475331068038940e-01,-1.829086840152740479e-01,-1.096558198332786560e-01,-1.616107523441314697e-01,-9.923525899648666382e-02,1.646429300308227539e-01,1.970631033182144165e-01,1.260327547788619995e-01,-1.850313693284988403e-01,1.952871978282928467e-01,6.408784538507461548e-03,-1.457976996898651123e-01,-1.817631423473358154e-01,-6.229253485798835754e-02,-9.392096102237701416e-02,-6.165406201034784317e-03
-6.771708279848098755e-02,3.400096669793128967e-02,1.466894638724625111e-03,2.020944803953170776e-01,-1.445282548666000366e-01,1.271191686391830444e-01,1.116634234786033630e-01,8.202858269214630127e-02,2.900990098714828491e-02,2.605229802429676056e-02,1.598548591136932373e-01,1.282562315464019775e-01,4.296052083373069763e-02,1.819279342889785767e-01,1.617495715618133545e-01,-1.662045419216156006e-01,2.860791608691215515e-02,-4.069938510656356812e-02,-5.579870939254760742e-02,2.416730672121047974e-02,-2.152274921536445618e-02,1.287073343992233276e-01,-1.058211773633956909e-01,3.687294572591781616e-02,1.861257255077362061e-01,-6.028696894645690918e-03,-7.483039051294326782e-02,-9.816965460777282715e-02,1.554672122001647949e-01,1.454487293958663940e-01,-6.401223689317703247e-02,2.137716114521026611e-02,8.448818325996398926e-02,6.211219727993011475e-02,1.144019812345504761e-01,4.382779356092214584e-03,-1.907776296138763428e-01,2.288363873958587646e-01,2.951085101813077927e-03,-3.239843994379043579e-03,1.867780089378356934e-01,-4.874325357377529144e-03,1.247181519865989685e-01,1.361177712678909302e-01,2.698948048055171967e-02,1.396524012088775635e-01,4.855901375412940979e-02,-3.573960438370704651e-02,-1.978126913309097290e-01,2.077641338109970093e-01
1.805285215377807617e-01,-1.494130939245223999e-01,6.782458722591400146e-02,-1.137946695089340210e-01,-1.420823931694030762e-01,-1.847357600927352905e-01,1.151299104094505310e-01,-2.320391358807682991e-03,-6.546883378177881241e-03,9.841677965596318245e-04,-1.632355153560638428e-01,-2.083312273025512695e-01,-7.124187052249908447e-02,2.815669588744640350e-02,1.867737323045730591e-01,-2.848343923687934875e-03,1.606198549270629883e-01,2.353931032121181488e-02,-1.540792435407638550e-01,-9.159622341394424438e-02,-8.930367231369018555e-02,-1.931086331605911255e-01,1.548665314912796021e-01,-1.459239721298217773e-01,4.816725850105285645e-02,-1.323008984327316284e-01,-1.276964545249938965e-01,-1.419296711683273315e-01,-1.641339808702468872e-01,-1.881817281246185303e-01,-1.531369425356388092e-02,2.029563784599304199e-01,-1.034731119871139526e-01,-1.910559237003326416e-01,1.842722147703170776e-01,-1.362415254116058350e-01,5.134005844593048096e-02,1.954122260212898254e-02,1.475514471530914307e-01,3.133677691221237183e-02,-9.243535250425338745e-02,-2.567295543849468231e-02,1.063158884644508362e-01,-9.003252536058425903e-02,-1.623354256153106689e-01,1.289454847574234009e-01,-1.444892212748527527e-02,-3.132370999082922935e-03,-1.489689350128173828e-01,1.852985620498657227e-01
-9.794746339321136475e-02,5.391417816281318665e-02,6.661502178758382797e-03,7.614889740943908691e-02,-1.866406351327896118e-01,6.901290267705917358e-02,4.262777417898178101e-02,2.009389400482177734e-01,1.752826571464538574e-01,-1.290456801652908325e-01,-1.218406334519386292e-01,-1.308121830224990845e-01,2.275001816451549530e-02,-7.559764385223388672e-02,-8.402470499277114868e-02,1.790075451135635376e-01,-8.452685922384262085e-02,-1.967666298151016235e-01,1.326851099729537964e-01,-7.998377829790115356e-02,1.236306503415107727e-01,-7.945872098207473755e-02,1.132149249315261841e-01,8.853232860565185547e-02,1.576242893934249878e-01,-1.179875712841749191e-02,-1.625504344701766968e-01,-7.980844378471374512e-02,-3.369371220469474792e-02,-2.960845082998275757e-02,1.329515278339385986e-01,1.926457732915878296e-01,1.736828535795211792e-01,-1.083971038460731506e-01,-9.067379683256149292e-02,6.646647304296493530e-02,-1.800121217966079712e-01,1.520547121763229370e-01,-2.911260910332202911e-02,-4.770271107554435730e-02,-1.617887988686561584e-02,2.126056700944900513e-01,-1.723423153162002563e-01,-6.082602962851524353e-02,-1.661946624517440796e-02,-2.497553266584873199e-02,-2.293215505778789520e-02,-6.197986193001270294e-03,1.365631520748138428e-01,7.709197700023651123e-02
-1.320339143276214600e-01,1.890241205692291260e-01,3.716845298185944557e-03,-1.798879504203796387e-01,-1.537204831838607788e-01,-7.484562811441719532e-04,2.041050642728805542e-01,-4.505353979766368866e-03,-2.082567811012268066e-01,-1.029033437371253967e-01,-1.974706649780273438e-01,-1.636958122253417969e-01,1.587830185890197754e-01,-8.109654486179351807e-02,-1.226918473839759827e-01,2.701510675251483917e-02,1.267429292201995850e-01,-4.104913026094436646e-02,7.458065450191497803e-02,1.718600392341613770e-01,5.112945288419723511e-02,-1.679958850145339966e-01,-7.244607806205749512e-02,5.418112035840749741e-03,-9.341641515493392944e-02,1.006639152765274048e-01,-1.999499090015888214e-02,-2.074150741100311279e-01,1.144762113690376282e-01,3.778547793626785278e-02,3.333904966711997986e-02,2.335721440613269806e-02,-4.259612038731575012e-02,-8.060196042060852051e-02,3.112222626805305481e-02,-1.109835132956504822e-01,6.967833265662193298e-03,-1.316148638725280762e-01,1.010137200355529785e-01,-1.474775075912475586e-01,-7.773528993129730225e-02,1.142732799053192139e-01,1.479837112128734589e-02,-1.513692922890186310e-02,2.040400803089141846e-01,-3.413174301385879517e-02,1.721037030220031738e-01,-2.031824290752410889e-01,-3.029407002031803131e-02,-1.492919325828552246e-01
1.697207987308502197e-01,-4.600625112652778625e-02,3.536520898342132568e-02,7.914490252733230591e-02,-2.314199507236480713e-02,-1.776244193315505981e-01,1.303877532482147217e-01,-3.462124615907669067e-02,-1.667060554027557373e-01,-7.774387300014495850e-02,-2.037094384431838989e-01,-1.543075442314147949e-01,-1.806423068046569824e-02,-1.780187636613845825e-01,6.734467297792434692e-02,1.912608742713928223e-02,1.190723627805709839e-01,-1.575376540422439575e-01,1.240392178297042847e-01,-1.797814369201660156e-01,-6.934040039777755737e-02,-6.451012939214706421e-02,-1.910600513219833374e-01,-4.449762031435966492e-02,-7.499963790178298950e-02,-2.195594832301139832e-02,1.857893913984298706e-01,-1.497306227684020996e-01,1.113664358854293823e-01,-1.508626788854598999e-01,-1.133944019675254822e-01,-1.142978388816118240e-02,1.928123980760574341e-01,-8.859711885452270508e-02,1.483468115329742432e-01,-3.401245176792144775e-02,-1.863415539264678955e-01,2.070097476243972778e-01,1.362581402063369751e-01,-3.255995735526084900e-02,-1.607252806425094604e-01,1.867796778678894043e-01,5.076032131910324097e-02,-1.247628107666969299e-01,3.587935492396354675e-02,1.680482625961303711e-01,-5.828860029578208923e-02,2.028629332780838013e-01,1.483165770769119263e-01,1.499512940645217896e-01
1.948146373033523560e-01,1.238115578889846802e-01,9.893767535686492920e-02,1.911474317312240601e-01,1.013956964015960693e-02,-6.079486012458801270e-02,-1.676189005374908447e-01,1.326784044504165649e-01,1.210917085409164429e-01,1.308141797780990601e-01,-1.165391877293586731e-01,-1.544126570224761963e-01,1.446058005094528198e-01,-4.499986767768859863e-02,5.731166899204254150e-02,1.388896256685256958e-01,1.035321801900863647e-01,8.957003057003021240e-02,4.816487431526184082e-03,-2.757251262664794922e-03,3.261770308017730713e-02,8.382691442966461182e-02,-1.107332333922386169e-01,-1.385363191366195679e-01,-1.392101943492889404e-01,-4.742306470870971680e-02,-4.567591845989227295e-02,7.389779388904571533e-02,-3.932560980319976807e-02,7.210864126682281494e-02,-1.225461736321449280e-01,1.550052911043167114e-01,3.683537244796752930e-03,8.510832488536834717e-02,-1.651903092861175537e-01,1.360068470239639282e-01,-1.804666072130203247e-01,-1.444999575614929199e-01,2.030041664838790894e-01,8.707077801227569580e-02,2.061528116464614868e-01,-2.449090778827667236e-02,-1.525316387414932251e-01,-4.742203652858734131e-02,9.470239281654357910e-03,-4.281793534755706787e-02,-1.574998497962951660e-01,1.095488518476486206e-01,-7.706165313720703125e-03,-1.029698178172111511e-01
1.807953119277954102e-01,-1.322532594203948975e-01,1.450995802879333496e-01,-9.762886166572570801e-02,-1.747967302799224854e-01,-1.187102943658828735e-01,-1.931945681571960449e-01,2.822230942547321320e-02,1.311712712049484253e-01,1.307471990585327148e-01,-3.641157969832420349e-02,-2.781867748126387596e-03,-6.968563050031661987e-02,-1.104092001914978027e-01,-7.668936997652053833e-02,-2.046042233705520630e-01,3.866619989275932312e-02,-1.090928241610527039e-01,-1.220500320196151733e-01,-1.579707562923431396e-01,4.641237109899520874e-02,9.418661147356033325e-02,1.807093024253845215e-01,-5.682609975337982178e-02,1.099025681614875793e-01,7.641623914241790771e-02,-5.505851283669471741e-02,-2.218182012438774109e-02,-2.017047107219696045e-01,1.880685091018676758e-01,1.369825098663568497e-02,-9.697375446557998657e-02,-4.521789029240608215e-02,-7.392103224992752075e-02,-1.699143648147583008e-01,-1.604975610971450806e-01,1.116479262709617615e-01,1.538379490375518799e-01,1.907124817371368408e-01,7.612682878971099854e-02,-2.696427330374717712e-02,-5.559184402227401733e-02,2.696964517235755920e-02,-8.722942322492599487e-02,-1.270118206739425659e-01,-1.994380801916122437e-01,-3.551979362964630127e-02,-3.495623543858528137e-02,-2.592216711491346359e-03,-1.461725234985351562e-01
-5.459558591246604919e-02,-2.155068330466747284e-02,1.903734803199768066e-01,3.242554515600204468e-02,4.657997190952301025e-02,7.827441394329071045e-02,-4.721082374453544617e-02,-1.596096456050872803e-01,1.759088784456253052e-01,5.972259864211082458e-02,-8.586976910009980202e-04,-1.525283977389335632e-02,-1.009462326765060425e-01,-2.244105003774166107e-02,9.255696088075637817e-02,-1.642414331436157227e-01,-1.557240337133407593e-01,-1.944949328899383545e-01,6.077398359775543213e-02,-2.066447883844375610e-01,9.389357268810272217e-02,2.003312706947326660e-01,-8.920733816921710968e-03,7.308729737997055054e-02,9.272064082324504852e-03,-9.721729904413223267e-03,-1.656441241502761841e-01,2.375008724629878998e-02,1.882447153329849243e-01,-1.009912565350532532e-01,1.952420547604560852e-02,4.481185600161552429e-02,9.506633132696151733e-02,2.301387302577495575e-02,1.994760483503341675e-01,1.099049672484397888e-01,8.634162694215774536e-02,1.058924850076436996e-02,-9.576188027858734131e-02,2.297721989452838898e-02,-1.516806893050670624e-02,1.645281612873077393e-01,-1.207518205046653748e-01,1.690871417522430420e-01,-3.457869961857795715e-02,1.186696738004684448e-01,-7.121431082487106323e-02,-1.741663515567779541e-01,-1.760623306035995483e-01,-1.772926449775695801e-01
-1.408607661724090576e-01,-1.143020838499069214e-01,-4.006495326757431030e-02,1.460027694702148438e-01,-7.738555222749710083e-02,-6.796473753638565540e-04,-1.521183177828788757e-02,-9.104051440954208374e-02,8.465198427438735962e-02,-1.920236498117446899e-01,1.209361404180526733e-01,-1.781583279371261597e-01,1.648963540792465210e-01,1.818734258413314819e-01,-2.775081992149353027e-02,-1.825136989355087280e-01,1.562372893095016479e-01,-1.420847773551940918e-01,1.324018985033035278e-01,-8.639167994260787964e-02,3.861459717154502869e-02,3.111203946173191071e-02,1.303362548351287842e-01,-5.983560904860496521e-02,5.245175957679748535e-02,-1.565263718366622925e-01,1.778859496116638184e-01,1.712011694908142090e-01,7.269958406686782837e-02,2.089074626564979553e-02,1.469565033912658691e-01,1.471883803606033325e-01,6.937827169895172119e-02,-5.280008539557456970e-02,1.801826059818267822e-01,1.530565321445465088e-01,9.515734389424324036e-03,1.693523675203323364e-01,-1.076407879590988159e-01,2.026108801364898682e-01,-4.352915287017822266e-02,-4.841903690248727798e-03,2.029378712177276611e-02,-1.475297659635543823e-01,1.536538545042276382e-02,-2.367242798209190369e-02,-6.358813028782606125e-03,1.328802406787872314e-01,1.414310485124588013e-01,-8.560901135206222534e-02
2.198539525270462036e-01,-2.320040762424468994e-01,-1.461594849824905396e-01,4.945825040340423584e-02,-3.085328452289104462e-02,-1.162606701254844666e-01,6.622739136219024658e-03,-2.134842723608016968e-01,6.879243999719619751e-02,-4.940798133611679077e-02,1.131778508424758911e-01,-6.174790207296609879e-03,-4.042081534862518311e-02,1.250894963741302490e-01,-4.367398470640182495e-02,2.295297943055629730e-02,1.295906156301498413e-01,-1.006799787282943726e-01,-8.885223418474197388e-02,-1.661027669906616211e-01,-1.640178859233856201e-01,9.665311872959136963e-02,-1.635320186614990234e-01,1.726543009281158447e-01,-1.900680214166641235e-01,-1.457390785217285156e-01,-2.032890021800994873e-01,1.716061495244503021e-03,-1.658550500869750977e-01,8.752859383821487427e-02,1.275746375322341919e-01,-3.429160639643669128e-02,-4.984673112630844116e-02,1.394552737474441528e-01,1.942209303379058838e-01,1.957001090049743652e-01,1.408184021711349487e-01,2.138825953006744385e-01,1.240029111504554749e-01,5.254735425114631653e-02,1.078153848648071289e-01,8.221469819545745850e-03,-7.807367295026779175e-02,9.948490560054779053e-02,-1.492012888193130493e-01,1.720808148384094238e-01,2.261464148759841919e-01,9.955006092786788940e-02,-1.987056583166122437e-01,9.618835151195526123e-02
1.999790668487548828e-01,1.277375370264053345e-01,-1.864350885152816772e-01,-3.446193784475326538e-02,-1.159980148077011108e-01,-1.076230481266975403e-01,-1.552430987358093262e-01,-1.886616498231887817e-01,4.618901014328002930e-02,5.439342930912971497e-03,-1.568652242422103882e-01,2.166668921709060669e-01,-1.244332268834114075e-01,1.718556284904479980e-01,-5.524361878633499146e-02,1.109165325760841370e-01,-9.964565187692642212e-02,-1.907787173986434937e-01,5.706267058849334717e-02,-3.212068229913711548e-02,-4.116026684641838074e-02,-1.951373368501663208e-02,9.274072945117950439e-03,1.811762601137161255e-01,1.180775314569473267e-01,1.293408274650573730e-01,2.043682634830474854e-01,-5.444757267832756042e-02,4.474022239446640015e-02,-1.871066093444824219e-01,-1.503442227840423584e-01,1.558785736560821533e-01,-1.229525581002235413e-01,1.581658422946929932e-01,-2.174381352961063385e-02,5.386034771800041199e-02,-1.222706362605094910e-01,-1.568263620138168335e-01,-1.834330558776855469e-01,-1.564908027648925781e-01,-1.082728058099746704e-01,1.505394577980041504e-01,-1.128938496112823486e-01,1.923322863876819611e-02,-1.531150341033935547e-01,-1.632282435894012451e-01,1.691114902496337891e-01,2.427666448056697845e-02,-2.506029978394508362e-02,1.479972898960113525e-01
1.266420781612396240e-01,-1.898485571146011353e-01,-1.328061334788799286e-02,2.161135664209723473e-03,4.336623847484588623e-02,1.274940520524978638e-01,-1.912449598312377930e-01,4.577692970633506775e-02,-4.852980747818946838e-02,1.934273093938827515e-01,9.008122980594635010e-02,1.187396869063377380e-01,-1.432731151580810547e-01,-1.247375160455703735e-01,4.426254425197839737e-03,1.798029392957687378e-01,1.909502595663070679e-01,-1.939764022827148438e-01,-6.351292133331298828e-02,7.316809892654418945e-02,1.205677073448896408e-02,2.214175611734390259e-01,-6.096355244517326355e-02,-1.292052567005157471e-01,-8.287916332483291626e-02,2.021408826112747192e-01,3.043246269226074219e-02,-7.334526628255844116e-02,-1.733383834362030029e-01,-2.366922982037067413e-02,-8.660464733839035034e-02,1.524206995964050293e-01,8.101210743188858032e-02,-6.424652785062789917e-02,2.358186095952987671e-01,6.416081637144088745e-02,-3.185127675533294678e-02,3.552652150392532349e-02,1.294119656085968018e-01,1.622033268213272095e-01,-5.932119116187095642e-02,-1.516798604279756546e-02,-1.125350967049598694e-01,5.344369634985923767e-02,1.703400015830993652e-01,6.933993846178054810e-02,1.435765475034713745e-01,1.189739704132080078e-01,-1.149199977517127991e-01,-5.780358985066413879e-02
1.801028102636337280e-01,-2.073580026626586914e-02,-2.624315023422241211e-02,-8.085590600967407227e-02,-1.318818330764770508e-02,1.258787363767623901e-01,-8.064851164817810059e-02,3.943987190723419189e-02,-1.913875341415405273e-03,1.294829994440078735e-01,-4.002574086189270020e-02,1.694280952215194702e-01,1.246019452810287476e-01,-1.202466115355491638e-01,-1.516642868518829346e-01,5.811436474323272705e-02,-1.018443703651428223e-01,6.608094274997711182e-02,9.202779829502105713e-02,-3.993576765060424805e-02,-1.261325180530548096e-01,7.477726042270660400e-02,-8.796706050634384155e-02,8.609147369861602783e-02,-1.924196183681488037e-01,1.707057654857635498e-02,1.266487389802932739e-01,-1.092035025358200073e-01,5.555365979671478271e-02,6.569416821002960205e-02,9.615378081798553467e-02,4.077020287513732910e-02,1.791090220212936401e-01,3.209692239761352539e-02,1.525320261716842651e-01,1.568851619958877563e-01,-7.184290885925292969e-02,-1.653646975755691528e-01,-1.007734686136245728e-01,-1.355663836002349854e-01,1.433443278074264526e-01,-1.557479202747344971e-01,1.702282279729843140e-01,-6.874997913837432861e-02,-1.215893775224685669e-01,1.354537159204483032e-01,-1.333859860897064209e-01,-7.146646082401275635e-02,-1.125647872686386108e-01,1.879921704530715942e-01
9.533216804265975952e-02,2.033016234636306763e-01,-1.518281847238540649e-01,-1.401536017656326294e-01,-2.930122986435890198e-02,-1.558726876974105835e-01,-1.941614747047424316e-01,2.228032052516937256e-01,2.091022729873657227e-01,-2.571552991867065430e-02,7.938899099826812744e-02,-1.582776606082916260e-01,-1.372408419847488403e-01,1.011918187141418457e-01,1.105560585856437683e-01,1.479122787714004517e-01,1.564911007881164551e-01,-9.291526675224304199e-02,-1.979225277900695801e-01,9.784272313117980957e-02,6.137252226471900940e-02,-8.099026978015899658e-03,-1.255735754966735840e-01,-3.316711261868476868e-02,1.310086548328399658e-01,4.177241772413253784e-02,2.083661705255508423e-01,7.146667689085006714e-02,-1.495584249496459961e-01,-2.195207625627517700e-01,1.191971823573112488e-01,-4.390529543161392212e-02,-1.324765831232070923e-01,-9.508134424686431885e-02,-2.119280956685543060e-02,-1.236553341150283813e-01,-1.585010290145874023e-01,-1.547055393457412720e-01,2.803142182528972626e-02,-1.174520626664161682e-01,1.880349516868591309e-01,2.117186784744262695e-02,2.085016071796417236e-01,1.153040453791618347e-01,-1.649791561067104340e-02,-4.754859954118728638e-02,9.521047025918960571e-02,1.981758028268814087e-01,5.779435858130455017e-02,-1.014904752373695374e-01
